-0.0257308 0.0203083 -0.0008166 0.0731854 -0.0490261 -0.0587849 -0.0334436 0.0476962 -0.0012802 0.00446074 -0.0261826 0.0556524 -0.00781882 0.0553041 -0.0712462 0.0644907 0.0441471 -0.0589818 0.0280134 0.0173494 0.0529609 0.0520009 0.0525297 -0.00121191 0.0169241 -0.0614262 -0.0200852 0.074492 0.0353942 0.0704214 0.0176922 0.0393948 0.0432317 -0.0127931 -0.00813341 0.0084321 -0.0146742 0.0308114 -0.0183777 -0.0370481 0.0407868 -0.0679361 -0.00383514 0.0650205 -0.00298713 -0.0294288 0.0185161 -0.0507526 0.0261039 0.0394783 -0.0545221 0.0510029 0.0599123 0.0124988 0.051552 -0.0716099 0.00293086 0.049518 -0.0293237 0.0369827 0.0389802 0.0314691 0.0365022 -0.0666455 -0.0213274 0.0499512 0.0109479 0.009825 0.00570885 0.0390477 0.0718926 -0.055983 -0.0641656 0.0531184 0.0160207 0.0669656 0.0665111 -0.0190847 0.04961 -0.00432555 -0.0495576 -0.0430376 -0.000837942 0.022254 0.0522262 -0.0579894 0.0463213 0.0455504 -0.054543 -0.0141555 -0.070802 -0.0563515 0.0310848 -0.041954 0.0382506 0.0142321 -0.029355 0.010236 -0.041125 -0.0502465 0.0518442 0.0561705 0.00658808 0.00282071 0.0530478 -0.0381786 -0.032908 0.00795252 -0.0647871 -0.0495664 -0.0262127 0.0714673 -0.073277 0.0597989 0.052407 -0.0262319 0.0100212 0.0473658 -0.0523014 0.0276629 -0.0604119 -0.0370462 0.0503414 -0.0330158 -0.0251576 -0.0329457 0.0438175 0.0741873 -0.040582 0.0507515 0.0614685 -0.0100764 0.0224831 0.0666937 0.0360493 0.0254448 0.0696456 -0.0348932 0.0148129 0.0532333 0.0678007 0.0592931 -0.0230095 0.0347405 -0.0386606 -0.000696394 0.0186775 0.00927862 -0.0378476 0.00310871 0.0299006 0.00482013 -0.0129951 -0.0436813 0.0349347 0.0461307 0.0503264 -0.0192321 0.00548227 -0.0168767 0.0689296 0.0444628 -0.0717479 0.0572471 -0.0103905 -0.0579358 0.000240493 0.0551499 0.0241518 -0.0123774 0.00201069 -0.0285877 -0.0477305 -0.0395083 -0.0647437 -0.0689751 0.0739301 0.0518788 -0.0239876 0.0060789 0.0681569 0.0519432 0.0727488 0.0244132 -0.0660602 -0.0243764 0.0113084 -0.0225197 0.0576158 0.0606696 0.0153415 0.0254588 -0.0143191 -0.0698938 -0.00215419 -0.0584761 -0.013902 0.0438539 -0.0274172 -0.0744692 -0.0375634 0.0138753 0.00356581 0.00468018 -0.00912307 0.0430667 -0.00761263 0.0131059 -0.00892633 0.00617756 -0.0205881 0.0302855 -0.0678978 -0.0156523 0.0317427 0.00915106 0.0226623 -0.00937726 0.0735913 0.0667296 0.051962 -0.010432 0.0561719 -0.0341231 -0.0394835 -0.0156312 0.0759389 0.0434629 -0.00367553 0.011444 0.0730643 -0.045618 -0.0322201 0.0243521 0.0240295 0.0708993 0.0218786 -0.0489315 0.053792 0.00611086 0.0598469 -0.0581675 -0.0679603 0.0190309 -0.0369484 -0.0333023 0.0190573 0.0508681 -0.0684966 0.020357 0.0093848 0.0383927 0.0714134 -0.0190723 0.0666833 -0.0448054 
-0.0350245 0.055582 0.0296507 0.0428519 0.0199716 -0.0708094 0.0194552 0.0338612 -0.0101191 -0.0355917 -0.00068985 0.0217042 -0.047718 0.022982 0.0691832 0.0487845 0.0309739 -0.0263541 0.0243238 -0.0218061 -0.0688718 -0.0543858 -0.073039 0.0702317 0.053734 -0.00509534 -0.0128103 0.0448371 0.0637032 -0.0473446 -0.0724179 0.0495047 -0.0360541 -0.0146619 -0.0142542 0.0445917 0.058559 0.0602429 0.0410061 0.0560755 -0.0371275 0.0729242 0.0609433 -0.0249175 0.0120421 -0.045527 0.0369854 -0.0560844 0.0289264 0.048448 -0.0502819 -0.0452355 0.0670249 0.0722278 0.0682108 0.0331296 -0.0465747 -0.0207735 0.0640846 -0.0397945 -0.00821474 0.0111836 -0.0435537 0.00653273 0.0248145 -0.00116724 0.062746 -0.0749505 -0.0498854 -0.0345234 -0.0150366 -0.014234 0.0417747 -0.0179872 0.0396717 0.0482432 0.0488731 -0.0254915 -0.0382995 0.0433639 -0.0328628 -0.0177681 0.0598601 -0.0131828 0.0514292 -0.0363382 0.0746047 -0.0658495 -0.0188814 0.0552802 0.0518072 0.0548828 -0.0483168 -0.0485359 -0.0483682 -0.029476 -0.00819431 -0.0315055 -0.0238683 -0.0443832 0.0646349 0.0140647 -0.0466053 -0.0419811 -0.0710457 0.0681626 -0.0689132 0.00228555 0.0387006 -0.0268812 -0.0190091 -0.00577582 -0.0585343 0.0725733 0.0597658 0.0404629 0.0668999 0.0500199 0.0488495 -0.00790784 0.0471537 0.0168885 0.0413477 -0.0241623 0.0208614 -0.0156878 -0.0346221 0.0712365 -0.0640763 -0.070567 0.00225528 -0.026053 0.0161855 0.0752235 -0.0450276 -0.00138563 0.0625382 -0.056051 0.0351762 -0.0171198 0.0388797 -0.0558738 -0.0711095 0.0561663 0.0702473 -0.00109702 0.0239911 0.0602616 0.068247 0.00164824 0.0201539 -0.0681567 0.0498011 -0.0437467 0.0607026 -0.0710039 0.0242054 -0.0751362 -0.0444209 0.0472182 0.0418968 -0.0533895 0.0366256 -0.0532125 0.0243104 0.003983 -0.0139466 -0.0681608 0.0246573 -0.0683186 0.0523862 0.0655047 0.0199848 -0.0576675 -0.0442479 -0.00112468 0.0270654 -0.0123738 -0.0376529 0.0136593 -0.0134299 0.0315791 0.0489378 0.0136532 -0.000431159 0.0221204 0.0198344 0.0598173 -0.0686356 -0.0309661 0.00606989 -0.00475252 -0.00471215 0.0149376 -0.0429624 -0.0141625 -0.0487769 0.0238303 -0.0524893 0.0198919 0.0396782 0.026746 -0.0709542 -0.0541505 0.065736 -0.0669748 0.0716617 0.0562635 -0.0526317 -0.0593756 0.0347365 -0.0234682 0.000953599 0.0158182 0.0243787 0.0392023 0.002872 0.0588862 -0.0539042 0.0388132 0.0145911 -0.0283022 -0.0689134 -0.0274996 0.0540233 -0.069455 -0.00731376 0.0312183 -0.000984138 -0.0122729 -0.0739594 -0.0464172 0.0397928 -0.0299473 -0.0196266 0.0112066 -0.000591165 -0.0635718 0.058878 -0.00177117 0.0399629 -0.0287815 0.0553838 0.0162422 -0.0527194 0.0528377 0.0482865 -0.0493453 0.0523972 0.00210594 -0.0552695 -0.0335611 0.0257256 -0.0482836 0.0684811 -0.00068061 
0.0391192 0.0261338 0.0330656 0.0313068 -0.0545818 -0.0717096 -0.0694777 0.0387961 0.0268607 0.00358273 -0.0559281 -0.018072 -0.0511134 -0.0109259 -0.0722509 -0.0106022 0.0152003 0.0383843 0.0266206 0.00326307 0.0386504 -0.0339624 -0.014525 -0.0196321 -0.0677838 -0.06901 -0.0593491 -0.00349285 -0.0692078 0.0135395 -0.0707008 0.0401199 0.0699819 0.0658421 0.0649428 -0.0224786 0.0422153 -0.0231411 0.0221648 -0.0682125 0.0515041 0.0708303 0.0739489 0.0564654 -0.0149157 0.0317223 -0.0626928 0.0164105 0.0323323 -0.00489875 0.0756778 -0.0630153 0.0443082 -0.0411443 -0.0440859 0.0493185 -0.00295529 0.0637739 0.0342999 -0.0112812 0.0471148 -0.048626 0.0565752 0.00656158 0.0119825 0.0600837 -0.0404168 -0.010121 0.0484826 0.0438246 -0.0502812 0.0227515 0.0638918 -0.0464849 0.00678246 -0.0511087 -0.0666082 -0.0633149 0.0659776 0.034434 0.049072 0.0750612 0.0147258 0.0462046 -0.0331705 0.073975 -0.0218244 -0.0068207 -0.00167794 0.00698479 -0.00866342 0.00887037 0.0689929 -0.0285564 -0.0642206 0.0398984 -0.0388823 0.0123346 0.0604141 -0.0413219 -0.0416785 -0.0544999 0.0601761 -0.0683484 0.0671336 0.0328972 -0.050393 0.0516141 0.0421646 0.00519272 0.0326024 0.00366027 -0.0299075 0.0372472 0.0430838 0.0496579 -0.0143043 -0.0494674 0.0464581 0.0623362 0.0148061 0.0245141 0.0590788 -0.0490034 -0.0228834 0.0681663 -5.57767e-05 0.00941979 -0.0755051 -0.0699879 -0.00906368 0.0716898 -0.0317669 0.0421424 -0.0416672 -0.0297475 0.0615262 -0.0181714 0.0612819 0.0357029 0.0363011 0.0665908 0.0523734 0.0172159 -0.00610053 0.0436347 -0.0614105 -0.052696 0.00743425 -0.0462078 -0.0444482 0.0711478 0.0156512 0.0377058 0.0259778 0.030792 -0.0196851 0.00862659 -0.0586325 0.00770139 0.066663 0.0711555 -0.0713246 -0.0734057 -0.0696967 -0.0172238 0.00357418 -0.0132518 -0.0649173 0.0598929 -0.0681288 0.00879139 -0.0126171 -0.0693397 -0.0507702 -0.0618611 -0.0618861 -0.00204443 -0.0172366 -0.0732683 -0.0715296 -0.0206007 -0.0467661 -0.0746129 0.0656455 0.00059485 -0.0329623 -0.0691189 0.0656627 0.0617627 0.0247155 0.0533301 0.0469882 0.0179473 0.0461697 0.0409011 0.041054 -0.00346476 -0.00522203 -0.0246213 0.0260871 -0.0726509 -0.0316761 -0.0183414 -0.0386267 -0.0133192 -0.00118332 0.0185746 0.0029433 0.0227266 -0.0190201 0.0307506 0.0453529 -0.0137394 0.0664886 -0.0347303 0.0100844 -0.0200802 0.0711981 -0.0407591 0.04158 0.0136579 0.00339308 0.0726685 -0.0538953 0.0588777 -0.00593143 0.0541807 0.0253431 0.0164133 0.0733094 -0.0730093 0.00879696 0.0371813 -0.00487815 -0.0541477 0.0487132 -0.013007 0.0514364 0.0107197 -0.0611337 0.015093 0.00908075 0.0492029 0.0240346 0.0544687 -0.0701704 0.00725222 0.0143798 0.0756805 -0.0606312 -0.034336 0.0446986 -0.0557246 -0.00961984 0.0216907 
-0.074639 0.0498477 0.0415988 0.0243341 -0.0190796 -0.0292784 -0.0158729 0.033378 -0.0727854 0.0652132 -0.0618805 0.0347478 -0.0187651 0.048679 -0.0181152 0.0498208 -0.015374 0.0274543 0.0150305 0.011013 0.0538223 -0.0219022 0.0754323 -0.062944 -0.0511837 0.0168128 0.0109102 0.032855 -0.0293286 0.0252542 0.0365519 0.0630566 -0.0250756 0.0143494 0.0500583 0.00734473 0.0651821 0.0466654 0.0356784 -0.0529985 -0.0601611 0.0036862 0.0480928 0.0357064 0.0287051 -0.0203245 0.00120449 -0.0522868 0.0314699 -0.0534185 -0.0240604 0.0321705 0.0286291 0.031002 0.0241867 -0.0343368 -0.0398399 -0.0160689 0.0462228 0.0699416 0.0019717 0.0411257 -0.0567165 -0.0365995 -0.0654101 -0.00218607 0.0267977 0.0302757 0.0709917 0.01096 -0.0623189 0.049135 0.0348804 -0.0101457 0.035801 -0.0721709 0.013479 0.00582649 0.0606933 -0.00749634 -0.0507979 -0.0351713 0.0244731 0.0621271 -0.0425556 -0.0163481 -0.0690123 0.0402955 0.0607301 0.034922 0.010426 0.00298247 0.0656058 -0.0115489 -0.0462627 -0.0214963 0.0575778 0.0281348 0.0298273 -0.0532487 0.0758272 -0.0254345 -0.0256038 0.0707091 0.0382637 -0.0294035 -0.00612748 0.01054 0.0526627 0.0395 0.048413 -0.0442122 0.0411479 -0.0551118 -0.013359 0.0537141 0.0467724 -0.0356024 0.00392513 0.00275026 -0.0527592 -0.0261512 0.0753377 0.0677277 -0.0332986 0.0665957 -0.047762 0.0701851 0.0166855 -0.0557625 0.0377704 -0.0576026 0.0321248 0.0273582 0.0199468 -0.0523901 0.0588709 0.000700218 0.00474907 0.0149065 0.0446515 0.0675097 0.0519168 -0.0490538 0.0100088 0.0491919 0.0258348 0.0157435 0.050055 0.0388235 0.0206392 -0.0537617 -0.0591898 0.0665255 0.0241402 0.0647826 0.0371108 0.0573911 -0.0459524 0.0291387 0.0450145 -0.064665 0.0257082 -0.0139754 -0.0282949 -0.0335498 0.0384505 0.0116362 0.0132434 -0.00182913 0.0252543 -0.0295047 -0.0660133 0.00751269 0.0548441 -0.0581134 0.0512111 0.0228616 0.0655376 0.0126056 0.00352968 -0.0107189 0.0369906 -0.00387275 -0.0552361 0.057984 -0.0344127 0.0226846 0.0174091 0.0717245 -0.0332411 -0.0572665 -0.0252097 -0.0519295 -0.0533482 0.0314359 0.0165131 -0.0492967 0.0421849 0.0510185 0.0743725 0.0258684 0.0634821 0.00017283 -0.0474643 -0.0242312 0.0328723 -0.0684561 -0.0246714 -0.0164648 -0.0253512 -0.0589031 0.0611771 0.0369267 0.0588153 -0.0392501 0.0327887 -0.0314335 0.0120833 0.0233127 0.0665492 0.0443818 0.0515133 0.0381596 -0.0686035 -0.0542769 0.0369061 0.00948563 0.0495027 -0.0241016 -0.0020985 0.074513 0.00391049 0.0452264 -0.00744745 0.0581897 0.00627143 -0.0265216 -0.02482 0.0365874 -0.0707426 -0.0581536 -0.00317052 0.0361372 0.0472099 0.0564123 -0.00595266 0.0139956 -0.0644363 -0.0230662 0.0297709 0.0407909 0.0229894 0.0331766 0.0472679 -0.0375903 
-0.0162272 0.00807213 0.0640359 -0.00435566 -0.00271099 -0.000263606 0.00250435 -0.00300998 -0.0738527 0.0132683 0.050367 -0.0588195 0.0720083 0.0452451 0.0434967 0.0128244 0.0336494 -0.0609968 -0.0114399 0.0468107 -0.0729299 0.00455308 0.045055 0.0474935 -0.0279113 0.0139467 -0.0456861 -0.053761 0.0671703 0.0350411 -0.037069 0.0751045 -0.00374535 -0.0111494 -0.0515383 0.0376328 0.05457 0.0217575 0.044593 0.0040721 0.0260513 0.0105403 0.0491402 -0.0345315 -0.0242618 -0.00963878 0.0313127 0.0486077 -0.000529064 -0.0238257 -0.0751857 -0.0474932 -0.00831243 -0.0444801 -0.0281848 0.0585004 -0.0611488 -0.00879577 0.0465708 -0.0369895 -0.0642748 -0.0207434 0.0754305 0.00970321 0.0486493 0.000748715 0.0546506 -0.04975 0.0228634 -0.0497491 0.006006 -0.0529799 0.0532441 -0.0481878 -0.0457401 -0.0663169 0.0535767 -0.0494023 0.0727208 0.0201409 -0.0173008 0.0262878 0.0663569 0.0584206 0.0498415 -0.0123887 0.0133605 0.0391664 -0.0226329 0.00456232 0.0424264 -0.0574853 -0.0479303 -0.026657 -0.0530443 -0.0677053 0.0424284 -0.0382673 0.0523745 0.0075889 -0.0141559 0.0460611 -0.0567824 -0.0515286 0.0255128 -0.0670351 0.0546147 -0.0480295 0.0759462 -0.0583754 0.0632024 -0.0557332 -0.0641044 -0.00666108 -0.0141336 0.0474229 0.0680886 -0.0571039 -0.035687 0.0481082 -0.0718151 -0.0602007 -0.0254471 0.0315559 -0.0373846 0.060324 -0.021464 0.00774514 -0.00395967 0.0540083 0.00443356 0.0577019 -0.00978566 -0.00155626 0.030133 -0.0137403 0.0132753 -0.052302 -0.0739442 0.0348329 -0.019909 0.0522752 0.0400344 -0.0523038 -0.0732999 -0.0444699 0.0272075 0.00306785 0.0357573 0.0390842 -0.0612166 0.0306407 -0.0241875 -0.00504706 -0.0695443 -0.0423798 0.0125562 -0.0318104 0.047131 0.0166792 0.0536565 0.0613765 -0.0477613 -0.00859394 -0.0153746 0.00562994 -0.0317144 -0.0613368 -0.0167809 -0.0153006 0.0588519 0.00275692 -0.0568093 0.00713862 -0.0666503 -0.03289 -0.0489022 0.0352081 0.0457698 -0.0343302 -0.0574758 -0.0167005 -0.0113894 -0.0560323 -0.0410259 0.0466788 -0.00643574 -0.0242757 -0.022909 -0.0735744 -0.0571356 -0.0586999 -0.0752959 -0.00178669 0.067741 0.0523049 0.0654784 -0.038782 -0.0263582 0.0717981 0.0268832 -0.0045314 0.040225 -0.0223038 -0.0298325 -0.0161247 -0.0406999 -0.0342928 0.0518552 -0.026638 -0.0408814 0.067086 0.0591059 0.0464298 -0.0608186 0.0719659 0.0266038 -0.0221273 0.0289833 0.0150348 0.0583722 -0.00728814 -0.0341696 -0.0162302 -0.0373544 -0.0707596 -0.03046 -0.0203111 -0.0334788 0.00501056 0.0141249 0.028831 -0.0677722 0.0580232 -0.0592088 0.0550715 0.058101 0.0354467 -0.0123787 -0.0758529 0.0729235 0.0580614 0.0406867 -0.0435754 -0.0674955 -0.00653998 -0.0182023 0.0258735 0.00702907 0.0262562 0.0448026 -0.0287162 0.0312003 -0.00791892 -0.0487385 0.0115198 
-0.0715973 0.0139209 0.0117053 0.0551825 -0.032007 0.0193438 -0.00105073 0.00243505 0.0527519 -0.0659329 0.0432778 -0.0211891 0.0748431 0.0719746 0.0326477 0.0702999 0.0403072 0.00493893 0.0153361 0.0436359 -0.0460046 -0.066028 -0.00371663 0.0755394 -0.0649057 -0.0579911 -0.0143604 0.0512698 -0.038498 -0.0203454 0.0127239 0.064565 0.0148168 0.0457881 0.046782 -0.000526694 0.00547497 -0.0245632 -0.0131706 0.0129051 0.00518614 0.0535482 0.0557986 0.0644277 0.040746 -0.00473277 0.0652926 0.0503703 0.0151186 -0.0625287 -0.00799167 -0.00465621 0.0396225 0.00388495 -0.0629002 0.0260833 -0.00796174 0.0489255 -0.00404742 -0.0441583 0.0133347 0.0336214 0.0497856 0.0403864 -0.0174492 0.0649501 -0.0311702 0.002515 -0.0377869 -0.0513004 0.0084819 -0.0462407 0.0380263 -0.0398126 -0.0604287 -0.000124098 0.0540146 0.0360961 0.0649684 0.0519467 0.00679131 -0.0510105 -0.0750751 0.0281863 0.0523969 0.00710376 0.0475507 -0.0284021 -0.0667528 0.00359218 0.0301537 0.0649551 -0.0439458 0.0689581 0.0475329 0.0690604 -0.0504342 0.0122023 0.0414195 -0.0138428 -0.0185139 -0.0685573 -0.0401425 -0.0431584 -0.0203728 0.0358026 0.0385429 -0.030441 0.0701679 0.0207121 -0.0421948 0.0379385 0.0338653 0.000724443 -0.0296002 0.0172667 -0.03553 0.0223926 -2.12779e-05 -0.0756926 -0.041095 -0.0270608 0.000950923 -0.0735439 -0.0593512 0.0654429 -0.0165664 0.0706704 -0.0405095 -0.0168247 -0.0121349 -0.0344556 -0.00722233 -0.0693834 -0.0156388 -0.0357824 -0.0551784 -0.0489008 0.0246703 -0.0583722 0.0236563 0.0470111 0.0700643 0.00547483 0.0583793 0.0568379 0.00541632 0.0242147 -0.00561556 0.00835034 -0.0101934 -0.00587332 -0.00899077 -0.0201371 0.0337534 -0.0192377 -0.034928 -0.0581159 0.0485308 0.0555603 -0.0407434 0.0325286 -0.0553168 -0.0195174 -0.0401177 0.0481931 -0.0214088 0.0420839 0.0573309 0.0567124 0.0130514 -0.023528 0.0733837 -0.0322211 0.0339181 -0.0526158 -0.0696548 -0.00221956 0.0481662 -0.0108425 -0.0207284 0.0125552 0.0602995 -0.0216809 0.073997 0.0547612 -0.071897 0.0314043 -0.0523088 0.0413198 -0.0749964 0.0370005 -0.0108048 0.0746309 0.0202878 0.0623287 0.0658754 0.036124 -0.00699957 -0.0542952 0.0265721 0.0492201 -0.0186109 -0.0749546 -0.0682772 0.031529 -0.0410741 -0.0277771 -0.0236497 0.0464683 0.0411525 0.0651985 0.0306811 0.00230948 0.0683139 -0.0370908 -0.0715989 -0.0437839 -0.0407825 -0.0247143 0.00114872 0.0220751 0.0239256 -0.0179157 -0.0179457 -0.0621786 0.0348596 -0.0506702 0.0638189 -0.0468966 -0.0187715 0.0634599 -0.042829 0.0158418 -0.0505658 -0.0570299 -0.0592632 -0.0538004 0.00357875 -0.00156586 0.000898666 -0.0635118 -0.0492718 -0.0702103 0.0333947 0.0345481 -0.0263711 -0.0161304 -0.0284174 0.0597718 0.0162848 0.0723288 0.0367291 -0.0536363 -0.00780381 -0.00545731 
0.0616647 0.0481015 0.0181451 -0.0723548 0.0465991 -0.0549326 -0.0511644 -0.0103509 0.0539289 -0.0476113 0.0317977 -0.0353635 0.0209913 0.00836978 0.0666787 -0.0695233 -0.0625488 -0.0351651 -0.00451475 0.0419425 -0.00730144 0.0652057 0.00267915 0.0139448 -0.0731082 -0.0374217 -0.0338809 -0.0538666 0.0324929 -0.0440013 -0.0426664 0.061587 -0.010117 0.0167547 -0.0127297 0.00426621 -0.0474559 -0.0508491 0.0727196 0.0517783 -0.0320779 -0.0648977 -0.0447476 -0.0526954 -0.027485 -0.0131921 0.0362173 0.0718434 -0.0404598 0.00239279 -0.0531326 0.0314969 -0.0154411 -0.0395581 -0.00605372 -0.0641973 -0.0448839 -0.0324839 0.0124819 -0.0191537 -0.0432973 0.0589756 -0.0201934 0.0583688 0.034885 -0.0248946 -0.0129881 -0.00936968 -0.0738441 0.0300616 0.0303604 0.0561116 -0.0387872 -0.0471323 0.0729352 -0.0426093 0.0688384 -0.0576269 -0.022574 0.00143843 -0.0516897 0.0555154 0.0572589 -0.00819036 -0.0564316 -0.0194883 -0.0451981 -0.00314018 0.0688998 -0.0364273 0.0379371 0.0283237 0.0743085 0.0312964 -0.0359569 -0.0236315 -0.0232469 -0.0326979 0.0371975 0.0290955 -0.0403532 0.0732928 0.00595065 0.0222611 -0.00534669 -0.0231606 -0.0614707 -0.0715962 0.00485561 0.00201944 0.00786924 -0.0745721 -0.035454 0.067092 0.0444889 0.0728212 0.0755968 0.0713902 0.0663593 -0.00585786 0.0296254 0.0637358 -0.0758988 -0.00297594 0.0610012 -0.0451287 0.048471 -0.0329371 0.027485 -0.0378402 -0.0285242 -0.0418989 0.0343976 -0.045203 0.00719402 -0.046823 -0.00266642 -0.0273915 0.0093386 0.0661744 -0.03767 0.0433098 0.00615776 0.0570029 0.0471143 0.00764891 0.0421693 -0.0583884 0.0188618 0.0359111 -0.0244883 0.0469124 0.0503011 -0.00810658 -0.00716 -0.000875241 0.0615023 0.0258687 0.0307277 0.0745843 0.0560831 -0.0345686 0.0538642 0.075732 0.0301846 -0.0622143 -0.0671504 0.0446673 -0.0729927 -0.0328171 0.0147178 0.0546066 0.0603726 -0.00552304 0.0599985 -0.0658264 -0.0465178 0.0113538 0.0705696 -0.0326916 0.0458184 0.0672547 -0.0018238 -0.0684217 0.000223908 -0.0320356 -0.0206727 0.041998 -0.0438009 -0.0480964 -0.0247765 0.0338163 -0.0673121 0.0286003 -0.0437389 0.0115788 0.0258164 -0.0509166 0.0553201 -0.0347369 -0.0698899 -0.0718718 0.0486688 0.00990719 0.0363099 -0.0191403 0.0309125 -0.00319289 -0.0234384 -0.0551413 -0.000160387 0.0268422 -0.0180679 0.0655143 -0.066062 0.0663791 0.0186945 -0.0436552 -0.0631277 -0.0702003 0.00829659 0.0111488 -0.0131189 0.0578672 0.0561709 0.0208447 0.0570639 -0.00825334 0.00530552 -0.0641449 0.0324362 0.0585843 -0.00677082 0.0399491 0.0348441 0.0670465 -0.0253819 -0.0651485 -0.0357773 -0.0597403 0.00802493 -0.0649757 0.0393754 -0.0234589 -0.075812 0.0624617 -0.0728433 0.0145251 -0.0577028 0.0606548 0.0146253 -0.0451304 -0.0226554 0.0278574 -0.0719361 -0.0275016 
-0.018976 -0.0710941 -0.0207311 0.0147597 -0.0739988 -0.0305781 0.0386905 -0.0267761 0.0371814 0.0374089 0.00615457 -0.0422485 -0.0126721 -0.0428134 -0.0559006 0.0126574 0.0606776 0.00766447 0.0709868 0.0440031 -0.0364031 -0.0521841 -0.0753965 -0.0209672 0.0176832 0.0642588 -0.0154612 -0.0708519 -0.0386278 0.052729 -0.00853966 -0.0383674 0.0732654 0.029619 -0.0239337 0.0171617 0.00202531 0.048868 -0.00215412 -0.0368781 -0.0619616 -0.0250501 -0.041309 0.0559651 -0.072064 -0.0163545 -0.0114235 0.0502158 0.0131566 0.0715354 0.00848556 -0.00802412 -0.071895 -0.0431152 -0.0705766 -0.0386818 -0.0729558 0.0700273 -0.0731853 0.00340893 -0.0755004 -0.0286097 0.0716199 -0.0312848 0.0269613 0.0297272 -0.0391706 0.00272138 0.0395349 0.0637712 -0.0512754 0.0387066 0.0281753 0.0271151 -0.0153733 -0.0233325 -0.0657309 -0.0724447 -0.0406582 -0.062659 0.0302005 0.0670147 0.029934 0.0611584 -0.0281313 -0.0333971 -0.0668084 0.0632631 -0.0447605 -0.0378126 -0.0523645 0.0217932 -0.00130261 0.0382317 0.0616067 0.0404031 0.0389777 -0.0328109 0.00890705 -0.0687974 0.00466551 -0.00235501 0.0020576 0.00886037 -0.0535984 -0.040981 0.0106098 0.0643082 9.77744e-05 0.00100188 -0.0753707 0.025137 0.0590343 0.0316135 -0.0563921 -0.00042049 -0.0323363 0.00249916 0.0488545 -0.0246417 0.0321939 0.0596641 -0.00928002 -0.0750056 -0.0695874 0.0538766 0.0150375 0.0149094 -0.0230832 0.0519027 -0.0549373 0.0517702 0.0582404 0.0701003 -0.066614 0.0181126 -0.02329 -0.040661 0.0701931 -0.0386756 0.0169015 -0.0131467 0.0304843 0.0418178 0.0025583 -0.0150797 -0.013216 -0.0100783 -0.0258073 0.0582721 0.0717143 -0.021003 0.0527046 -0.0131691 -0.00185385 -0.0115221 -0.0661081 -0.0498403 0.0585325 0.0398648 0.0582439 0.0645374 0.00862759 0.0181213 0.0757557 0.0369986 0.0310651 0.0724162 0.0380271 0.0139741 -0.0665753 -0.00428947 0.0753708 -0.0574196 0.00379745 -0.0724192 -0.0610863 -0.0525799 0.0226433 -0.0727359 0.0201456 0.022151 -0.00894768 0.0314351 -0.0021265 -0.0549505 -0.00260282 -0.0604629 0.0106482 0.0119133 0.0216278 0.0523248 -0.0463237 -0.0363592 -0.0679892 -0.00276862 0.0208535 -0.0628068 0.0212353 0.00100815 -0.0166587 -0.0277044 0.0364039 0.0226318 -0.0406875 -0.0320905 -0.0607541 0.00986376 0.0425535 0.0597168 0.0421788 -0.0504082 0.0459251 0.0244891 -0.00300369 -0.0128773 -0.00769742 -0.0630068 -0.0695075 -0.0603278 0.066185 -0.0246762 0.0462952 0.035799 0.0125398 0.0244129 -0.0177018 -0.034559 0.00727365 0.0429212 -0.0190698 -0.00888732 -0.00457223 -0.0606249 0.074058 -0.0588903 -0.015323 0.0130388 -0.0072705 -0.0137333 0.0513553 -0.0381748 -0.0589348 0.0157428 -0.0136008 0.0745585 0.0561153 -0.0578912 -0.00835674 0.022187 -0.0446743 0.0362497 -0.020888 0.041924 -0.0271737 -0.0096651 
0.0391429 0.0429325 -0.0685959 -0.00961854 0.0550278 -0.0443181 0.0261994 0.0209718 -0.0346163 -0.0408375 0.0433823 0.0261099 -0.0270102 0.0325899 0.0621838 -0.0570546 0.0248538 -0.0683148 -0.0163174 0.0650885 0.0635194 0.00463874 -0.00339551 -0.0467981 0.0385248 0.0396217 0.0127161 -0.0478551 -0.014737 -0.0463972 0.0714537 -0.0586808 0.0542707 0.0185449 -0.0496512 -0.0521982 -0.00374779 -0.0742276 0.0645239 0.0620609 -0.0739346 0.00281057 -0.0120694 -0.0373431 -0.0705768 -0.0150302 0.0283882 -0.00187395 -0.00375789 0.0327544 -0.04197 0.0246254 0.0333199 0.0220962 0.0740221 -0.0579321 -0.064097 -0.0249608 0.0651456 0.00824703 0.0551605 -0.0611599 0.0528342 0.00103792 0.00924431 0.00209388 -0.0378543 -0.0385578 -0.0216041 -0.0235193 0.0519517 0.00899547 0.0706917 0.0423745 -0.0464851 -0.0733156 0.00167254 0.05219 0.00749655 -0.00604809 -0.0462618 0.0434236 -0.0326368 -0.0621233 0.0549532 0.0643196 -0.03105 -0.0743095 0.0580671 0.0294018 0.0570812 -0.0190378 -0.051583 0.0396018 0.0603181 -0.023043 -0.0714768 0.0471601 0.033822 0.0413962 -0.0557071 -0.0627063 0.0414381 0.0555638 0.0237593 0.00283483 -0.0210207 0.0595556 -0.0628701 0.0171151 -0.033663 -0.000572897 0.0431014 0.051674 0.0704783 -0.0366534 0.0456029 -0.0143312 -0.0442312 -0.0641023 -0.0635062 -0.0594039 -0.0591072 -0.0454102 0.0257547 -0.0360483 -0.00230391 -0.0326113 0.0359124 -0.0185451 -0.0661242 0.0339529 -0.0620247 -0.0242475 -0.0160981 -0.0130526 0.0674729 -0.0345446 0.0415201 -0.0287496 0.030768 0.0688386 -0.0755475 0.064346 -0.0637978 -0.0705346 0.00568255 -0.0647801 -0.0390178 -0.0324586 -0.0220524 0.0214856 -0.0461038 0.0112623 -0.0503549 -0.0619072 0.0257984 -0.030446 -0.0283563 0.0650523 0.0603489 0.0580633 -0.00769403 0.0549163 0.0158731 0.0172198 0.0462756 0.0507522 -0.00873232 -0.043694 -0.0365774 0.000590256 -0.0694589 -0.0316404 0.0593003 -0.00544902 -0.00753786 0.0309695 0.0411829 -0.0518802 0.0364941 0.0673614 0.00477791 0.0235635 -0.0441463 -0.00693074 -0.013494 -0.0729924 -0.0250413 -0.00915696 0.0199541 0.0282038 -0.0206838 -0.0611171 -0.0545997 -0.00121026 -0.063415 0.0144783 0.0422825 -0.0232304 0.00302981 0.0257183 -0.0428089 -0.00404224 -0.009428 0.0122279 0.00729561 -0.00358439 0.0103898 0.043856 -0.00586785 -0.0161883 -0.0209328 -0.0554818 -0.0333777 0.0654572 -0.0402874 0.0515497 0.0636731 -0.0618038 0.0482119 -0.0117205 0.0369911 -0.0374792 -0.01256 -0.0654621 -0.010952 -0.00486671 0.0237499 -0.0672266 0.0445908 -0.0589028 -0.0481024 0.0614737 0.0288365 0.064402 0.0680229 0.00583393 0.0212683 -0.0278175 -0.0683056 -0.000220431 -0.0287601 0.000866911 -0.0152743 0.0514462 0.0421041 0.0538346 -0.0699987 -0.0208246 0.0730291 -0.0242807 -0.0539354 0.0589676 0.0280221 0.069891 
-0.026194 0.0606504 0.0333992 0.0653491 -0.0506979 -0.0147067 -0.0606806 -0.023369 -0.00436019 0.0626495 0.0149783 0.0361142 -0.0635765 -0.000585887 0.059175 -0.0121499 0.0428276 0.0723581 -0.0172816 -0.0313569 -0.0694125 -0.0274116 0.0184114 -0.0216559 0.00754073 0.0129991 0.0739561 0.007866 -0.0425362 0.0129201 0.0486176 -0.00706147 0.0529621 -0.0489534 0.0522676 -0.0650893 -0.0631253 -0.0146935 0.0633577 0.00729573 0.0721185 0.0687292 -0.0307067 -0.0369575 -0.00793684 -0.0131998 -0.0334163 -0.0526096 -0.0205972 -0.0186603 0.0242675 0.0732872 0.0469476 0.0214901 -0.000685269 0.00934251 -0.0119701 0.0111152 0.0164489 -0.0357739 0.0396342 0.0681873 0.0270798 -0.0452498 0.068396 0.0244397 -0.0755706 0.0353724 -0.0306038 0.0518191 0.0399467 -0.00893435 0.0112555 0.0444591 0.00308524 -0.029549 0.0524417 0.0458335 0.063275 -0.0388365 0.0468192 0.0594962 0.0676799 -0.0734318 0.0374064 -0.0109664 0.0177175 0.0259759 -0.0217792 0.0327698 0.0293782 0.00510649 0.0141577 -0.0400711 -0.0506313 0.0740752 0.0448651 -0.00906839 -0.0308232 0.0470715 0.0417381 0.0573589 -0.0562334 -0.0203793 0.02881 0.00476794 0.0572731 -0.0407566 -0.000397265 0.0416972 -0.0507656 -0.0673831 0.00401311 -0.0360289 0.0666806 -0.00962854 -0.00217965 0.0558063 0.059371 -0.0361972 -0.0385007 -0.0641355 -0.0222018 0.0458465 0.0196472 0.0366098 0.0654849 -0.0642715 -0.0656891 0.04074 -0.0188907 -0.0440443 0.0555551 0.0491241 0.0231997 -0.0552998 -0.00865159 0.0122568 -0.058817 0.0574668 0.000190192 -0.00755093 -0.074982 0.0167528 -0.0735824 -0.023669 0.00370167 0.0483291 -0.0379021 0.0384704 0.0671553 -0.0541538 -0.0631659 0.0216423 0.0176735 0.0559338 0.0393945 0.0522473 -0.0420811 0.071266 -0.0673627 -0.0722261 -0.0726767 0.0663885 0.0218865 -0.0652309 -0.0745892 0.0268304 0.0123628 0.00187735 0.0747893 -0.048662 0.067231 -0.0463021 0.0647063 -0.0744698 0.0160108 0.0662328 -0.062831 -0.0143656 0.0369404 0.0603064 0.0633214 -0.0630305 -0.00884988 0.00817981 -0.017546 0.0352858 -0.0278336 -0.0342187 0.0671998 0.0513453 -0.0589396 0.0420625 0.0102727 -0.0670032 -0.0526339 0.0280402 0.0723103 0.0118322 0.0142326 0.032017 0.0563779 -0.0388523 0.0206879 0.0199799 0.0637085 -0.0735928 0.00791446 0.0726467 -0.0371764 -0.0557635 -0.0444434 0.00803056 0.0370488 0.0121744 -0.0221469 -0.0521814 0.0679058 -0.0670837 0.0364776 0.0198091 0.00112 -0.0654391 -0.0748486 0.0434113 0.0712863 0.025206 -0.0332603 -0.0183191 -0.0432479 0.0124196 -0.0615823 -0.0502362 -0.0237715 -0.041095 -0.0134012 0.0309053 0.0262003 0.0196727 -0.034809 0.0205424 0.0565933 0.0273172 -0.0472716 -0.0216859 0.0476704 0.0187313 0.0176894 -0.00713737 -0.0212094 -0.00773032 0.0219387 0.0450604 -0.0721979 0.0252893 
-0.0719087 0.0495161 0.053068 0.0562199 0.0540395 -0.0589921 0.0557038 -0.0605846 -0.0391033 -0.0629552 -0.0402591 -0.0180301 -0.0250228 0.0237685 0.0232832 -0.0411345 0.0687453 -0.0594324 0.0654588 -0.0560908 -0.0678709 -0.0166049 0.00812395 0.0393204 0.00328489 0.0723795 -0.0287651 -0.0599351 -0.0550181 -0.0520067 0.00898073 0.0431483 -0.0614307 -0.0580134 -0.0133786 0.0108549 -0.0602522 -0.0664016 -0.00656662 0.0478696 -0.024064 0.0258048 -0.0485138 0.0738944 0.0176204 -0.0189136 -0.0558832 -0.0200799 -0.0364086 -0.0738842 -0.0498001 -0.00761163 -0.055793 -0.00676556 0.00302984 0.0690138 0.0682132 -0.0408271 0.0738858 0.0436022 0.0597798 0.0309086 0.0669845 0.044692 -0.0218137 -0.0365748 -0.0113891 -0.0351754 0.0323999 0.0688524 -0.00591974 -0.00080351 0.0672325 0.0357356 -0.0606967 -0.0751645 0.0363471 0.0152016 -0.0351729 -0.0113295 -0.067239 0.0734784 -0.032592 0.0171948 -0.0475288 -0.0509832 0.0400119 -0.0658854 0.0127527 0.0204421 0.0300681 -0.0706261 -0.0040471 -0.0295593 0.00126715 -0.0385604 -0.0169419 0.0172711 -0.0166542 -0.0454699 0.000534296 0.0128993 0.0691443 -0.00446718 0.0655231 0.0477908 0.011765 0.0283097 -0.0609773 0.0152771 -0.0109959 -0.03157 0.0755817 0.0695394 -0.0320784 0.0337127 -0.0697102 0.0708585 -0.0056907 -0.0261287 0.0216935 -0.0126216 -0.0614238 0.00242411 0.00530495 0.0605699 0.051129 -0.0703842 0.0224095 0.0270793 0.0137838 0.0586477 -0.00809053 -0.0720064 0.00658896 -0.0397254 0.0611659 0.0377546 -0.0595663 -0.0557918 -0.0404312 0.0473015 -0.0590844 -0.0369389 0.0461343 0.074389 0.043532 -0.00583292 -0.00244002 -0.06651 0.014202 -0.0583345 -0.0691122 -0.0352482 0.0376275 -0.0574675 0.0279243 -0.0503675 0.0114949 -0.070928 -0.0284539 0.0245436 0.0438867 -0.00205782 0.0558094 0.00816072 0.0349904 0.0175671 -0.0062885 0.0255843 -0.0523813 -0.0142125 -0.00968072 -0.0111295 -0.0452136 -0.0440364 -0.0464091 0.0754771 -0.0516031 -0.0330224 -0.0387954 0.0160756 0.0706259 0.0494407 0.0626583 -0.00170562 0.015036 0.0654025 -0.0633697 -0.0609415 0.00411706 0.0718342 0.0497415 0.0441298 -0.0535031 0.0376062 0.0281401 0.0366334 -0.0153196 -0.0391322 -0.0747017 -0.0111262 -0.0576605 0.0547379 0.0424758 0.0111443 0.0221857 0.0294629 0.0075009 0.0285972 0.0229104 0.0263208 0.0412958 0.0235677 0.0615296 -0.0745828 -0.0240812 -0.010514 0.0488955 -0.0278359 -0.0645271 -0.062805 0.0737256 -0.0403273 -0.0357376 -0.0463743 0.0612421 0.038255 0.0147592 -0.0694228 0.0211928 -0.0694085 -0.0483192 -0.0753052 -0.026099 -0.0555393 -0.0381361 -0.010418 0.017725 -0.0373653 -0.0062975 0.0512336 0.0242793 0.0742987 0.00576881 -0.0189529 -0.0545683 -0.0166305 0.0601592 0.0496493 0.0259675 -0.0613419 0.0274525 -0.058081 -0.0546867 -0.0578069 
0.0439578 0.0392103 0.0576734 0.00685197 0.01792 0.0549051 -0.0537339 -0.0191506 -0.0333295 -0.0316024 0.0519974 0.00244826 0.0561209 0.011697 -0.00296652 0.0666892 0.0188593 0.0485552 0.0262646 0.0464014 -0.0708202 -0.0256523 0.0317187 0.0149066 -0.0316321 -0.0306007 0.0604734 -0.0489973 -0.02414 -0.0598956 0.0515657 0.0729495 -0.0629423 0.0438188 -0.0560914 0.0061576 0.0529678 -0.0734995 -0.0308293 0.0661693 0.0199102 0.0514868 0.0654953 -0.0202241 -0.00819534 -0.0535221 0.0682965 0.0698515 0.000118307 -0.000349904 0.0171904 -0.0390867 0.0111485 0.0161248 -0.0610682 -0.0266348 -0.00541204 -0.0551742 -0.029068 0.011666 -0.0387019 -0.0728748 -0.0164507 -0.0194731 -0.0634773 0.0425942 -0.0358456 0.0479031 -0.0344452 0.0713216 0.0159294 0.0368395 0.0406067 0.0280021 -0.0659769 0.0635378 0.0505154 -0.0328527 0.0525437 0.0624939 -0.0621861 0.0549259 0.0668297 -0.023007 0.065104 0.00910659 -0.0625684 -0.0537373 0.0495369 0.0748086 -0.0711659 -0.0630078 0.0567765 -0.071198 -0.0475243 0.0376011 -0.00199166 0.0142861 -0.00961648 0.0686913 0.00574371 0.0167614 0.0466497 -0.0501407 -0.0368457 0.0131389 -0.0593719 0.0212326 0.0438465 -0.0576026 0.0308584 0.0324776 -0.0702799 -0.0372444 -0.0742788 -0.057746 -0.0292886 0.0467444 -0.0074255 -0.0221126 0.0285222 0.0654537 0.0447286 0.0568573 0.0229618 -0.0641454 -0.00377865 -0.0166215 -0.0521475 -0.0100146 0.0747147 -0.0179456 0.0487568 0.0727005 0.0425177 -0.0168456 0.0584925 0.0172543 -0.0309885 0.0362597 -0.0162806 0.00100806 -0.0587999 0.0361143 -0.00541681 -0.0753817 0.0592063 -0.0133373 0.0489804 0.0434893 -0.060811 -0.0187657 0.0333346 -0.065921 0.0711438 -0.0121088 -0.0350697 0.01816 0.0584124 0.0759222 0.0291198 -0.0705351 -0.0691429 -0.0386645 -0.0551912 0.0619077 -0.0106101 -0.0354604 -0.0403211 0.00181681 -0.0649256 -0.0258038 0.0658069 0.0427717 0.00660456 -0.0480296 0.0014265 -0.0189998 0.0289551 0.021302 0.0395746 0.0600383 0.0459177 -0.0101836 0.0481849 0.0591161 0.04053 -0.0146067 -0.00213487 -0.0162134 -0.0155986 0.00297202 0.0515374 -0.0054267 0.0222234 0.0158124 -0.0679019 0.0743183 -0.0731569 -0.05052 0.0066417 0.0667115 0.0699207 -0.0701307 0.0341501 -0.067254 -0.0468475 0.00429495 -0.0374464 0.0752107 0.0130614 -0.00778256 0.0608215 0.0277502 0.00498266 -0.00628929 -0.0612626 0.0135632 0.00135304 0.0592737 0.0224185 -0.0237706 -0.0713801 -0.0169165 -0.0206716 -0.0287875 -0.0670825 -0.0434485 0.0146632 0.000980146 0.0604679 0.0559081 0.0533226 0.0279176 -0.0570064 -0.067112 0.0334771 -0.027911 -0.00421954 -0.0638207 0.025225 0.0150024 -0.0595463 0.00225185 -0.00996728 0.0525131 -0.0437556 0.0105242 -0.0266376 -0.0132271 0.0262337 0.0495038 -0.0365074 -0.00604178 -0.0386299 0.00485878 
-0.000365325 -0.00763614 -0.0635966 -0.00566293 -0.0127637 0.0719311 -0.0748305 0.0604475 0.0498072 0.0131568 -0.0706192 -0.056843 -0.0230963 0.0223148 0.0684147 0.049498 -0.0168479 0.0279927 0.0276121 -0.0744253 0.0551333 -0.0266304 -0.0310056 0.0319105 0.00708441 -0.0020886 -0.0239204 0.0451897 0.0389392 -0.0479426 -0.0138643 0.0522588 0.0634231 0.0124261 0.0671887 0.0229988 0.0732412 0.02408 0.0227196 0.0662474 -0.0400839 0.0358344 0.0192158 0.0677532 0.0239008 0.0570859 0.024256 -0.0273384 0.0507723 0.060543 0.0292047 -0.0131729 -0.0142834 0.0114526 -0.0486947 -0.0537481 -0.018985 -0.0559543 0.0631373 -0.0371386 0.0363949 0.0289945 -0.0329456 -0.061432 0.0562669 0.062756 0.0243032 0.0553994 0.0329576 -0.0610824 -0.0496844 0.0593226 0.0467168 -0.0220698 0.00960985 -0.0155042 -0.0228394 0.0382202 0.0718618 0.047432 0.0731904 -0.07281 -0.0291323 0.0378586 -0.0157385 0.0226708 0.0391838 -0.00765556 -0.0731569 0.0497563 0.00594656 0.00664345 0.0614862 0.0118708 0.0439737 -0.0425285 -0.0387738 -0.0267174 -0.0282469 0.0741664 0.0269788 -0.0229968 -0.0516154 0.0344822 -0.040836 0.0505901 0.0464565 0.0308207 -0.036787 -0.0413738 0.0580799 -0.0323375 0.0402239 -0.022424 -0.0425193 -0.0649641 -0.0393224 -0.0119639 0.0527766 0.0513703 -0.0691241 -0.0609376 0.008809 0.0221935 0.0144508 -0.020455 0.00219618 0.0709756 -0.0726078 -0.061165 0.0529644 0.0283709 0.00562157 -0.0443472 0.0712143 0.0445021 0.0666606 0.042131 0.072536 0.0575616 0.0289556 0.00159524 0.035936 0.0282849 -0.0715067 0.0407007 0.0708965 0.00515297 0.0185733 0.0599903 -0.0257327 -0.0265279 -0.0106504 -0.00973802 -0.0745736 0.0616332 0.00315951 -0.0626638 0.0758427 0.00907576 -0.0608016 -0.0447109 -0.00291681 0.0341266 0.00732579 0.031083 -0.075195 -0.0677947 0.0467153 -0.0154926 0.0585321 -0.0647061 -0.0145632 0.0398969 0.00339367 0.0379601 -0.0144617 -0.00558016 0.0391131 0.0750588 -0.0230394 0.0505389 0.0748371 -0.0458465 -0.0160737 0.0759131 0.0273231 -0.0292839 -0.0333652 -0.00392752 -0.0397385 0.0046637 0.000457846 0.0566455 -0.0318772 0.0105454 0.0530133 -0.0267727 0.0467685 0.0322468 0.0288694 -0.0599309 -0.0382737 -0.00878535 -0.0540957 0.0405322 -0.0567226 -0.0756951 0.0552743 -0.0700018 0.0690092 -0.0707638 0.0621859 -0.0239441 -0.054389 -0.0554658 0.0741107 0.0646951 0.0361614 0.0184863 -0.0291241 0.0266065 0.0656889 0.0515407 -0.00955272 0.0694084 -0.00781972 0.0388442 0.0509225 0.0164127 -0.0199962 0.0676467 0.00992518 0.0264061 -0.0451631 -0.0739834 0.0523917 0.0371018 -0.032298 0.0471655 -0.0344729 -0.0287361 0.0373249 0.0278074 0.0213722 0.0667371 0.047521 -0.00610866 -0.0604133 0.0369992 -0.025349 0.0207395 -0.0409084 -0.0134268 0.00125246 0.0157949 
0.0227274 0.0324513 0.0211321 -0.0367681 0.0375154 0.0295247 0.0655913 -0.0503756 -0.0213984 -0.0528997 -0.0250784 0.0048005 0.0572814 0.0161018 -0.0574318 0.0414661 -0.0111707 0.0721777 -0.0419435 0.0285172 0.021602 0.00217766 0.0720398 -0.00867701 0.0476092 0.0688581 0.0722103 0.0652941 0.0590736 -0.00295237 0.0167938 0.0435169 0.0305803 0.00096147 -0.027459 -0.0240353 -0.0101314 0.0109973 -0.0435172 0.0598276 -0.0191032 0.0205203 -0.0378573 0.0351115 -0.0353799 -0.0559313 -0.0525561 0.0285291 -0.0439025 0.0681838 0.0470105 -0.0638798 0.0745353 -0.0232297 0.0166241 0.00549256 -0.0398283 0.0472647 0.0610866 0.0021378 -0.0571717 0.00691836 0.0177345 -0.072523 0.0359843 0.0484543 0.0357411 0.0621792 0.0354389 0.0432814 -0.0529603 0.0567594 -0.034997 0.0404033 0.0244532 -0.071992 -0.0477021 -0.0659045 0.051376 -0.0544686 -0.0508905 -0.0291274 0.042771 0.0210448 0.014222 -0.0718518 -0.00868221 -0.0342359 -0.0331887 -0.029787 -0.0634833 0.0228705 -0.0602344 0.0528059 -0.0620629 -0.0648417 -0.00955432 0.0308415 -0.0605095 -0.0712593 0.0519366 0.046182 -0.0564677 -0.0161985 0.00216996 0.0728794 -0.0624335 0.0400677 0.0710112 -0.0330604 -0.0606129 -0.0554652 -0.0633154 0.035568 0.0557151 0.0568667 0.0457771 0.0464897 0.00493493 -0.0704 -0.0490611 0.0454326 0.0542447 0.0319444 0.0596112 0.0169451 -0.0516112 0.0172366 -0.0115622 -0.0191466 0.0274833 -0.0476699 0.0754496 0.0346389 -0.025555 -0.0396793 0.00764244 0.075318 0.00933732 0.0408593 0.0539487 -0.0663388 -0.00134969 -0.00481972 0.0358452 0.0224718 -0.0597147 0.00215031 -0.0345242 -0.0679693 0.0738291 0.0398219 0.0641414 -0.012775 -0.0272699 -0.0752466 -0.0210296 0.0237719 0.00286149 0.0425759 -0.0696264 0.0441377 0.0660868 0.0230076 0.0133013 -0.0602828 0.0754676 0.0110919 -0.0194241 -0.0581475 0.0330789 -0.0320178 -0.0465314 -0.0653137 0.0304609 0.0120589 0.0566221 0.0320296 -0.0683858 -0.0412698 0.0149185 0.0704454 0.00215236 0.00165843 0.0430908 0.0746066 -0.0684192 -0.0637413 -0.0360359 -0.0717085 -0.0355107 -0.0131237 -0.0646655 -0.0337455 0.0455133 0.0533271 0.000225912 -0.0454501 -0.0398155 0.0100808 0.0627839 0.0133355 0.00565665 -0.0575812 0.0210777 0.0563121 0.00106595 0.0272889 -0.0298981 0.0104097 -0.0153296 0.0129407 0.0419867 -0.0438344 0.0417396 0.072137 0.0520558 -0.021469 0.0500657 -0.00817836 -0.0374546 0.00435808 0.0746494 -0.0493987 -0.0238307 -0.0210123 0.0189193 -0.0381201 0.0732131 -0.0523429 0.045008 -0.0279784 -0.0198687 -0.0647498 -0.0115342 0.0558996 -0.0109548 -0.0682445 -0.0349213 -0.0438375 -0.0184719 -0.0294651 -0.0532501 -0.00356525 -0.0371676 -0.0362069 -0.0127363 0.0246038 -0.0715295 0.0561011 0.0338154 -0.0167037 -0.0565416 -0.0312725 0.0234839 -0.0737816 
0.0277284 -0.0296842 -0.0446655 0.00973246 0.035251 -0.0136432 0.0306348 0.00785295 -0.0685818 0.050194 -0.0129847 0.0656148 0.0573306 0.0511084 0.0386895 -0.0716139 -0.0456895 0.0527247 -0.00602529 0.0696145 -0.0724903 -0.0633106 0.0562417 -0.0460263 0.0348509 0.0174403 -0.0327441 -0.00678046 0.0688763 0.00447233 0.0416647 -0.068352 0.0430204 0.0438491 -0.0587243 -0.0676405 0.050639 0.0111202 -0.00565118 -0.0408822 -0.0704999 0.0221995 0.00613259 -0.0296863 0.0524509 -0.0546252 0.0704786 0.00854476 -0.00976518 0.0502576 0.0098734 -0.00503846 -0.0516792 -0.000119313 -0.025449 0.00796198 0.0721558 0.0330305 -0.0753708 0.063227 -0.0563653 0.0736102 0.0376711 -0.0623112 -0.0289791 -0.0327539 0.0660466 0.0586773 -0.00193672 -0.0523088 -0.0578738 -0.0282509 0.00858548 0.0589881 0.0548002 -0.0300507 -0.0688805 -0.00645427 0.0504966 -0.0402556 0.000523073 -0.0513186 -0.0667162 0.0235338 -0.00493785 -0.0714336 -0.0504161 0.013878 0.0581167 -0.00726364 -0.0435501 0.0119238 -0.0491344 -0.0357409 -0.0558252 -0.0424907 0.0232911 0.0348992 0.0106624 -0.0730107 0.0355701 0.0564439 -0.0288499 -0.0136692 -0.0385744 -0.0504596 0.00301889 -0.0662571 -0.0746818 0.0120405 -0.043099 -0.0742407 0.0178008 -0.0652052 0.0147144 -0.0346824 -0.0510739 -0.00623136 0.0489081 0.0739305 -0.0279524 -0.0521951 0.0297094 -0.0500535 0.0737291 0.0671324 -0.0232051 0.03672 0.0710567 0.0228224 0.0249994 0.0451884 -0.042522 -0.0182132 0.0151331 -0.0448752 0.0336816 0.00602926 0.0196512 -0.0134356 -0.0271824 -0.0712463 0.0252543 -0.0202807 -0.0497456 -0.0130617 -0.0109912 -0.00495321 -0.00488537 -0.0641467 -0.056148 0.0220735 -0.0295145 -0.0679281 0.0457716 0.0323068 -0.0356709 -0.0136293 0.0215284 0.0212923 -0.0235096 -0.0169618 -0.0375364 0.064017 0.0742539 -0.0629392 -0.0674603 0.0377326 -0.0526891 0.0698079 -0.0424854 0.0540729 -0.0507254 -0.0518932 -0.04456 -0.0363089 0.0456328 -0.0482506 -0.00604248 -0.0727128 0.0754648 -0.0149666 0.0183508 -0.0476585 -0.0180311 0.0719612 -0.0428722 -0.0251663 -0.0280618 0.037394 0.0302046 -0.0432763 0.0397702 0.0749721 0.0317447 0.0743761 -0.00393494 -0.0205244 0.0428425 -0.0681582 0.0521462 0.0519108 -0.0656743 0.0245966 -0.0288206 -0.00206313 -0.0600245 0.0573071 -0.0137185 -0.0682063 0.00371183 0.0266561 -0.0501978 -0.0359639 -0.0010663 -0.0446107 -0.0209435 0.0188327 0.0413443 -0.0356622 0.0179783 0.0723195 -0.0412023 0.0430337 -0.0669716 0.0469057 0.0313327 0.0454931 -0.0105894 0.0585623 -0.0362447 0.00412873 0.0559898 0.0589216 0.0357315 -0.0421537 0.0555115 0.0699198 0.0291281 -0.0700493 0.0542042 0.0236387 0.0282936 0.0621131 0.0442804 -0.00282949 0.0241177 0.0508657 0.0463122 -0.0461074 0.0649737 0.0499632 -0.0349092 0.0755925 0.0259343 -0.0335292 
-0.0394864 -0.019341 0.031917 -0.0170274 -0.0328688 -0.00990555 0.0404269 0.0684136 0.026481 0.0682899 0.0200059 -0.00515675 -0.00556001 0.0075267 -0.0371693 0.00741019 0.0141308 0.0262723 0.0333925 -0.048717 0.000225495 -0.0582803 0.0556558 0.0479883 -0.023925 0.04971 -0.0567602 -0.0622509 -0.00766727 0.0651498 0.0557226 0.0102258 -0.0239885 0.0467169 -0.044242 -0.0537764 -0.0704478 -0.0545573 0.0628559 -0.0431509 0.0103874 0.033422 0.0441665 0.00284171 0.0147968 -0.0208089 0.0495316 0.0308623 0.0490017 0.0344807 -0.0237135 0.0377613 -0.0738042 -0.0213404 0.0164593 0.000983656 0.00109517 0.0222049 0.0245514 0.02997 -0.0544177 0.033363 -0.0569359 0.0174405 0.0277963 -0.0511242 -0.0610424 -0.00635061 -0.054965 0.0646588 -0.0455491 -0.0148927 -0.0113742 0.0209363 0.0602613 -0.0284675 0.0529063 -0.0685541 0.0258785 -0.0128773 0.0492197 -0.0653045 -0.0163645 -0.0471267 0.0156005 -0.048639 0.0670202 0.059099 0.0143906 -0.0561138 0.0244406 -0.059519 -0.0377446 -0.0382261 -0.0434868 0.000605634 0.0720436 -0.0497717 -0.0583344 -0.0605366 0.0258953 0.0471338 0.0639744 0.0207566 0.0637561 -0.0214579 0.0578692 0.0566339 0.073263 0.0432509 -0.0417485 0.0584498 0.0438614 0.00995834 0.0577039 0.011675 -0.0531446 -0.0264956 0.0455333 -0.0519858 0.073792 0.00892285 0.0109996 -0.0159871 0.0590816 -0.0075913 -0.0103479 -0.00783207 -0.039438 -0.0246899 -0.018943 -0.0232098 0.0018707 0.0012622 -0.0434004 -0.0288976 -0.0255804 -0.0476966 0.0459638 0.0190687 -0.0191253 0.0602079 -0.0611941 0.00988296 0.0651475 0.0207012 0.0480034 -0.0736415 0.0307444 0.0360699 -0.0718814 -0.0325684 0.0350497 0.0234858 -0.0158093 -0.0272098 -0.0422146 -0.0636038 -0.0585188 0.0752928 0.0136126 0.0560772 0.0132367 -0.0453306 -0.0497674 -0.0230118 0.0306414 -0.0164373 -0.0586983 0.0196036 0.0745732 0.0555936 0.0603213 -0.0136858 0.0653339 0.0514946 0.045408 -0.0271807 0.0633062 0.0247928 0.0267665 -0.0148691 -0.0416787 0.0305496 -0.0500816 0.00429865 0.0524143 -0.0737064 -0.0267525 -0.0146382 0.057879 0.00682561 0.00563981 0.00804681 0.0322843 0.0530841 0.032884 -0.0560222 -0.0132041 0.0135025 0.0585461 0.0102851 -0.0627287 -0.0628835 0.0443337 -0.0585184 0.00554585 0.0276174 -0.0320412 -0.0484578 -0.0359992 -0.0630233 0.00351826 -0.0194833 -0.0491283 0.00348873 -0.0559735 -0.0154399 -0.0470313 -0.0526284 0.0539718 0.0094721 0.0701737 0.00880752 -0.05635 0.0510339 0.0425089 0.0533629 -0.0461263 -0.00526832 -0.0252996 -0.0674088 -0.0202329 0.00230887 0.0501861 0.0466089 0.0325727 -0.0123988 0.0758614 -0.00703115 0.0261619 -0.0128033 0.0121952 -0.0392422 0.0696694 0.00257284 0.0742968 0.0665437 0.00914269 0.049389 0.0681237 -0.052952 -0.00248827 0.0561608 -0.060948 0.0727737 
0.000967714 0.0745318 -0.0481451 0.0173134 0.0707301 0.0163853 0.0372242 0.0727688 -0.0140792 -0.0167457 0.0373682 -0.0587382 -0.0127481 0.0641735 -0.0116222 -0.0137557 0.0556518 0.00120691 0.00587441 0.0354765 -0.021852 0.0370357 0.0633193 -0.0551467 0.0759116 -0.0722439 0.0738219 0.0678198 0.0691443 0.0699956 0.0363765 0.0693133 -0.0444568 -0.0666426 -0.0651121 -0.0370266 -0.0547688 0.0496871 0.0746795 0.0467936 -0.0131783 -0.00593624 0.0638757 -0.00168845 -0.064161 -0.0646661 -0.0400077 -0.00775012 -0.0308502 0.0549234 0.0671333 -0.06578 -0.0341671 -0.0467176 0.0722357 -0.0477585 0.0165147 -0.0348606 -0.053108 0.0334041 -0.0175296 0.0640592 0.0606862 0.0725578 -0.0105254 -0.0251886 -0.0330434 -0.050351 0.00824568 0.0656954 -0.0714693 -0.057819 -0.00432961 -0.0069398 0.0695712 0.0355277 -0.00301641 -0.0455541 -0.0277596 0.0125719 0.0430835 0.0403767 -0.010534 -0.0490823 -0.0471883 0.0675986 0.0383973 -0.0279388 -0.000830852 -0.0736261 0.00201701 -0.0366073 0.0609796 0.051604 0.0186238 -0.0196825 0.0481212 0.0570139 0.0668996 -0.0468118 -0.0252841 -0.0417974 0.0749539 0.0697032 -0.0606328 0.00219188 0.0240242 -0.0225359 0.0361254 -0.0509433 -0.0728131 -0.0466225 -0.0378264 -0.0258065 -0.0743721 -0.0120833 -0.0755367 0.0753148 -0.0165189 -0.013876 -0.0480048 -0.00364785 -0.03717 -0.00482005 0.0305917 0.0265241 0.0263017 0.0591837 0.00151567 0.0485936 -0.0109652 -0.0179312 -0.031687 -0.0684161 0.00123599 -0.00552892 -0.0168323 0.00518397 -0.0201309 0.00838576 0.0573624 0.0473201 0.0650667 0.042654 0.0523135 0.0288944 0.0125653 0.0497312 0.0370865 0.0296095 0.0368903 0.0757628 -0.00865806 0.0707361 -0.00903065 0.02046 -0.0247715 0.0534044 -0.0641998 -0.0712433 0.056536 0.0470022 0.0281166 -0.00161179 -0.0347688 -0.0185506 -0.0128664 0.0161894 -0.0145295 0.0106313 0.0714971 0.0231194 0.026895 -0.0579552 -0.0330745 -0.0383227 -0.0120769 -0.0340084 0.0132638 -0.0203089 -0.00479525 0.00133382 0.0515214 0.00117872 0.011145 0.0386103 -0.0389879 -0.0602682 0.0016412 -0.0498688 0.0237405 0.0191764 -0.018628 -0.00248926 -0.0376506 0.0647123 -0.00905859 -0.0227687 -0.0155702 0.0562751 -0.0157711 -0.0638766 0.0387514 -0.0656467 -0.0510806 -0.0167986 -0.00651446 -0.0113451 0.0481435 -0.0459087 -0.0328586 0.0250278 0.0251112 0.0431696 -0.00359426 -0.0516321 0.0281937 0.0499029 -0.0684818 -0.0196815 -0.0701622 0.0372161 -0.00664125 -0.0535972 0.0449836 0.0579571 0.00974589 0.00930321 0.0279964 0.0142701 0.0586274 -0.0372765 0.040565 0.00917482 0.0486332 -0.0467521 -0.0400301 -0.00659419 -0.0391531 0.0404887 0.0323973 0.0584623 -0.0432957 -0.0467295 0.0173145 -0.0161023 -0.0671263 -0.0717108 0.000477492 -0.0184959 0.0643046 -0.0243306 -0.0708612 0.0363262 -0.00501574 -0.0646687 
0.0509493 0.0441154 -0.0322909 0.0655354 0.05665 -0.00147454 0.0192083 0.0439283 0.0604971 0.000347812 -0.07536 0.0214079 0.0568739 -0.034344 0.0600352 -0.030311 0.0553279 0.0717913 -0.0474067 -0.0649138 -0.0545983 0.0121846 0.0280409 0.0571085 0.0655494 -0.00143204 -0.0553068 -0.0349537 -0.0491153 -0.0657041 0.00452164 -0.0287855 0.0550497 -0.0667274 -0.0525903 -0.0452294 0.068332 0.0166827 0.0331002 -0.00975547 0.0196853 -0.00426702 0.00585534 -0.0077919 0.0188677 0.02088 0.022946 -0.0689609 -0.0168574 -0.0121206 0.0123203 0.0721108 -0.0510033 0.0667475 -0.07031 0.00298077 0.0298188 0.0428994 0.0471476 0.0169119 -0.0411575 0.0261963 -0.0209871 0.00483214 0.0717095 0.034002 -0.0191727 0.00220783 0.0658725 -0.0733839 -0.0115795 -0.0507902 0.0368046 0.042247 -0.0344602 0.0128583 0.0385718 0.042821 -0.0526268 0.00881553 -0.0749896 -0.00118832 -0.0563455 0.0576819 0.0374119 0.0731672 -0.00189397 -0.0586766 0.0683113 -0.0571763 -0.0473582 0.05181 0.0475372 0.0677166 -0.0269392 -0.0523711 -0.0741161 -0.0308115 0.0723502 0.00381244 0.0165154 -0.0585869 0.0573242 -0.0232309 0.0220692 -0.0232371 -0.0667748 -0.0396309 0.0295354 0.0304915 -0.0491448 0.0108274 3.80926e-05 -0.0265156 -0.0405585 0.0497573 0.0251975 0.0609734 -0.0534132 0.0688397 0.0560677 -0.0592278 -0.0502174 -0.0719606 0.0123614 -0.0215608 -0.0409949 0.0480169 0.033428 0.0351579 0.04551 -0.0617577 0.0507126 -0.054221 -0.0284294 0.0368326 0.0261617 -0.0607383 -0.0475469 0.0535212 -0.0154123 0.0652188 -0.0218776 0.0627978 -0.030912 0.0654397 -0.0345454 -0.0261668 -0.0174864 0.0701628 0.0651153 -0.0207493 0.0543967 -0.0281552 0.0725718 0.0328678 -0.0694908 -0.0461599 0.0133585 -0.00636406 0.0458227 0.00581203 -0.0534015 0.0618084 0.0340676 -0.0349176 -0.000889029 -0.0125688 -0.0429467 -0.0220496 0.0584309 0.0443431 0.0456635 -0.0401693 -0.0283027 0.0445738 0.0601851 -0.0128214 -0.0455853 0.041789 0.0635739 0.0159896 0.0124833 -0.0301146 -0.0271166 0.00311461 0.0398297 0.050462 -0.0322592 0.0504084 0.0141605 -0.0287659 0.0266117 0.0538392 -0.0549479 0.048268 0.0296344 -0.0286931 0.0546414 -0.0652623 0.0679462 0.0136248 0.0215535 -0.055223 0.072206 0.0297125 -0.0427493 0.0508459 0.0427123 0.0323711 0.0650977 0.0274924 -0.0457019 0.0553665 0.0478443 0.0556684 -0.0708036 0.0218078 -0.0544747 -0.0673031 0.0258808 -0.023554 -0.0094787 0.0108732 -0.057279 -0.0428924 -0.0671929 -0.0696368 0.0758402 0.00357703 0.0666135 -0.0749499 -0.0355714 -0.0714861 0.0180891 0.0207893 0.0443311 0.0131963 0.0560282 0.00664763 -0.0103044 0.0633962 0.0601354 -0.0539941 0.012804 0.0244531 -0.00786511 0.0267451 0.0248185 -0.0331327 0.0279748 -2.91415e-07 -0.0707484 0.0315258 -0.070806 0.0312103 
-0.0256485 0.0209164 0.074846 0.00543252 0.0451255 0.0420627 0.0239738 0.0319044 -0.0333716 -0.0293187 0.012565 -0.0102671 -0.0228551 0.0438813 0.0246793 -0.0261724 0.0583805 0.0539299 -0.058652 -0.0375412 -0.0379111 -0.0490233 -0.0654265 -0.0393167 0.0661121 0.0729224 -0.0659162 -0.0388676 0.0216709 -0.0449246 -0.00522747 -0.0144167 0.0166865 0.0734619 -0.0283095 -0.0549869 0.068303 0.0446573 0.0501412 0.0246581 -0.0598233 0.0177408 -0.00992618 -0.000290334 -0.011534 0.000258904 0.0494486 -0.0651939 -0.0459214 0.0583151 0.0158922 0.00427481 0.016825 0.0154239 0.00752708 -0.0126009 0.00184719 -0.0411687 -0.0117144 0.0539735 -0.0333522 -0.0708454 0.0430974 0.0513639 0.057981 -0.0251574 0.000842633 -0.065672 -0.018303 -0.071105 0.0605302 -0.0566733 0.0556575 -0.0102446 0.0423529 0.0534515 0.0260357 -0.0536379 -0.0171487 0.0575235 0.0730603 -0.0605401 -0.0628368 0.0201315 -0.0324201 0.0633283 -0.0723546 -0.0375142 -0.0190923 0.0727439 -0.0308199 0.0363271 0.0251765 0.0536434 -0.0693584 -0.0689277 0.0710784 -0.0283945 0.0252784 0.0694527 -0.0535456 0.0203409 -0.0541953 -0.0452384 0.0470564 0.0105321 -0.0369298 -0.0559188 0.0682582 0.0320716 -0.000188243 -0.0581294 -0.0688692 -0.0751659 0.0241815 0.0109634 -0.0705481 0.00968027 -0.0453472 -0.0393234 0.00649079 0.0237414 0.0719501 0.0219917 -0.0330693 -0.0652707 -0.00636574 -0.026516 0.0194586 -0.0633916 -0.0187051 -0.00695213 0.0561024 0.0396511 -0.0250079 -0.00527042 -0.0206358 0.00589394 -0.0493906 0.0502798 -0.0106829 -0.070395 0.0215892 0.0412685 0.0039912 0.0537733 0.030356 -0.0416417 0.075441 -0.00388122 -0.021837 -0.0282916 -0.0664162 -0.0397787 -0.0688114 -0.0218076 -0.0139894 0.0635429 -0.0511988 -0.0126372 0.0351664 -0.0576417 -0.0528899 0.0506304 0.015833 0.0094028 -0.0554862 0.0655996 0.013055 0.0448158 0.0160385 0.0605977 0.00683587 0.0676139 0.0307266 -0.0237437 -0.0511521 0.052848 0.00545509 0.0481481 -0.00653138 -0.00803035 -0.00268305 0.0717965 -0.0494926 -0.0716223 0.0503459 -0.0276797 0.0657615 0.0167449 0.0394317 -0.00479013 0.00417715 0.0530352 0.0557546 0.0559785 0.00504944 0.0688471 0.0476598 0.0386981 -0.0521024 0.0688668 0.00337744 -0.0216077 -0.0689265 -0.0320147 -0.00928545 -0.0109363 0.0451242 0.0664238 -0.0563511 -0.0710426 0.07094 0.0617816 -0.0373148 -0.00241485 -0.0138564 0.00540756 0.0502271 -0.0289439 0.0229745 0.0103291 -0.00360649 -0.0606364 0.00218087 -0.00700598 -0.0459742 0.0600173 0.0219247 -0.0208481 0.0235205 -0.0220611 -0.0534785 0.0715541 0.0336141 -0.0497084 -0.0681856 0.0539792 0.0336917 0.048838 0.0569916 -0.0148201 -0.0511202 -0.0562412 -0.0564598 -0.0307887 -0.0712669 0.0433157 0.0288891 -0.0434709 -0.0136421 -0.0348769 -0.0469934 0.0585724 -0.0476024 -0.0570878 
0.0667837 -0.0430405 0.0535429 0.0269452 0.0660839 0.0299075 -0.0517537 0.0201863 0.0725198 0.0135302 -0.0198037 0.0624342 -0.0142041 0.0336836 0.041785 0.0240903 -0.0265632 0.0333585 0.0141792 -0.023018 0.016693 0.0382265 -0.0502759 -0.0292356 -0.0531817 -0.027255 0.0569178 0.0301185 0.0546647 0.0339157 -0.0533486 -0.0457179 -0.00909371 0.0506348 0.0699727 0.0703039 0.0270045 -0.0426007 0.0731136 0.071547 -0.0198377 0.00412553 -0.0242036 -0.0299273 0.00767248 -0.0139936 0.0480989 0.0584117 0.0722693 0.0280916 -0.0221338 -0.0528208 0.0285193 -0.0506707 -0.0109955 -0.0209535 0.00236391 0.015988 0.0246825 -0.0535661 0.0242749 0.0284501 0.000790749 -0.0520675 -0.059392 -0.0354937 0.0359429 0.0487361 0.0270833 0.0348241 0.0686482 0.00422298 -0.0659036 0.0566752 -0.0486393 0.0459258 -0.000116443 -0.0373321 0.0299586 -0.0101842 0.00612616 0.0359083 -0.0573277 -0.0680981 0.00827042 -0.0117988 0.063156 -0.0190014 0.0290729 -0.00278374 -0.0413524 0.0282389 -0.00742371 0.0601506 -0.021907 -0.00286183 -0.0179681 -0.0198712 -0.0201788 -0.0683944 -0.041156 -0.0584503 0.0116232 -0.0531437 0.0272372 -0.0414346 0.0495531 0.0633349 -0.0259624 0.0299663 -0.0671597 -0.0122723 0.0410231 -0.00470583 0.0729516 -0.0295469 -0.070569 0.00582035 0.0378279 -0.0069819 0.0112596 -0.0478469 0.0748898 0.039677 0.0397605 0.0271119 0.0688862 0.0584489 0.00214737 -0.00471247 0.0229993 -0.0458293 0.0494916 0.00703786 -0.00196081 -0.0349633 -0.0689766 -0.0465183 0.0713909 0.071087 -0.0733584 -0.0402636 0.034412 0.0494423 0.0283472 -0.0546539 -0.031057 -0.0391127 0.0624219 -0.00963131 -0.0534001 -0.0194651 0.0694634 -0.0126598 -0.0173366 0.0549574 -0.063965 0.0585273 0.0147424 0.0354612 0.000864747 0.0196641 -0.0544088 0.0753783 0.0732538 0.0404319 0.0721443 0.0485359 0.0500023 -0.0508262 0.0118355 0.003357 0.029473 -0.0586517 -0.0465045 -0.00825507 -0.0457225 -0.0246011 -0.0153746 0.0608802 -0.0676981 0.0664007 0.0235341 -0.0421719 -0.0110626 0.0466744 0.0527166 0.0582135 -0.0732743 -0.0240905 0.0202185 0.043061 0.0491678 -0.00643143 -0.0115393 0.00985139 -0.00618625 -0.000810488 0.0193497 -0.0457594 -0.0202023 0.00193974 0.0203386 0.037806 -0.0510947 0.00307403 -0.024069 -0.0603257 0.0659189 -0.0191728 -0.0423834 0.0681245 0.075052 0.0536252 -0.00276834 0.064843 0.0158519 0.0646247 0.00880398 0.0383664 0.00426302 0.0284474 -0.0723666 -0.0644922 -0.0147389 -0.0273026 0.0605422 0.0337815 -0.0238773 0.0242429 0.0343494 -0.0667695 0.0257479 -0.0110803 -0.00519437 -0.0700987 0.0276414 0.0165483 0.0139469 -0.0296475 -0.0513634 -0.0267468 -0.0142865 -0.0174135 0.0421901 0.0295844 0.0239503 -0.0192603 -0.0679108 0.0457665 -0.0112408 -0.00425675 -0.0374567 0.0135767 -0.000117586 0.0049287 
-0.0334039 -0.0676935 0.0242524 0.0546716 -0.0450474 0.045262 -0.0472151 -0.0303961 -0.000848403 -0.0468691 -0.0167779 -0.0467566 -0.00478705 -0.00289557 -0.0169894 -0.0197103 0.0514561 0.0686049 -0.0356145 -0.0155628 -0.00144682 -0.0502372 0.0230445 0.0510972 -0.0750227 0.0062609 -0.0718058 -0.0534034 0.0594128 -0.0236399 0.0671052 0.0604022 0.0242261 0.0148723 -0.0209179 -0.0696914 -0.070806 -0.0364264 0.0720771 -0.0449484 -0.00647123 -0.0455844 0.0394588 -0.0609227 0.0589439 -0.0492157 0.00342133 0.0617308 0.0399377 0.0520782 0.0594417 -0.0596424 0.00298183 0.0249192 -0.0017434 -0.0648613 -0.00992584 0.0693115 0.0747736 -0.0368874 -0.0682262 0.0735163 0.027589 0.0356112 -0.0385762 -0.0675713 0.034728 -0.0478689 0.0731865 -0.0715023 -0.0362437 -0.0659853 0.0102245 -0.00119068 -0.00735031 -0.00413864 -0.056961 -0.0688242 0.0650579 -0.0280614 -0.0446883 0.0303335 -0.0500322 -0.0468398 -0.0164231 -0.0106236 0.0746019 -0.051844 -0.0514334 -0.0207713 0.0649977 -0.0685043 0.0203487 0.0423493 0.0677961 -0.0675191 -0.0680487 0.0690063 0.0300343 0.0329827 -0.0695791 0.0517016 0.0354089 -0.0396407 0.0571533 -0.0272699 -0.0190382 -0.0107917 -0.0150785 0.0480403 0.0559049 -0.0572937 0.0103112 -0.0656792 0.0599009 -0.0704024 0.00525629 0.0642996 0.0381446 0.0623038 -0.0407385 0.069167 0.00398219 0.0416078 -0.0615987 0.0306651 0.00263964 0.0674071 0.0513183 0.0287752 -0.0446929 -0.0155679 -0.0359444 -0.0394448 0.022764 -0.0617558 -0.0217128 -0.0712791 -0.0380661 -0.0069484 0.0388208 0.0735824 -0.0141931 -0.0088176 -0.0156943 0.0278651 -0.0133527 0.0271256 -0.0737987 -0.00397002 0.0169924 0.0692044 -0.0196866 -0.0579653 -0.061902 0.0600315 -0.0320459 -0.0476075 0.00391516 -0.0201651 -0.0645615 -0.0297846 0.0573499 -0.0050594 -0.00569383 0.00204203 -0.0469174 0.00901031 0.0482995 0.00144234 -0.0368174 0.0533049 -0.00739371 0.0582951 0.0642618 0.0249578 0.0391613 -0.0190836 -0.0375682 0.0588275 0.0657564 0.00361011 0.0148262 0.0198351 0.0109862 0.0430802 -0.0607604 0.0367968 -0.00929139 -0.022952 -0.0674401 0.0572012 -0.0127442 0.0665189 -0.00554287 -0.015818 -0.0485214 -0.0112704 0.0533124 -0.000353089 -0.00702329 0.0445406 0.0211412 0.0452536 0.00545815 -0.00308596 -0.037592 0.01327 -0.00341862 0.0206546 0.0541639 -0.0499219 -0.0491027 -0.0225315 -0.0504044 -0.0254671 0.0297131 0.0755576 -0.00148632 0.050849 -0.0302509 -0.0295939 -0.0256475 -0.0305339 -0.0282303 -0.0355146 0.0410584 -0.0731885 0.0174656 -0.0259281 -0.0106924 -0.0194338 -0.0398659 0.0753386 0.00687266 0.0750714 0.0177125 0.0674842 0.00885451 0.0153608 0.00470848 -0.0419777 0.0364463 0.053949 -0.0415613 0.0481438 -0.0320925 -0.00494358 0.0449961 0.00383372 -0.0713097 -0.0218872 0.0741336 0.0061015 0.0578309 0.012194 
-0.0469941 0.0673059 -0.0347207 -0.0634969 -0.0402608 0.0076098 -0.0446477 -0.0428245 0.00157975 -0.0418096 0.0342477 0.040638 0.022422 0.0262612 -0.0521578 -0.0138373 0.0195198 -0.0304043 -0.0282134 0.0709992 -0.00416469 0.00656794 -0.0428375 0.0625659 -0.0595855 0.0588086 0.0203036 0.0187279 -0.047474 0.00326531 0.0225989 0.00207341 0.00903838 -0.0121166 -0.0334151 -0.0261147 -0.0690954 -0.0244299 -0.0605797 0.0625074 -0.0721182 -0.0450556 0.00175061 0.00759818 -0.0500098 0.0384927 -0.0269912 -0.0133128 0.04826 -0.0599025 0.0360169 0.0372102 -0.00111923 0.0742693 0.00383115 -0.040983 0.0502967 -0.0335945 0.0423655 -0.0339224 -0.058441 -0.05596 0.0255807 0.0271879 -0.0481007 0.0740567 0.056555 0.060479 0.0472643 -0.0669447 0.0311237 0.0369043 0.0180187 0.0200828 0.0276917 0.0179197 0.0325463 -0.0122305 -0.0465414 -0.0514428 0.0692482 0.0678378 0.00378079 -0.0710215 0.0646578 0.00733607 0.00631561 -0.0677094 -0.0499748 -0.0607175 -0.0320311 0.0103749 0.0375111 0.041403 -0.000376709 0.070053 0.0210318 0.0540884 0.0667337 -0.0532884 0.00453085 -0.029576 0.068502 -0.0722764 0.0749313 -0.039607 -0.0137776 0.0755327 0.00810221 0.0564898 -0.0362323 0.0280073 0.0527298 0.0221399 -0.0311346 -0.060475 -0.0301146 0.0693081 0.00323611 -0.0055335 -0.034267 0.0297152 -0.0730418 0.00352851 -0.00846969 0.0596138 -0.0226094 0.0673573 0.0379149 0.0167719 0.00385268 -0.00450884 -0.0181419 -0.0169106 0.0228103 -0.0254913 -0.0244611 0.0172865 0.0692026 -0.00180016 0.0566676 -0.0233725 0.048401 -0.0291799 -0.00492372 0.0167905 0.0362496 -0.0404025 0.0378729 -0.0209143 0.0127579 -0.0593093 -0.0560834 0.0158626 -0.0124071 0.0415501 0.0142999 -0.0117519 -0.0487223 0.00154678 0.0694554 -0.058685 -0.0225385 0.0135819 -0.0422558 0.0157835 0.0728645 -0.059068 -0.0371504 0.048215 0.0100437 -0.0127017 -0.021326 -0.0530096 -0.0438674 -0.0595944 -0.0253994 -0.0475561 0.0522147 -0.0473525 -0.0661325 -0.00523624 -0.0248163 0.0494887 -0.0691653 0.0281582 -0.0358369 -0.052462 0.00107946 -0.00459482 0.0327729 -0.014851 -0.00476867 -0.00429663 0.0202194 0.0187493 0.0616179 -0.0232682 0.016523 -0.0122306 -0.0178323 -0.0237734 -0.00665192 -0.028445 0.0469077 -0.00939969 0.0288629 0.00380128 -0.0546732 0.0593924 -0.0596422 -0.0660278 -0.0262958 0.058099 0.046565 -0.0743972 -0.0523498 -0.0524588 -0.0350448 -0.0685335 0.0259442 -0.0633155 0.0343129 0.0257772 -0.0750516 -0.002437 -0.0712394 -0.0112556 -0.0748791 0.0145281 -0.00668917 0.0317677 -0.0717116 0.0371024 -0.0419664 -0.0613821 0.0447336 -0.0648381 0.0352243 0.017244 -0.0464673 -0.00929952 -0.0346623 0.027636 -0.0374493 0.075285 -0.0291603 -0.0366721 -0.0274114 -0.0172792 -0.0689691 0.0135093 -0.0257139 -0.0299952 -0.0463015 0.0157699 
-0.00991356 0.0360418 -0.0578322 -0.0422653 -0.00722384 0.0440578 -0.0407719 0.0706201 0.0634536 -0.0208642 0.0436207 0.0114479 0.0135185 -0.0120031 0.0473087 -0.0142721 0.0117936 0.00552858 0.0384572 0.07527 -0.0679684 -0.0255573 -0.00973934 0.0686616 0.0504259 -0.0368044 0.0637091 0.0424234 0.0578885 -0.0621514 -0.0267509 0.0493221 -0.0340121 -0.0441061 0.0568404 0.0493098 0.0690867 -0.0636039 -0.0179528 0.0652028 -0.00912211 -0.0291441 0.0585584 0.0682801 0.00452308 0.0734029 0.00697411 0.0717409 0.0390895 0.0362795 -0.01682 -0.0672943 -0.0181982 0.0586067 0.0203079 -0.00169088 -0.05881 -0.0578968 0.0422026 0.0269752 0.0576834 -0.0617724 -0.0231747 0.01286 -0.00252769 -0.0702671 -0.0228435 -0.00439664 0.0116818 -0.00566594 -0.0158774 -0.00680637 -0.00322134 0.0669366 0.0272532 -0.0632202 -0.0753293 0.0416377 0.0588385 0.071861 0.0229401 0.00401468 -0.0313278 -0.0142717 0.0571855 -0.0609483 -0.016578 -0.0589035 0.0674989 0.0216154 0.0078798 0.0680733 -0.0698757 0.0626546 -0.0432235 -0.0479163 0.0122582 -0.0607012 0.0297365 0.0116851 -0.0689628 -1.20477e-05 0.0202139 0.0132406 0.0393358 0.0559489 -0.0332311 -0.0609953 0.0507233 0.0395219 0.00981078 -0.0661046 -0.0492802 -0.0727181 -0.0735174 -0.0428258 0.0204325 0.0530763 -0.0460211 -0.0751551 0.0647788 0.0214782 -0.0572724 -0.0177908 0.0316753 0.0401036 -0.0639246 0.00639538 -0.0529022 -0.0322053 0.062486 -0.0529921 0.0421819 0.0471339 0.0066322 0.0658058 -0.0242582 -0.0527729 -0.000769653 0.0724109 0.0672133 -0.0337776 -0.0445255 -0.034707 -0.0381913 0.00189689 -0.0231777 0.0287814 0.0523862 -0.042933 -0.0229202 0.0430767 0.0698016 0.0288528 -0.0614838 0.0272421 0.0578197 -0.049588 0.0460021 0.00445038 -0.0040062 -0.0311948 0.011036 -0.0406907 -0.0483272 -0.0670256 -0.0296398 0.0513297 -0.0204151 0.0517906 -0.0280204 0.00257648 0.0501946 -0.039324 -0.0504357 -0.0466021 0.0164017 0.0671807 0.0160876 -0.0660985 0.045715 0.00995879 0.00119611 -0.00297718 0.0666297 -0.0460015 0.061254 -0.0121017 0.0728332 -0.0661814 0.0470862 -0.048955 -0.0176369 -0.0241918 -0.0531673 0.00174375 0.0413986 -0.0597168 -0.0233272 0.0126305 0.0616799 -0.0200644 0.0172576 0.00481649 -0.0603911 -0.00359957 0.0323478 0.0443605 0.0178976 -0.0128719 -0.027266 0.0495565 0.0139821 -0.0330341 -0.046909 -0.00210795 0.0728638 0.0637649 0.0574353 0.00444519 -0.0577328 -0.0404095 0.0561369 -0.00161429 -0.0160501 0.0459292 0.0284516 0.0352863 -0.0483076 -0.0600213 -0.0295585 0.0368211 0.0471496 -0.0577047 0.0255889 -0.0588071 0.0544486 -0.0672701 0.0676928 0.0295277 -0.00228942 0.0589027 0.0726615 -0.0226494 0.0509401 0.0622392 -0.0425793 -0.0442272 0.019985 0.0511647 -0.0334448 0.037248 0.0209218 0.0717435 -0.0325281 -0.0138226 
-0.00256886 0.00376795 0.0646003 0.0375411 0.0599649 0.0506107 0.0708185 -0.00664292 -0.0485572 -0.0347473 -0.00254205 -0.071434 0.016962 -0.0727542 0.0377452 -0.0356516 0.0224662 0.071687 -0.0118125 0.0575453 -0.019837 0.0264804 0.0279226 0.0567984 -0.0145297 0.0689253 -0.00588895 0.0101155 -0.0719452 -0.0612665 -0.0306051 -0.0528765 0.00401051 0.0291231 0.036895 0.018463 -0.0737014 -0.0530556 0.022709 -0.0383599 -0.0266638 0.0284843 -0.0153317 0.0107631 -0.00503297 -0.0729822 -0.050222 -0.0162909 -0.0661144 -0.0524364 -0.0755969 0.0216553 -0.0681204 0.00810675 0.017187 -0.00110609 0.0285246 0.0114548 0.0582578 0.0355911 0.0298475 -0.0156603 -0.0251265 0.0225929 0.0192788 -0.0193711 0.00308514 -0.0495166 0.00183792 0.0410506 -0.039343 -0.01564 0.0391404 -0.072721 -0.0463099 -0.0309882 -0.0112442 -0.017917 -0.0724562 0.0208154 -0.0109222 0.0443537 0.0315625 -0.0715147 0.023406 -0.0523815 0.0708771 -0.00815316 0.042596 -0.0630365 0.0438105 0.0461184 -0.0528507 0.0233803 -0.0146245 0.0554606 0.0512865 0.021584 0.0354758 -0.00476841 0.0282896 -0.0107339 0.0449877 -0.00643122 0.0235723 -0.0554801 0.0672804 0.0666354 0.0561667 0.0294721 0.0150372 0.0165562 0.0301406 -0.00711353 -0.0742458 -0.0702748 -0.0669386 0.0366448 -0.0703896 -0.0124929 -0.00130237 -0.0246088 -0.0591565 -0.000140853 -0.0521862 0.0725846 0.0735063 0.0192194 0.0550141 -0.0296847 0.0608153 -0.0439002 -0.0096835 0.00154899 0.070062 0.0703487 0.0525425 -0.0728857 0.00781567 -0.0101392 -0.0068825 -0.0504073 0.0661896 0.0190746 0.0636948 -0.0514412 0.0443042 0.0124733 0.0285336 -0.0138473 -0.0756411 -0.0302243 0.019514 0.00269435 -0.0313705 -0.0310512 0.0731624 0.045046 0.0454058 -0.026861 -0.0159653 0.0194609 -0.0602311 -0.00302735 0.0551197 0.000348372 0.00104895 -0.0351056 -0.0500206 0.00569556 0.070767 -0.0698429 -0.0144495 0.0250817 0.0502657 -0.00501943 0.0617594 0.0580845 0.0713655 -0.0399298 0.0145372 0.0312072 0.0262021 -0.062908 -0.0129409 -0.0685333 0.0278218 -0.0719044 0.0654676 0.0264793 -0.0678057 -0.0345157 -0.0618551 0.0443819 0.028386 0.0685314 -0.0460618 -0.0541575 -0.0258482 -0.0444414 0.0500184 -0.024342 -0.0362055 -0.0727802 0.0209067 0.0133379 0.00211996 0.0609899 -0.0374831 -0.031287 0.0553194 0.0690498 0.0200857 0.0247797 0.0471274 0.072925 -0.0121663 0.000370329 0.00166581 -0.062096 0.0321011 0.0728023 0.0355484 0.0411741 0.0701436 0.070209 0.0755651 -0.0478347 -0.0385018 0.0449471 0.0292313 0.0107753 0.0502969 0.0343339 -0.0642267 0.00559672 -0.065397 0.00285894 0.0492227 -0.0404614 0.0715224 -0.0112066 0.0517402 -0.0536787 -0.00851397 0.012415 0.0468386 -0.0410203 0.0315201 0.055274 0.0242771 -0.0653002 0.033439 0.0465198 -0.0328257 -0.0360048 
-0.00358459 0.00197233 -0.0502219 -0.0603641 -0.0656221 0.00946473 -0.0382002 -0.0168899 0.0444038 0.0494958 -0.0167883 0.0559548 0.0397476 0.0455577 0.0242735 -0.000672078 -0.0136528 0.00184959 0.0412723 -0.0440946 0.00965228 0.0698617 -0.0521421 0.0296979 -0.0176889 -0.0669625 0.0751582 0.00770605 -0.0119019 -0.0365659 0.0528978 0.0648184 0.0148092 0.0687358 -0.0637606 -0.0335399 0.0616822 0.00548819 0.0271541 -0.0124801 0.0420057 0.0506529 0.049053 -0.0318012 0.051113 0.0265886 0.0100183 0.00268544 -0.020261 -0.0218736 -0.0332373 0.0751197 0.0235179 -0.0378854 -0.0406511 -0.0667209 0.0284129 -0.057714 0.011368 0.00942514 -0.0573761 -0.0430255 0.0619589 -0.036067 0.019325 0.0687798 0.071075 -0.00350594 0.000676197 -0.0102474 0.0140232 0.0475817 -0.0642318 0.0407663 -0.0495721 -0.00642948 -0.0132179 -0.0418351 0.0415708 0.0344194 -0.0659853 -0.0238663 0.00491512 0.0126216 -0.0392962 -0.0278774 0.0180865 0.0181268 -0.0201474 -0.0427119 0.0259905 -0.015593 -0.0612367 -0.0606531 0.025076 -0.00765234 -0.0636964 -0.0317792 0.0410408 -0.0488684 0.0721717 -0.0442974 0.0433476 0.044958 0.00450172 0.0682084 0.0053284 0.0191719 0.0341996 0.0377872 0.035709 -0.00961807 0.0365831 0.0274954 0.0419852 -0.0504236 -0.0590485 -0.0468969 0.0411621 -0.0420411 0.0337079 0.0209305 -0.0094 -0.0586296 0.0152541 0.016718 -0.0471777 -0.0574844 0.017156 0.0152285 -0.0328922 0.0750193 0.0758604 0.00397495 0.0326282 0.0164923 0.0198864 -0.0633795 -0.0698706 -0.0584 0.0291983 -0.0390523 -0.0429862 0.0577513 0.0723743 0.0428145 -0.02157 -0.0578122 0.0156987 -0.030917 0.0631737 -0.0466194 -0.0370987 -0.000217044 0.020541 -0.00118793 0.023264 0.0250169 0.0477656 -0.0509801 0.0512714 0.00132228 -0.0213153 0.0239382 0.0197006 -0.0620858 -0.0650506 0.0168772 -0.0504011 -0.00507264 0.0192377 -0.0370531 -0.0245002 0.00560372 0.00797516 0.00996626 0.00355185 0.0183 -0.0513191 0.0238663 -0.0347342 -0.0674794 0.0518308 0.0280502 0.0404414 -0.0116428 -0.0204771 -0.0490582 0.0574399 -0.03891 0.0480325 -0.0389691 0.00988732 -0.000357365 0.0681765 0.00754913 -0.0257431 -0.0511043 -0.0491995 0.00420498 0.0418715 -0.0195402 0.0112397 0.0345985 -0.0659363 0.0212718 0.0148677 -0.0269885 0.0284133 -0.0121533 -0.0361964 0.0580297 0.00703311 0.0466436 -0.0462596 0.0667095 -0.00547771 0.0483887 -0.0305214 0.0342701 -0.0441364 0.062222 0.0215779 -0.0494328 0.0171865 0.0712993 -0.0224484 -0.0269572 1.29076e-06 0.0594997 0.0736664 -0.0300223 0.0373194 0.0529844 -0.0401404 0.038313 -0.0130116 0.0444581 0.0401636 -0.0103075 -0.0125483 -0.0556887 0.0423027 0.0274028 0.0548752 -0.0742428 -0.0265589 0.0635315 -0.057092 0.0360586 0.0577738 -0.0541702 -0.067094 -0.0700907 -0.0379752 0.0575805 
-0.0515955 -0.0481118 0.0464045 0.00889419 -0.0506717 -0.0484907 0.0643699 0.02575 -0.0297872 0.0673973 -0.0160156 -0.0381318 -0.0438367 -0.000206531 -0.0114233 -0.0501635 0.0244787 -0.0542902 0.059138 0.0331692 -0.0737881 -0.0402437 -0.0452914 0.030363 -0.016526 0.0464817 -0.0275472 -0.0104885 0.0476297 -0.044607 -0.0354183 0.0756456 -0.058007 -0.0643882 0.034292 0.00292982 0.0154704 -0.0275737 -0.0326094 0.0485116 -0.00416769 0.00149084 0.0593371 0.0142279 -0.00500466 -0.053244 -0.0149089 0.00953663 0.0319862 0.0718458 0.00256384 0.0344371 0.0534987 0.0345758 0.0195138 0.039547 -0.0512491 0.0334942 -0.0697242 0.0414617 -0.0219489 0.0394802 -0.0558566 -0.0528629 -0.0487134 0.0326065 0.0629244 -0.00159406 -0.0646017 0.0358839 0.0394845 0.0618095 -0.0543146 -0.0442636 -0.00356752 0.025921 0.0634046 -0.00872147 0.0503902 0.0282859 0.0392087 -0.073465 -0.0326918 0.0221116 -0.0707284 -0.0734448 0.0650008 -0.0600016 0.0264524 0.0360395 -0.0176502 0.0463352 0.0387414 -0.066159 0.0694402 0.0642535 0.0399486 -0.0341381 0.0378486 -0.00733035 0.00257369 0.0310136 -0.0338581 0.0701233 0.00204044 0.0472671 0.0731024 0.0296942 0.0131825 -0.0144099 -0.0447629 -0.013727 0.0719632 0.0410307 -0.0674571 0.0604448 0.0195769 0.00238454 0.0137128 -0.0544513 -0.0523568 -0.0622772 0.0515206 0.0446825 -0.0413352 0.0571688 -0.0564864 0.00878665 0.0274224 -0.0728779 -0.0566008 -0.0639544 0.0379039 -0.0357391 -0.00507255 -0.0281326 0.0637406 -0.0317749 0.0351282 0.0105901 0.0360394 -0.0735925 -0.0231389 0.0464887 0.0683977 0.0134149 0.0704027 -0.0629056 0.0682342 0.0349103 -0.0721245 -0.0218656 0.00806103 0.0480098 0.00515293 0.0497371 0.0154779 0.0140041 0.00469384 0.015046 0.0257221 0.0235554 -0.0328731 0.0545686 -0.00722618 -0.0413196 -0.0378329 -0.0754903 -0.0689457 -0.0545668 0.0404095 0.0113247 0.0296994 -0.0205213 -0.0208626 -0.027684 0.0649531 -0.0496505 0.0715835 0.0529603 -0.00399004 0.00669965 0.0692436 -0.0256001 0.0657262 -0.0321507 0.0539262 -0.0484769 -0.0132915 0.0179845 0.0487799 -0.013041 -0.0723434 0.0315267 -0.0682409 0.00327273 0.0436279 0.00201586 0.00311557 -0.0231437 -0.0642426 -0.0358805 0.0361803 0.0542846 -0.00868533 0.0365728 0.0520183 -0.0639015 -0.0757944 -0.0661749 -0.0269289 0.0673023 0.0240296 0.0596671 0.0318013 -0.0258573 -0.033608 -0.00219965 -0.0365423 0.0721441 0.0646749 -0.0437692 -0.0456546 0.00347041 -0.0712752 -0.0513626 0.0660785 -0.0626734 -0.0630285 -0.00391243 -0.0307486 -0.0551561 -0.0319366 -0.0381989 -0.0268347 -0.0508835 -0.029176 -0.000195177 -0.0179436 0.00589391 -0.0583812 -0.0396824 0.0332922 -0.0240099 -0.016173 -0.00328598 -0.0443412 0.0311436 -0.0743172 0.0103592 0.00467379 0.0297001 0.0730948 -0.0159563 0.0185017 0.0537573 
0.0732046 -0.0512427 0.00337522 0.00827824 0.0231074 -0.0441764 0.0745271 0.0511624 -0.0254564 -0.0340016 -0.0260523 0.0410319 -0.0176799 -0.0741447 -0.0737294 0.0525201 0.0623266 -0.0388268 0.0222205 0.0250976 0.0314331 -0.0261875 0.0677292 0.0335382 0.016476 0.0128268 0.00768381 0.068204 0.00442562 0.0159081 0.0357412 0.0534387 -0.0394849 -0.057346 -0.0673463 -0.0049261 -0.0236875 0.040976 0.0349509 0.0251483 0.0460877 0.0409008 -0.0012363 -0.0128879 0.0376708 0.0406022 -0.0158061 0.00482285 -0.0708644 0.0534396 -0.0651513 -0.0479283 -0.0478769 0.00794766 -0.0575513 -0.0350374 -0.0354534 0.0270112 0.037145 -0.0505468 -0.0220173 0.0605111 -0.0019892 0.0103121 0.0534017 0.0626243 0.0449432 -0.00967615 -0.0544439 -0.0642326 0.0228641 -0.0448591 -0.0524271 -0.0284348 0.0622585 -0.0442071 0.0367679 0.0729122 0.0455655 -0.0382628 -0.0104449 0.0681555 -0.0105322 -0.0576317 0.035786 0.049894 -0.0500562 0.0146517 -0.0415888 0.068547 -0.0426014 0.0741943 0.0610644 0.0367558 0.0299082 -0.0599563 0.0278547 0.0356455 0.0435142 0.0684254 -0.0609526 -0.031293 0.0490711 0.0655822 -0.0732236 0.0274039 -0.00103392 -0.0172194 -0.0168697 -0.0210685 0.0731964 0.0735803 0.0727236 -0.0108791 0.0229407 -0.0745311 -0.0594275 0.00935388 -0.0493207 0.0271224 0.0573851 0.0153909 -0.0318025 0.00893011 -0.0664379 0.0531376 -0.0667671 0.0624877 0.0560583 -0.0495823 0.0471582 -0.0070319 0.0223839 0.0229401 0.0577896 -0.0372156 0.0752872 -0.0202108 0.00403251 0.0133365 -0.0258952 -0.0298945 -0.0726969 0.0127366 -0.017132 0.0670219 -0.0628217 0.0246399 -0.0521792 0.0164248 -0.0604261 -0.0386691 -0.0473945 0.0401161 0.0636919 0.00010274 -0.0354981 0.0625723 -0.0508273 0.0428893 0.0482677 0.0653474 0.0531796 -0.0691446 -0.0749431 0.0349369 0.0202643 0.0569071 -0.000734452 -0.070445 -0.0631792 0.0734289 0.0454968 0.0161174 -0.00382705 -0.00103821 0.038716 -0.0339196 -0.00727814 0.00459083 -0.0302733 -0.0543012 0.0546432 -0.0156927 0.0655626 -0.0221288 -0.0678186 -0.0707315 0.0683799 -0.0426143 0.0121932 0.0065226 -0.0340375 -0.0645735 -0.0403488 -0.0478319 0.0282872 -0.0534478 -0.0111146 0.0689217 -0.0296432 -0.000462728 0.002129 -0.0589478 0.029424 -0.0700627 -0.0516203 0.0359999 0.0532056 0.0127461 0.0410232 -0.00964044 -0.0722462 -0.00687186 0.0575523 -0.048186 0.0260998 0.0143863 0.0204315 0.0688694 0.068604 -0.048707 -0.0736003 0.0752059 0.011748 0.0160386 0.0102072 0.0468384 -0.0357305 -0.0708216 -0.0290979 0.0523723 -0.0422038 0.0470634 0.0492161 -0.000973352 0.053416 0.0284751 0.0426648 -0.0595441 0.0219659 0.00967269 0.0327911 0.0351207 -0.0446951 -0.0401698 -0.0358384 0.0718404 0.0350145 -0.0288771 0.0617796 -0.0720316 -0.0113384 -0.000893032 0.0667559 -0.0674885 
0.0303204 -0.0707111 0.05007 0.044033 0.00134548 0.059302 0.0315599 -0.00302999 -0.0664437 -0.0399712 -0.0538981 0.00973792 -0.00671543 -0.0515791 0.00818936 -0.0259834 0.0371717 0.0162179 -0.00549722 -0.0593192 0.0741218 0.0414449 0.0708859 -0.0495055 -0.0034797 -0.0176776 -0.0103527 -0.0342215 -0.0699513 -0.0671579 0.0338838 -0.0422252 0.0631765 -0.0227824 -0.0578943 -0.0404203 -0.0418433 0.0477306 -0.0697178 -0.0217427 0.037497 -0.0563035 0.0746473 0.0467279 -0.0320867 0.0207849 0.0707358 -0.0195361 0.0175515 0.0422859 -0.0665008 0.0715494 0.00170359 0.062858 -0.0588529 -0.01687 -0.000332503 0.000901587 0.0350634 0.0197709 0.0252855 -0.0686166 0.0507003 0.0276328 -0.00561455 -0.0718694 0.0201685 0.0237304 -0.044925 -0.0451444 0.0484946 0.0651715 -0.00800387 0.0253479 0.00723152 -0.0621628 -0.0707618 -0.0656944 -0.0418842 -0.00954072 -0.000420015 -0.0247575 -0.0160692 -0.0215498 0.0077259 -0.0368799 0.0055181 -0.0725644 -0.0323599 0.0659273 0.017495 0.0414744 0.0027427 0.00389608 -0.0733728 0.0582203 0.049635 0.0287928 0.0477772 -0.023908 -0.07475 0.0454894 -0.04678 0.0576169 -0.0326609 0.0250417 -0.0615207 0.0696946 -0.0409608 0.023701 0.0340431 -0.0719982 0.0758854 0.0129975 0.0597943 0.0541432 -0.0655911 0.0221017 -0.0364606 -0.0692433 0.0398567 -0.0169968 0.0709698 0.042826 -0.0173997 -0.050941 0.0217258 -0.070252 -0.0685496 -0.0168833 0.0753162 0.0549454 -0.0161486 -0.0749848 0.0214243 0.0680163 -0.0173321 -0.0358666 -0.0686448 -0.0124495 0.0570565 0.0749293 -0.0520958 -0.0155012 0.0337592 0.0602216 0.0721838 0.0418504 -0.0311865 -0.00325769 0.0625227 -0.0657824 0.00615948 0.0250342 -0.047073 -0.00525981 0.0418707 0.0638708 0.0706603 0.0187233 -0.0395459 0.0205874 -0.0309525 0.033572 -0.00484339 0.0445777 -0.0601191 -0.00767563 -0.0367864 -0.0730658 -0.0391677 0.0584813 0.00971782 0.026861 -0.0176866 -0.0504912 -0.0146489 -0.067986 -0.0616085 0.0526692 0.0623728 -0.00868316 -0.0349198 -0.0702764 0.00278911 0.0756984 -0.0408394 -0.0260659 -0.0149728 0.0527824 0.0438871 0.0738875 -0.0498434 -0.0654378 -0.0396838 -0.000983807 0.0370088 -0.0415401 -0.056244 0.0656603 0.0742128 0.0433758 0.0702962 -0.0103069 0.0140904 -0.00847027 -0.0453127 0.0653652 -0.0648565 -0.000747731 -0.026552 0.0218395 0.0685058 0.0576438 -0.0693562 0.0313717 -0.0495247 -0.0369464 0.0685337 -0.00663556 -0.0514012 -0.0549096 -0.000147326 -0.0583161 0.00623444 0.0424823 -0.0261715 -0.00602759 -0.04634 0.0384781 -0.0647208 -0.0365346 0.0213517 -0.0412686 -0.0644159 -0.0450015 0.0403495 -0.0197977 0.000901431 0.0577642 -0.0578225 0.0310599 0.0424984 -0.00328501 0.039229 -0.0674715 -0.0236528 -0.00861535 0.0248929 0.0696415 -0.0550217 -0.00399372 -0.0578227 -0.0146431 0.0681792 0.0268018 
0.0525584 -0.00731616 -0.0182835 0.0753888 -0.0225424 0.0108776 -0.0498019 0.00282345 -0.0207913 0.048873 -0.0257929 0.0508748 0.0480896 -0.0267216 0.0100633 0.0184317 0.0244116 0.0131419 -0.0374224 -0.0586071 0.0214607 0.0338991 0.0505319 0.074805 -0.0494697 0.0654807 -0.0108251 -0.0522743 0.0444831 0.0427448 0.0654212 -0.0747154 0.032256 0.0662726 0.0306994 -0.0501097 0.0681254 -0.0133303 -0.0129542 -0.0500096 -0.0181089 -0.0343095 -0.0438124 -0.0592309 0.0411859 -0.0122719 -0.0294753 0.0382155 0.0392095 -0.0231573 0.0646789 -0.0198694 -0.0501169 0.0118827 -0.0744108 -0.0111531 -0.00842152 -0.0462017 -0.044694 0.016736 0.0518669 -0.0151932 -0.0120503 -0.0191187 0.0644737 -0.00863459 0.0281708 -0.0684912 0.0656855 0.0641633 -0.0560207 -0.0180979 -0.0321423 0.0419016 0.0312469 -0.0182831 -0.059595 -0.0151293 0.0390088 -0.0372024 -0.0734699 0.0470202 0.00726461 0.0128795 -0.00470502 -0.0384121 -0.0285554 -0.0725897 -0.0479436 0.00910032 -0.0457598 -0.0718738 0.0741011 -0.0131694 -0.012016 -0.0375014 0.0503297 -0.0297865 0.0739069 0.00324235 0.0103369 0.0497877 -0.0701807 0.0107875 -0.0560469 -0.0112706 -0.0530893 0.0646051 0.0124864 0.0591966 -0.00398118 0.0383614 0.0626433 0.0016128 -0.0139521 0.0376109 0.0270397 4.87939e-05 -0.0464284 0.062785 -0.00446229 0.0522467 -0.0408948 -0.0544477 -0.0552286 -0.0574639 0.00992069 -0.0618959 0.0434006 -0.0239699 -0.00382777 -0.0638378 -0.000871826 0.0274679 -0.0528159 -0.0179391 -0.0492681 -0.0409521 -0.0539119 -0.0156356 -0.0719035 0.0734018 0.0546621 -0.0490697 -0.0654287 -0.0365659 -0.0332291 -0.0426994 -0.0347864 -0.0610592 0.0385168 0.0564857 0.0510711 -0.0377728 0.0584083 -0.0641735 0.0543941 0.0542911 -0.0084613 -0.0253944 -0.0227256 0.0233122 -0.00330935 -0.0609353 0.0166987 0.0375689 0.0725384 0.0441471 -0.0445236 0.0199285 -0.0451994 0.0474869 0.0100107 0.0260339 -0.056844 -0.0461471 0.0148794 0.0688748 0.00373204 -0.069209 -0.0145034 0.0114166 0.0506915 -0.0190512 0.0436849 -0.00629718 0.0559823 0.0124354 -0.0309165 0.0221542 0.0600053 -0.0395704 0.0392926 0.0726934 -0.0374603 8.02423e-05 -0.0609848 -0.0261935 0.0722041 -0.00610713 0.0116663 0.00996271 -0.0241682 -0.0561335 -0.0645512 0.0349458 0.00843559 -0.0102235 -0.0521269 -0.0650921 -0.0326053 -0.0183751 0.0251885 0.0484182 -0.0155798 0.0699764 0.0568268 -0.0058278 -0.0749733 -0.0361242 -0.0345329 0.0429573 -0.0605365 -0.0131734 0.0176271 -0.0374265 0.0225229 -0.00647832 0.000487088 -0.0355405 -0.0342925 0.0645338 -0.0373941 0.0418242 0.0247196 0.0496238 -0.0682288 0.0534859 0.0349593 -0.00655222 -0.0598746 -0.0541859 -0.0188421 -0.0698462 -0.0588056 -0.0575232 0.0454531 0.0261525 -0.0693995 -0.0658923 -0.0572913 0.00326279 -0.0273968 0.0369183 0.0332425 0.0612484 
0.0634195 -0.00665205 0.0199275 0.0100102 -0.0204364 0.0717614 0.00591516 -0.044001 0.0431307 -0.0376428 0.004362 0.0735143 0.0485636 -0.0495401 -0.0294376 0.0146292 0.0206791 0.0288536 0.00350237 -0.0166796 -0.0221954 0.027607 -0.0706167 0.0560135 0.0149022 -0.0529622 -0.0495478 0.0272949 0.00190137 -0.0213718 -0.026242 0.052952 0.014018 0.000972057 0.0429911 0.0143853 0.0279021 0.0182451 -0.0493642 0.0618088 0.0331181 -0.0125542 -0.0220571 -0.0551755 0.0414035 0.0180616 0.0288455 -0.0618013 0.0403111 0.0133077 -0.0654233 0.0700703 0.0510777 -0.00859515 0.00386713 -0.0483649 -0.00503226 -0.0361179 -0.0305727 -0.0384475 -0.0303834 0.0114261 0.068423 -0.0385049 -0.0106271 -0.0472432 0.0199975 0.0559091 -0.0674062 0.0284717 -0.0509971 -0.0411243 0.00882508 0.039748 0.0283566 -0.0172571 0.0075654 0.012151 -0.0660026 0.0103508 -0.0145742 -0.0143315 0.0273521 0.0490769 0.022505 0.0552826 -0.0335457 -0.0255849 -0.0608334 0.0629215 0.0318445 0.0508156 0.0554797 -0.046063 -0.00222271 -0.0529426 -0.0307684 -0.0119404 0.0363778 0.0174715 0.0741483 -0.0282995 0.0611244 -0.0370174 0.0290354 0.0667375 0.0167251 -0.00666999 -0.0496968 -0.000139752 -0.0718638 0.0544362 0.073922 -0.018445 0.0241397 0.042758 0.00130123 0.0147772 -0.0590745 0.0734287 -0.0495818 -0.00240212 0.0199635 0.0490845 0.0167366 -0.0700538 0.0255974 0.049098 0.0305442 0.0377496 -0.049561 -0.0582051 0.036815 0.00969971 -0.0142678 0.00233135 -0.059455 0.0644659 0.0499754 0.0183036 0.0589232 -0.0576803 0.0129115 -0.0345401 -0.0702934 -0.000990343 0.054906 0.0623786 0.0456043 -0.064183 -0.0413358 0.00211963 0.00502858 0.0751571 -0.0704891 0.0093725 0.0372483 0.0468675 0.0162294 0.0598509 0.000541937 0.0280115 0.0194114 0.0422988 -0.0659034 -0.0308274 0.0649661 -0.0703941 0.0638699 -0.0747784 -0.0244358 0.00109101 0.0441984 0.0179484 0.0684504 -0.0218884 0.0203742 -0.0688722 -0.0565577 0.0317884 0.0554444 0.00087003 -0.00224064 -0.0550731 -0.0191219 -0.00543705 -0.00858215 0.051058 -0.0424621 -0.0517307 0.0540145 0.0284848 -0.0383736 0.00768793 -0.0275763 0.00917866 -0.00999393 0.0390755 0.0537422 0.0300496 0.069893 -0.0753284 -0.0277732 0.029251 -0.0450098 0.0699173 -0.0467388 -0.0542358 -0.000813234 0.0412463 -0.00755627 0.00361308 0.0568737 0.0744676 -0.0622175 -0.0612567 0.036178 -0.0439452 -0.0654855 -0.00482162 -0.0704967 0.027658 0.056985 -0.0465414 0.0723313 -0.0541308 -0.0446506 0.0542007 0.0578333 0.0576489 -0.0258592 0.0111899 -0.0263309 -0.0360904 0.0341599 -0.0133665 -0.00310116 0.0292861 0.0508431 0.0566883 -0.0318783 -0.0340245 -0.0730463 0.0246017 0.0557576 0.0627764 0.033641 0.0722724 0.0256421 0.0099569 0.0124789 0.0621944 -0.0357137 -0.0296833 0.0314755 -0.0078311 
-0.0517646 0.00762771 0.0626904 0.0651039 0.0337383 -0.0145525 -0.012693 -0.0702683 -0.0202122 0.0572152 -0.0367874 0.0309792 -0.0626861 -0.031866 0.0717364 0.011904 -0.020103 0.00463431 0.060934 -0.0138564 0.0185123 -0.0388476 0.00474711 -0.0659148 0.0751487 -0.0456688 -0.00313519 -0.031279 0.00487349 -0.0757853 -0.0713637 0.0355464 -0.012618 0.00511123 0.0393409 -0.0116621 0.0175125 0.0297716 0.0743791 0.0735108 -0.0180223 -0.00221502 0.0650328 0.0355121 -0.00650328 -0.0655298 -0.0273451 0.0175248 0.00998192 -0.0578202 -0.0464417 -0.0132206 0.0639018 0.0691896 0.0170801 -0.0363856 -0.000476234 0.0062423 -0.0343741 -0.0741367 0.0385823 0.0725355 0.0484616 -0.0167167 0.0730891 -0.0150235 0.0549772 -0.0722296 -0.0469508 -0.0575973 0.0430579 -0.0197616 -0.00818142 0.0218964 -0.0549327 -0.068622 0.0311099 0.0634515 -0.030868 -0.0470888 0.0328721 -0.0758596 -0.0492768 -0.0334785 -0.0523668 -0.0237064 -0.0654974 -0.0263762 0.0124287 0.0237143 0.00457706 0.0630051 -0.0715778 -0.0271098 -0.0234621 0.0178083 0.0125958 -0.00494241 0.042266 -0.0442718 0.0248359 -0.0148073 0.0327826 0.042921 0.0260661 0.0427752 0.0184968 0.0171761 0.0137713 -0.0658859 0.0622643 0.0291128 -0.0569837 0.0320408 0.0595705 -0.0745561 -0.0450919 -0.0126166 0.00962409 -0.0605409 0.0663551 0.0441866 -0.0475451 -0.0352459 -0.0179077 0.0238784 -0.0327767 0.0549522 -0.00999358 0.0186216 0.0036528 -0.000777039 0.0260148 -0.0672456 0.00498285 0.0263319 0.0598019 0.0739755 -0.0591256 0.00479747 -0.0603008 0.0129215 0.0470623 0.0298177 0.0691766 -0.0683081 -0.00677208 0.056081 0.0315756 0.00908315 0.00910404 -0.0187195 0.0216859 -0.0594843 -0.0163549 0.0468128 0.00968439 0.0446394 -0.0403214 0.0643276 0.0646667 -0.0184332 0.0587429 -0.027778 0.00138457 -0.0560103 0.0388028 -0.01428 -0.00435737 -0.0639997 0.0276037 -0.0633399 0.00307035 -0.0133645 -0.0675195 0.072665 0.0147888 -0.0100524 -0.0504904 -0.0253069 0.0441523 -0.0117222 0.0514283 0.0203707 -0.0499214 -0.0207614 -0.0707395 0.00128932 0.00730608 -0.00717704 0.0478439 0.0756694 -0.0242919 -0.0371401 -0.0359877 -0.00687343 -0.0590134 0.0494606 -0.0057712 0.0279615 0.0627974 -0.0188332 0.0213204 0.00867076 -0.0233152 0.0010933 -0.0119323 0.00840027 0.0293869 -0.0162508 -0.0062707 0.0217024 0.0646613 -0.060744 0.0424239 0.0423886 0.0134218 0.0699949 0.00740183 -0.0628343 0.0532652 -0.0611636 -0.0625203 -0.0258802 0.00797703 0.0155462 0.00276444 0.0746106 0.0673107 -0.0233126 -0.0533558 -0.0346994 -0.0673184 0.0470196 0.0634945 -0.0636639 -0.0499188 0.0378118 -0.0171221 -0.0461859 0.015268 0.0134013 0.0186535 -0.0484783 -0.0667369 0.0259706 -0.0758847 -0.0425908 -0.0644893 0.0309984 -0.0418943 -0.0347862 0.00140089 -0.0186137 -0.037708 -0.0196412 
-0.0604425 -0.0429577 -0.0486988 0.0134122 -0.0189215 -0.0402293 0.000385657 -0.0461752 0.0208328 0.00723032 0.0221225 -0.0262924 0.00582478 0.0273561 0.024058 0.0366756 -0.0401923 -0.00690772 0.0399336 0.0235621 -0.0618904 0.0639129 0.0328909 -0.0577722 0.0341234 -0.0519827 0.00450097 -0.0438873 -0.0419936 0.029843 0.025825 -0.0641515 0.0173353 -0.00484909 -0.0472219 -0.0656211 0.0114066 0.0577391 0.0392399 0.0256511 0.0726564 -0.07315 0.0496437 0.0473427 0.0503975 0.041998 -0.017696 0.0731405 0.00322196 0.0300214 0.0197089 0.0273175 0.0544832 -0.0266604 -0.054153 -0.0436332 0.0178682 0.00379724 0.0468521 -0.0476836 -0.0745371 0.0423817 -0.0714351 0.0254622 -0.0752164 -0.0658685 -0.0268524 0.0660392 0.0282958 -0.0571151 0.0534334 -0.052082 0.0713235 -0.0288967 -0.0691307 0.00775702 0.053456 -0.000369777 -0.0738278 -0.0701177 0.0435425 0.0739532 0.0538232 -0.0486638 -0.0186085 -0.0549482 -0.0718795 0.0237964 0.0507197 -0.0157829 0.0445412 0.0409567 -0.0181694 -0.0712032 0.060943 -0.0544079 0.0615299 -0.0399563 -0.0366169 -0.0338571 0.026744 0.0741765 -0.0415046 -0.000662008 -0.0470369 0.023474 0.0686602 -0.0392654 -0.0210741 0.019961 -0.0531136 -0.0677925 0.0270984 -0.0291969 -0.0524576 -0.0235911 -0.0383555 0.0178156 -0.00449732 0.00190678 -0.0204057 -0.0458988 0.0451741 -0.0755166 0.0727487 -0.00697042 0.0570219 -0.0413153 0.0238647 0.034553 -0.0218289 -8.41677e-05 0.0180549 -0.0314891 0.0581083 0.0478056 -0.0366494 -0.0410102 0.0380904 -0.0657217 0.049308 0.0162093 0.0137736 -0.012689 -0.0192323 0.0259017 0.0391764 0.0670478 0.0215364 0.0755797 0.0190772 0.0444286 0.0347075 0.0208341 -0.0758229 -0.0667827 0.0249305 0.00908586 0.0251706 -0.0186921 0.0042516 0.0326647 0.0380882 -0.00509076 0.0176353 -0.00270868 -0.0376636 0.0366922 0.0614987 0.0575549 -0.0327332 0.0298508 -0.0346926 -0.0231641 -0.0458297 -0.0154177 0.00495602 -0.0544762 0.0248962 0.0612499 -0.036376 0.025853 0.0387878 0.0198625 0.0149332 0.0385926 -0.0328988 0.0189261 -0.0657498 0.037555 0.0512444 -0.0363099 0.0481328 0.0201145 0.0162849 -0.0333756 -0.0533094 -0.000347987 0.00691722 0.0608175 -0.0613293 -0.0632732 0.0160768 0.0411159 -0.00943413 0.0350039 0.0594504 -0.0481283 0.0708261 0.00677812 -0.0275396 0.0456183 -0.0191354 0.0211073 0.0751516 0.00927345 -0.0584231 -0.0693023 -0.00468814 0.00827139 -0.023007 -0.0754605 0.0647557 0.022788 -0.0406838 0.0267244 0.00431682 0.0467644 -0.0616642 0.0708384 -0.0213768 0.000326947 0.000873197 0.0732258 0.039401 0.0163325 0.0210548 -0.0685437 -0.0696395 0.050305 0.0732884 -0.0291759 -0.0734025 0.0582632 0.0459223 -0.0463455 0.0258372 -0.0218271 0.00792487 0.0380893 -0.0507036 0.0430182 -0.0240957 -0.00404247 0.0506216 0.0536404 
0.036529 0.0302984 0.0502669 0.0417038 0.0724183 -0.0255614 0.0246774 -0.00175813 0.0456263 -0.0288704 -0.0259674 0.0677303 -0.0447882 0.0711825 -0.0163415 0.0484833 0.0624295 -0.0645562 0.0585425 -0.0141282 -0.0563057 -0.049723 -0.0464387 0.0378294 -0.0352115 0.00539854 -0.0270159 0.048137 -0.0503257 -0.0410324 -0.00915441 0.0420566 0.0379258 -0.0386385 0.0640215 0.0331869 -0.00879443 -0.0275802 -0.0150334 0.0531163 0.0694801 -0.0380346 -0.0132444 -0.0446976 -0.0620727 0.0562264 0.0722566 0.070329 -0.0622809 0.0277941 0.037829 0.0391283 0.0523532 -0.066258 -0.0571504 0.0303075 -0.0742178 0.0262259 0.0556231 -0.0155387 0.00863044 -0.0232902 0.0458744 -0.0248815 -0.00860979 0.0697599 0.0716244 0.0153635 0.0503176 -0.0231039 -0.0409733 0.00590254 -0.0206795 -0.0485114 0.0743593 0.0649622 0.00456458 0.0578443 -0.0291913 0.0253321 0.0291989 -0.0149865 0.0674382 -0.0512994 -0.00377777 -0.0573168 -0.00132044 -0.0555861 0.0681975 0.0457146 0.0598901 -0.0137485 -0.0483527 -0.038762 0.0131498 0.0705576 -0.0329222 -0.026857 0.057019 0.0143662 -0.0372012 -0.0317624 -0.0745362 -0.0743116 -0.0121261 -0.0350395 -0.0247761 -0.0275439 -0.0173549 -0.0468887 -0.0121149 0.0568103 -0.0413128 -0.0469977 0.0455634 -0.0279496 -0.0614774 0.00145293 -0.0576836 -0.0434706 -0.059462 -0.0575386 -0.0743491 -0.0217952 -0.0507372 -0.0288619 -0.0179159 0.0566294 0.0581109 -0.05498 -0.0342057 0.00320268 0.0156503 -0.00615529 0.0561112 0.0071463 -0.0405908 0.046105 -0.0511729 0.0127288 0.0523931 -0.071476 0.0710192 0.0402042 -0.0156131 -0.0199269 -0.0330692 -0.0391841 0.062018 -0.0220057 -0.00385381 -0.00295696 -0.0399761 -0.0129087 0.0138414 -0.00942694 0.054125 -0.00560694 0.0619253 -0.0364646 0.0682173 0.0698779 -0.0568815 -0.0203871 0.0545493 -0.0173043 -0.043591 -0.0550198 -0.0658866 -0.00484468 0.00371476 -0.0186149 0.0609676 -0.00352877 0.0541908 0.0478432 -0.0577572 -0.0578336 -0.00841066 0.0492484 -0.00241012 -0.0628924 -0.0334799 -0.0315183 0.0137391 -0.0544655 -0.0668994 0.0680023 0.0702182 -0.0361441 0.00835435 -0.0106649 -0.0576616 0.0681986 0.0107759 -0.0324204 -0.000745277 -0.0227445 -0.0444781 0.00481397 -0.0411951 0.0438861 -0.065825 -0.0262375 -0.0359243 -0.0540414 -0.0450539 0.0496578 -0.063467 0.0339262 0.0531412 0.0636656 0.0258487 0.0469139 -0.0522986 0.0218609 0.0633467 -0.0238173 0.0547067 0.0525856 -0.000383794 -0.0411436 0.0644684 0.022881 0.0327712 -0.060644 0.0399059 0.00514353 -0.0373899 -0.0376041 -0.0570824 -0.00626382 -0.0195826 0.0185552 0.0365692 0.0207132 -0.00958049 -0.0441099 0.0321899 0.0591196 0.0493475 0.033051 0.0582826 -0.0348642 0.0321378 -0.0175874 -0.0689528 -0.0454752 -0.0670292 -0.0405383 -0.0191349 -0.0145804 -0.0214486 -0.0067731 -0.0707325 0.0596727 
0.0642142 0.0365394 0.0694367 0.00850935 -0.00449335 -0.0683937 0.017862 -0.0555546 0.0713655 0.0071592 -0.0587299 -0.0757128 0.0657796 0.0303804 0.0483579 -0.0168171 0.0394157 -0.0575323 0.0482444 0.0185718 -0.0156034 0.00848361 -0.0688104 -0.010145 -0.0512417 0.0309095 -0.0200332 0.0684963 0.0399366 -0.0299817 -0.00584049 0.0169894 0.0160383 0.0745802 0.0330795 0.0503883 0.0200332 0.068977 0.0304543 -0.0520599 -0.0551276 -0.0362729 0.0499467 -0.046176 -0.048965 0.0178877 -0.0170058 0.0384115 -0.0655454 -0.00345658 -0.021465 0.0244575 -0.0593253 0.0234751 -0.0418213 -0.0532339 0.0671335 -0.048153 0.0147524 0.060009 -0.00836319 0.0637912 -0.0223067 -0.0697783 0.0108394 -0.0131646 -0.0228403 0.0556953 0.0703604 -0.0648442 0.0557284 -0.0552942 -0.0192385 0.0438978 0.0240965 0.0746469 0.0288928 -0.0649648 -0.065832 0.0594412 -0.0674435 -0.05813 0.02815 -0.04963 0.0396785 -0.0356353 0.0110366 -0.0752019 -0.041801 -0.00908688 0.0626442 -0.0366408 0.0312186 -0.0378761 -0.0361734 0.0576337 -0.00934792 -0.00452187 0.0423456 -0.0754959 0.0378603 0.0732532 0.0691281 -0.0743261 -0.044932 0.0331442 0.0510106 0.0380515 0.0467903 -0.0138134 0.00464783 0.0356088 -0.0256156 -0.0550917 0.00882024 0.0759133 0.00669487 -0.0672204 -0.0111797 0.0159268 0.00537989 -0.0395038 0.0743566 -0.00404176 -0.0629306 0.0714562 -0.0751566 0.0682692 -0.0279979 0.0528179 0.00349477 0.034576 0.00914361 0.0718899 -0.0700514 0.00953998 -0.0643476 0.0175564 -0.0540806 -0.0462499 -0.018345 -0.0319507 -0.0579217 0.0638776 -0.0745617 0.0391963 0.0128116 -0.0631116 -0.046989 0.0235143 -0.0696227 -0.0533363 0.0236521 -0.00812277 -0.0411236 0.0211803 -0.0560156 0.0388875 -0.0716694 -0.0712063 0.0737324 -0.0415369 -0.0737259 -0.0147425 0.0128948 0.0233011 -0.0597754 0.0105542 0.0674099 0.00489418 0.0344224 -0.0408408 -0.0347011 0.00310932 -0.0595018 -0.0704823 0.051623 0.0748432 0.0631021 0.0579656 -0.00062575 0.0725962 -0.0498994 0.0663723 -0.020558 0.0491518 0.0235532 -0.0719787 0.00171202 -0.0717413 0.0570231 -0.0373069 -0.0134185 0.0505287 0.0598364 0.0062932 -0.0237692 -0.0253289 0.00607279 -0.0105444 -0.0245388 0.0489948 0.00240623 -0.0470123 0.0227606 -0.0225125 -0.00956593 0.0222949 0.0597522 0.0737587 0.0720361 -0.0381067 0.0125176 -0.019148 -0.0451737 0.0269632 0.0141194 0.010588 0.0653188 -0.0448707 0.0599849 -0.0559748 0.0738903 -0.068368 0.00860281 0.0549644 0.00258547 0.0556142 -0.0454307 -0.014934 -0.0203093 -0.0738485 0.0106724 0.00697486 -0.0209049 0.0418605 -0.0454927 -0.00786381 0.0580842 0.0203892 -0.0135964 -0.0598562 -0.0249906 0.0346213 -0.0704895 0.0423669 0.0556716 -0.0258815 0.0537866 -0.0705894 0.00878292 -0.0366364 -0.0535335 0.00285456 0.0255516 0.0171304 
0.0432604 0.064875 -0.0525901 0.0175391 -0.0556926 -0.0113153 -0.0375189 0.0185916 -0.0328668 -0.0102689 -0.0363632 -0.0555698 -0.0577476 -0.00519938 0.0267658 -0.0260499 -0.0457275 -0.0625178 0.0166949 0.0226636 0.0172833 -0.0538203 0.00715648 0.0494227 -0.037202 0.00946084 0.0596454 -0.0733336 0.0736239 -0.0320481 0.0163063 0.0289119 -0.0356515 -0.0270348 0.0328729 -0.0221818 -0.00382901 -0.0107304 -0.0750438 0.0248322 -0.0452555 0.0118804 -0.0519691 -0.0386907 0.00584733 0.0638911 -0.0068665 0.0657473 0.00862039 0.00109795 -0.0512703 0.0151411 0.0126894 0.0431012 -0.058375 -0.00408947 -0.00270285 0.0228611 0.014641 0.00662465 0.0719067 -0.0506303 0.0391225 0.0435704 0.0657852 -0.0258015 0.0037188 -0.0192476 -0.0752352 -0.00932216 -0.0279485 0.0634483 0.0482921 0.0499135 0.0439977 -0.0730545 -0.0514108 0.0684149 -0.00903919 0.0500494 0.0334869 -0.00995119 0.051084 0.00425985 -0.0258918 -0.0752546 0.038395 -0.0695015 0.0476257 0.0103651 -0.0345205 -0.0424452 -0.0183765 -0.0347529 -0.038233 -0.0207644 0.0658587 -0.0547318 0.0524938 0.0340822 -0.0199156 -0.0604842 0.0740366 0.00196029 0.0690175 -0.0750631 0.0289904 0.0532393 -0.0719971 0.0701331 -0.0147729 0.0477894 0.0519013 -0.0610296 -0.0713258 -0.0384784 0.00509825 -0.073868 0.0297892 -0.0378341 -0.0659097 0.0123163 -0.0145887 0.0498198 0.0347426 -0.0622083 0.0413356 -0.0697005 0.0158856 0.0222105 0.0283747 0.0178554 -0.040079 -0.0389499 0.0146983 -0.0631579 0.0704063 -0.010271 0.0291169 -0.0504506 0.0229596 -0.0289096 0.061871 0.0546165 0.0333459 0.0508292 0.0675025 0.0246724 0.0689581 -0.0625777 0.0328596 0.0458812 0.028485 -0.0429386 0.0492578 0.0460583 -0.0429729 -0.0030115 0.0700302 -0.0386059 0.0430884 -0.0356253 -0.0187161 -0.00915901 0.0712554 -0.026977 -0.0451725 0.0737281 0.0159992 -0.00272493 -0.0699569 0.0373789 0.0426495 0.0745192 -0.0748158 -0.0289932 -0.0475074 -0.0211715 -0.0520934 -0.0310888 0.0119046 -0.0752147 0.00311393 0.028374 -0.0287523 0.00253338 -0.0270156 -0.0238071 0.0384063 -0.0311018 -0.0599204 0.0616599 -0.00350716 0.0138282 -0.0341484 -0.0379708 -0.0719122 0.0737541 0.0548412 0.0540373 0.0709082 -0.0206892 0.0295642 0.0612007 -0.0489489 -0.0721745 0.00922091 -0.0569882 -0.00497132 0.035802 0.0607378 0.0607137 -0.0493999 -0.0350618 -0.068401 -0.0444663 -0.0196957 -0.0631795 -0.0243544 -0.0671826 -0.0336184 0.0116455 -0.0158723 0.0596499 0.00193049 0.0377355 -0.0208284 0.00790172 0.0485357 0.0634013 0.00417075 0.0493878 0.0198301 0.00287993 0.019742 -0.0615711 0.0236635 0.0569697 0.0290874 0.0161062 0.0442204 -0.0618124 -0.0646668 0.0166891 -0.0132155 -0.0129791 -0.032278 -0.0602513 -0.0069609 -0.0655395 -0.0474492 -0.021631 -0.0267396 0.00356267 -0.0477271 0.0592139 
-0.0655965 -0.0313733 -0.051866 -0.0246948 0.00640442 0.0679655 -0.0190738 -0.0129228 0.0318949 -0.0647537 0.0703644 -0.0219021 0.0076922 0.0293832 -0.0432458 -0.036961 -0.0401427 -0.0338984 0.0474214 0.0142944 0.0609504 0.0262934 0.0615157 0.0520298 0.0699859 -0.0368491 0.000993276 -0.0159486 -0.027929 -0.0378366 -0.0540463 -0.0265158 0.0452701 -0.0263882 0.0677888 -0.0163845 -0.0711642 -0.0431023 0.0622779 -0.0185312 0.0546665 -0.0301362 0.0259613 0.056385 0.041947 0.0745802 0.0695231 -0.0282237 0.0194298 0.00419281 0.0256635 0.0522252 -0.0523797 0.00958419 -0.0107397 0.00620145 -0.00352649 -0.0645959 0.0659658 -0.0327798 -0.0682203 0.0388314 -0.00760945 -0.0574673 -0.00887362 0.00394249 -0.0187145 0.00571689 -8.06737e-05 0.0324547 -0.0703863 -0.0709145 0.0698258 -0.0758047 -0.0104374 0.0515745 -0.0602331 0.0412359 -0.0230618 -0.0110797 0.0568365 0.0654962 -0.0151931 0.026437 -0.0353415 0.0586091 0.0732518 0.0100698 -0.0529591 0.0404777 -0.0058262 0.0637899 0.071989 -0.0285413 0.0137233 -0.0298517 0.00408221 0.0383465 -0.0594825 0.0401608 0.0517993 -0.0539735 0.0213447 0.0705358 -0.00530378 0.0759554 0.0465978 0.0288766 -0.0559855 -0.0323797 -0.0460206 0.0453306 -0.0398463 0.026278 0.0623092 0.0195891 -0.0756449 0.0118942 -0.0052172 -0.0418462 -0.0201735 0.0339218 0.0533706 -0.0375308 -0.00520611 -0.0181202 0.0336788 0.0549262 0.0642024 0.0520709 0.00738131 0.0470777 -0.0345751 0.0527138 0.0380344 -0.0463823 -0.0434578 0.0372044 -0.0691982 0.0142458 0.000646379 0.00413411 0.00431312 -0.0348215 0.0747199 -0.00310626 -0.0626077 -0.061934 0.0435972 -0.0245859 -0.0318265 0.0468904 -0.000555714 0.0217693 0.0331259 0.0569712 0.0562954 -0.0727859 -0.052479 0.00225502 -0.064487 0.0726442 0.060714 -0.0600418 -0.0362807 0.0143203 0.0203633 -0.0353389 0.0616124 0.0757991 -0.0471485 0.0138281 -0.0238037 0.0514814 0.0396715 0.0125992 -0.0471789 0.0200879 -0.0471675 -0.0623631 0.00825417 0.027548 0.070458 0.0104719 -0.00439623 0.0509973 -0.0714113 -0.0352891 -0.0136995 -0.0615207 -0.0290323 -0.050889 0.0663377 0.0545107 -0.0747023 -0.0525714 0.0613775 0.0162453 -0.0118245 0.0528563 0.0624174 -0.0667586 -0.0586194 0.0458222 -0.0585677 -0.0406135 -0.0176937 -0.000164377 -0.0335658 0.029404 -0.0111883 -0.033203 -0.00369973 0.0184345 -0.00828389 0.0307427 0.0256119 -0.022894 -0.0707051 -0.0185245 -0.0637777 0.0308947 -0.0163635 0.0522381 -0.0184798 0.0570846 0.0132354 0.0388457 0.0205375 -0.0611373 -0.0152906 0.0675568 0.00267367 0.0350983 -0.0666362 0.035408 0.0478374 -0.017635 -0.0451007 -0.0503281 0.00798706 0.0651543 0.0169938 0.0124924 0.00542854 -0.0219853 0.029796 0.0703423 0.00877506 0.0286148 0.0758293 0.0707327 -0.00977035 -0.0570039 -0.0623437 -0.0132422 
-0.0509339 0.0480824 0.021693 -0.02851 -0.0708364 -0.0311697 0.0537421 0.0226711 -0.0426498 -0.0634829 0.0531754 0.00451094 -0.0207133 0.0360147 -0.0468018 -0.0594457 -0.0614624 -0.0602825 0.0447948 -0.0293439 0.0224931 0.0563519 0.00982544 0.0186402 0.0136056 0.0101999 -0.00809641 0.0345317 -0.0112644 0.0096832 -0.027972 0.0505361 0.00692296 -0.0124269 -0.0631356 0.00767307 -0.0704747 0.0504787 0.049044 -0.0716758 0.0459982 -0.0302965 -0.0448431 0.0217657 -0.0105076 -0.0650405 0.0479553 0.0207206 -0.070362 -0.059558 -0.0699818 -0.00754483 -0.0643628 -0.0214058 0.0538207 -0.0197335 0.0062318 0.0222726 0.0534462 -0.0175672 0.0453851 -0.0230474 -0.0321222 -0.0361978 -0.0629233 -0.0554932 -0.0207949 0.018333 -0.0429856 0.000255731 0.0464167 -0.0251771 0.0146833 -0.0603575 0.00820419 0.0240095 -0.0325198 0.0403833 0.0192356 -0.0223087 0.0113647 0.0743511 0.0161098 0.0610124 -0.00289639 0.0661835 0.00778982 -0.052195 0.0377669 0.0288568 -0.000830579 -0.0455868 0.0129366 0.02444 -0.0567225 -0.0574967 0.00150766 0.0340174 0.0110645 -0.0534079 0.0191735 0.0107614 -0.0481076 -0.033743 0.0535693 0.000937893 0.00345955 0.0247413 -0.0285547 -0.0202598 -0.0709869 0.0543611 0.026002 0.0519477 -0.00798517 0.0738399 -0.0119372 0.0217745 0.00384402 0.038989 0.0150196 -0.0712951 0.0138632 0.00891145 0.0722184 0.0508724 -0.0267438 0.00417701 -0.0596634 -0.0538316 -0.0508288 0.0322156 0.0022599 0.0598612 -0.0643253 -0.00568921 0.0725617 0.0172768 -0.0619632 0.0475465 -0.00467056 -0.0472263 0.0183569 0.0325462 -0.0306742 0.0126315 -0.0619153 0.0557712 0.0576381 -0.000580851 -0.0572671 0.0336116 0.0547256 -0.0319043 -0.0642176 0.0617753 0.0409163 0.0735453 -0.0077381 0.0128434 0.0140089 -0.00254322 -0.0117141 0.035792 -0.0726418 -0.0628234 -0.00575177 0.0535209 0.0217797 -0.0339078 -0.047066 -0.0644593 0.0547506 0.0755903 0.0747654 0.0434504 0.0726044 -0.0479679 -0.0709293 -0.0447443 -0.0530935 0.074372 0.0749865 -0.00625802 -0.0369618 -0.028343 0.0587454 0.0035495 -0.00755614 -0.0729081 -0.00270909 0.0642464 0.0729353 -0.0639095 0.0564565 -0.0718813 -0.0735271 -0.0205856 -0.0195967 0.0129278 0.0405375 -0.0677648 -0.0126381 -0.0125849 0.0186814 -0.0494359 -0.0476075 -0.0166504 0.00600244 0.0736553 -0.0100406 -0.0324556 0.0603676 0.000586375 -0.00940317 -0.0484779 -0.0393625 -0.020809 0.000680666 -0.00465185 0.0744635 -0.0150312 -0.0651751 -0.0223454 -0.070842 0.039296 -0.0152246 -0.0101062 0.065621 -0.0231133 0.0724105 -0.0426658 0.0220991 -0.0224464 0.0693308 0.0615229 -0.000331114 -0.0233433 0.060574 -0.0690446 -0.0423784 -0.000543925 -0.0614714 0.0471105 0.0498269 -0.0578083 -0.0393965 0.0473127 0.0703653 0.0355261 0.0424196 -0.00194239 -0.00932381 0.0576405 0.0463995 -0.0305207 
