-0.0680586 0.0566679 -0.0353893 -0.0671041 -0.0550835 0.022296 -0.0672858 -0.0641641 0.0453929 0.000657824 0.0103157 -0.00602189 0.049806 -0.0539758 -0.0345982 0.0655168 0.0552929 0.0188377 0.0567841 -0.0377487 0.0251838 -0.0197239 -0.004067 0.0449863 0.011481 0.063658 0.0552599 0.0309461 -0.00731823 0.0142824 -0.0606064 0.0665381 -0.012449 -0.0546018 0.0518394 0.00220018 -0.0327412 0.00946628 0.0365408 0.013614 -0.0663034 0.0611564 -0.0547567 0.0670869 0.0494512 0.021099 -0.0135011 -0.0408896 -0.0126422 -0.0758053 -0.0728732 -0.0196042 -0.0378184 0.046563 -0.0233367 -0.0178532 0.058165 -0.0452137 -0.0211816 7.91901e-05 0.0552576 -0.0298057 0.016597 0.00356198 -0.0104804 0.0278365 -0.0319647 -0.0204104 0.0187413 -0.0166212 0.0691383 -0.00533189 0.0169658 -0.0680154 -0.0578052 -0.020629 -0.0725309 -0.0215041 0.0480087 0.061395 0.0529136 -0.0594538 -0.0143417 -0.0116106 -0.0525351 0.0472778 -0.00391404 0.0583628 0.016891 -0.00392672 0.02633 -0.0720572 0.0694125 0.0326784 -0.0645095 0.00414228 0.0218474 0.0539691 -0.0249793 0.020471 -0.0271064 -0.0734843 -0.0180262 -0.0629312 -0.028046 0.0455917 0.0125538 -0.0548355 -0.0295723 0.0434845 0.0189092 0.0665746 -0.0355898 -0.0616689 -0.0394378 -0.034296 0.0367281 -0.0222325 -0.00968265 -0.0129877 -0.0191525 -0.0319202 -0.0729074 -0.027065 0.0188862 0.00663917 -0.0512155 0.0094485 0.0460578 0.00144115 0.0263983 -0.0367275 -0.0674391 -0.030055 -0.0586238 0.0634729 0.054192 0.0076049 0.0135882 0.0211566 -0.0119126 0.0203334 -0.000115465 0.0213965 0.061578 -0.0368989 -0.0117008 -0.057135 -0.0607613 0.0543302 0.000374948 0.00080816 -0.0380962 -0.0594743 -0.0425185 0.0595412 0.0292592 0.0395941 0.0437644 0.0116771 -0.0536788 -0.0740922 0.0287164 0.0259853 -0.0139516 -0.0115919 0.0395984 -0.0268009 -0.0358738 0.011206 0.050158 0.020043 0.0381688 0.02434 0.0388737 -0.0225239 0.0436782 0.068699 -0.0384683 -0.0407067 -0.0549598 0.0605682 0.0602985 0.0283966 0.0741988 -0.0252439 -0.0373064 -0.00609428 -0.0720544 -0.0394851 -0.0557791 0.00364214 0.00838681 -0.0274136 -0.0157115 0.0642552 0.0618429 -0.00252811 0.0358891 0.0457446 0.00594004 -0.0233038 0.0653969 0.0350959 -0.0216434 0.048463 -0.0542949 -0.0118775 -0.0621038 0.0675967 0.0429969 -0.0634139 0.0485232 0.0461805 0.0337028 0.0748607 0.0408587 -0.0143679 -0.0508484 -0.00383458 -0.0101039 0.0585795 -0.0287938 -0.0124263 -0.0670727 0.0199973 0.0434682 0.0660912 -0.0740212 -0.0733604 -0.00868581 -0.0586026 0.0756877 -0.0530222 -0.0724722 -0.0458436 0.0226254 0.0208667 -0.0126006 0.0545237 -0.0466649 0.0179119 0.0584029 0.0119743 -0.0317351 -0.0269755 -0.0289791 0.0475482 -0.0287806 -0.00164766 -0.00509721 -0.0106387 -0.0160045 -0.0240745 -0.0122056 0.0171908 
0.000351583 -0.0322924 -0.054986 -0.0367332 -0.00239561 0.00132728 -0.0685444 0.00775277 0.064229 0.00854131 -0.00172517 -0.046245 0.0696435 0.0511305 -0.0583319 0.0131844 -0.0256069 -0.0299162 -0.0510286 0.00332575 0.072828 0.0185803 -0.0135457 0.0609423 -0.00469348 -0.0671109 -0.0124353 -0.0261766 -0.0312145 -0.0318614 0.0275413 -0.058088 -0.0431653 0.0325841 0.0709874 -0.00280084 0.00732092 -0.0337025 -0.0709883 -0.0539305 0.0608082 -0.0246345 0.00942087 0.0368381 0.0331838 0.0522113 0.0651332 0.0225905 0.0507331 0.0758971 -0.0498723 0.0614355 0.0175199 -0.0355383 -0.0302211 0.0409325 0.053096 -0.0533955 0.073117 0.0481797 0.0156844 -0.00136434 -0.0448017 0.0434015 -0.0445658 0.0287236 0.00702865 -0.066918 0.0519474 0.00692464 -0.0333961 -0.0123191 -0.0499237 -0.0727568 0.0157519 0.0342344 -0.0238521 0.0628198 0.0690106 0.0355897 0.048006 -0.000367521 -0.0167188 0.0246348 -0.0401154 0.0735672 0.067167 0.0724224 0.059373 0.0341679 -0.0526313 -0.00815345 0.0498542 0.00466798 0.043948 0.0152301 0.022809 -0.0123462 -0.00989165 0.0167758 -0.013154 -0.0626482 0.0416128 -0.0170313 0.0448386 -0.0686741 -0.0312921 -0.0741255 -0.028339 0.0434181 -0.0548897 0.0750522 0.0493445 0.0488247 0.000585077 0.052011 -0.0570608 -0.0172311 0.0424179 -0.0214532 -0.0472355 0.0251561 0.0748697 -0.0708615 0.0267896 0.0469423 -0.0599562 -0.0471819 0.0718922 -0.0269851 -0.0181914 -0.054268 0.0062715 -0.0742342 0.0468739 -0.014714 0.0356878 -0.07475 0.0405443 0.0331994 -0.0274194 0.0593222 0.00641903 0.000727335 -0.0226186 -0.00513366 -0.0105209 0.0276334 0.0577715 -0.0362394 0.0324243 -0.0318632 -0.0138596 0.0753919 0.00169398 0.0244836 -0.0241458 -0.00422122 0.0381996 -0.0582974 -0.00670964 0.0403361 0.0186881 0.00987456 0.0480642 -0.0467405 -0.0707638 -0.00788432 -0.0706281 -0.0136213 -0.0225927 -0.0306007 -0.00517194 -0.031382 0.0186923 -0.0195983 0.0452928 -0.00147444 0.0623384 -0.0554236 0.0271533 -0.0184296 -0.0157794 0.0594979 -0.0326005 -0.0618929 0.01203 -0.0211067 0.0625093 -0.053814 -0.0532182 0.0642132 0.0716535 0.0603115 0.0663897 -0.0281464 0.0366254 0.00996282 -0.00060389 0.0455504 0.0498598 -0.0372194 -0.0545315 0.019864 -0.0690306 -0.0536629 -0.0398585 -0.0712721 0.033608 -0.0249729 -0.0163638 -0.0276915 0.0744013 0.0186157 0.0514429 -0.0704859 0.0528893 -0.0424644 0.0465562 -0.0757612 0.0447495 -0.0737037 -0.0381501 -0.0382514 0.00264614 -0.0308322 -0.0502045 0.0655706 0.0402984 -0.0753907 0.0261388 -0.0383811 0.0748792 -0.0475942 0.0383625 -0.0658055 -0.0197499 -0.0550004 -0.0146248 0.0567975 -0.0366729 0.070513 -0.0118107 0.0412977 -0.0691689 -0.0270847 0.0229925 -0.0154614 0.068521 0.0190649 -0.0492648 -0.0321059 -0.0505779 0.0368191 -0.0455003 0.0740311 
-0.0399018 -0.00535199 0.0508531 -0.00681132 -0.0605407 0.0123784 0.00716689 -0.0653243 -0.0411773 0.00970307 -0.0393398 0.0305298 0.0130584 0.00239707 0.0579407 -0.00601284 -0.0578831 -0.0719747 0.045123 0.0465264 0.00804786 0.0558939 -0.00893709 0.0331427 0.037861 0.0653598 -0.0272439 0.00672015 -0.0260061 0.0515067 -0.0749375 -0.00129745 -0.0674825 -0.0155744 -0.0610527 -0.0439567 -0.074957 -0.0581938 0.00270496 -0.0463304 -0.0466772 0.0604796 -0.0742759 -0.0731174 0.0263076 0.0345029 -0.00984928 0.0423501 0.0256229 -0.0340615 -0.0430918 0.00255984 -0.00819175 -0.0406326 0.0743038 0.0268725 -0.0662138 0.0192658 0.0509126 0.0699592 0.0558232 -0.0675488 -0.0647051 0.0608872 -0.0234667 -0.0563968 -0.0238228 -0.0184878 -0.0684397 0.0191655 0.0331001 0.038312 -0.0673346 0.00566637 -0.0720214 0.0163672 -0.0440536 -0.0709469 0.0261667 -0.0682268 0.0353865 -0.0727078 0.0256493 0.0134334 -0.0737251 0.00872053 0.0599589 0.0436129 -0.0303219 -0.0705668 -0.0274903 -0.0307351 0.0313418 -0.0566109 0.0753848 -0.0376345 0.0226795 0.0084881 -0.0313604 -0.0642879 -0.0386115 -0.0448147 0.0356898 0.0596079 -0.0719938 -0.008952 -0.0355002 0.0296588 0.0537341 0.0338359 -0.0309376 0.058308 -0.0196694 -0.0705856 -0.0217594 0.0530793 0.0745074 -0.00882179 0.0271103 0.0500584 -0.0430966 0.0538657 0.0167826 -0.0202047 -0.032244 -0.0436494 -0.0470966 -0.0214068 -0.072917 -0.0373516 -0.00577019 0.0594537 -0.00965006 -0.0118652 0.011343 0.0597697 0.0575701 -0.0583736 0.0282465 -0.0754723 -0.0225608 -0.0605811 0.00934169 0.0598856 -0.0416509 -0.0410341 0.0174447 -0.0360891 -0.0364328 -0.0168588 -0.0282007 -0.0477335 -0.0523201 0.023572 -0.0320449 0.0603948 0.00915224 0.0390677 -0.0628866 0.00151522 0.0122316 0.00270411 0.0349002 -0.0400676 -0.0151772 0.00758781 0.0299791 -0.0213686 0.0743553 -0.0439238 0.0332438 -0.028895 0.00713684 -0.00302938 -0.00938652 -0.0232745 -0.047984 0.015145 -0.0192937 -0.0730542 -0.0275586 -0.0584079 0.0298001 -0.0620968 0.0518926 -0.0508111 -0.0361054 -0.0175653 -0.026953 0.0317717 0.0630288 -0.0743335 0.069659 -0.0745913 0.0441364 0.0522006 0.0617127 -0.0674509 0.0245125 -0.0629931 -0.0510473 0.0104956 -0.0567917 0.051593 0.0685344 0.0702035 -0.0378371 0.0639013 0.0576427 -0.0441068 0.0161007 0.0231334 -0.000230681 0.0700234 0.0470483 -0.043448 0.0712821 -0.0134573 0.0365276 0.0111243 -0.0049103 0.0186841 -0.0739828 0.02818 0.0198429 0.0361753 -0.0643688 -0.0596257 0.00551102 0.0630179 0.0710339 0.0105185 0.0183706 0.00573234 -0.00465844 0.0276995 -0.00227186 0.0250683 -0.03234 -0.0544511 -0.0233313 0.00078086 -0.0556827 -0.0247607 -0.0519389 0.000767113 -0.0575235 0.0257348 -0.0441962 -0.0147186 -0.0433963 0.0712145 0.0526253 -0.0270067 -0.018246 0.0210912 
0.0579164 -0.0457649 0.0380144 0.0734923 -0.0560631 -0.00232907 -0.0486718 0.0637893 0.0412171 0.0519805 0.0377015 -0.0606799 0.0440516 0.00948351 -0.0520217 -0.0139267 -0.055795 0.0425464 0.0561696 -0.00968087 -0.00670717 -0.0543201 0.0143615 -0.0363776 -0.0597185 0.0428003 0.0411282 -0.0618229 0.039048 0.01471 0.0429107 0.0499779 -0.0127903 -0.00320683 -0.0244918 0.0209599 -0.0476744 0.00506947 -0.043083 0.0306771 0.0125353 0.0258953 0.0269633 0.0195708 0.0347091 -0.0411363 -0.0192892 -0.06321 0.0674107 -0.00473039 0.0112237 -0.03029 0.024193 -0.0181281 -0.0410546 0.027506 0.0333678 -0.0434923 0.0633911 -0.0343089 0.034639 -0.0292183 0.0177096 0.056908 0.0593702 0.0610764 0.0319979 0.00585161 0.0155684 0.068398 0.0725729 0.00589058 0.0493895 -0.0102773 0.0414177 -0.045572 0.0606549 -0.0605463 0.0303161 -0.00644164 0.00754511 0.0562884 0.0454413 -0.0016502 0.0474115 -0.0381146 0.0757999 0.009538 0.0687144 -0.0247256 -0.0602643 -0.0287334 0.074522 -0.0215451 0.0698499 0.0165824 0.00785212 0.0619087 -0.0506497 0.0611011 -0.0535578 0.0339615 0.0274502 0.0308141 -0.0129445 -0.0154412 -0.0347981 0.039188 0.000762937 0.0341508 0.0110304 -0.0239626 -0.00874186 -0.0700064 0.0628189 0.0755096 -0.0596015 -0.0531374 -0.0718673 0.0388152 -0.0469661 -0.0158597 0.0736415 0.0300187 -0.0153536 -0.0615937 0.00668061 -0.0633515 -0.0744488 -0.0486552 0.0624891 -0.0316881 0.0187846 0.0594897 0.0317974 0.0259854 0.0641177 -0.00141251 0.0115222 0.0371648 -0.0115963 -0.0173501 0.0357093 0.0314983 0.0515006 0.0641849 -0.066467 -0.0159632 0.00897502 0.0216133 0.0575173 0.0248074 0.0218285 0.0363451 0.0359181 0.0390694 -0.0545463 0.0231096 0.0352202 0.0132804 0.0691315 0.0690141 0.0699663 0.0132776 -0.0162364 0.0105957 0.0356947 0.0704372 -0.0613561 -0.00275959 -0.0175425 -0.0239507 -0.00306502 0.0419722 0.00607941 0.0550878 -0.0757048 0.0610636 -0.0381698 0.03891 -0.014014 -0.0130434 0.00881097 0.0112599 0.0579714 0.0110698 -0.0459477 -0.000122015 0.0273624 0.0115937 0.0558407 0.00630694 0.0370768 -0.00329686 -0.0113595 0.0202082 -0.068666 0.0252493 -0.0714968 -0.0483914 0.000689231 0.0496013 0.0503093 -0.0524795 0.0290956 0.0750798 -0.045387 0.0413979 -0.00383857 0.0147186 -0.023154 -0.0565763 0.0205856 0.0198229 0.0281191 0.0355598 -0.0627588 0.0245244 -0.0515347 0.0242956 0.075327 -0.0338841 -0.0571382 -0.0146447 0.0223758 0.0570616 -0.0162523 0.0565193 0.0167541 0.0744442 0.0154422 0.0339836 0.0481912 0.0372708 0.0252413 -0.0701924 -0.0650176 0.0119427 0.0706201 0.0714076 -0.0393298 -0.039928 -0.0665805 0.0689748 0.0340419 -0.0448257 0.0706468 0.0677116 -0.0491885 0.0545568 0.0372389 0.0290926 -0.00396546 0.0038018 -0.056445 0.0719195 
0.0586382 0.059179 -0.00646273 -0.0184581 0.00326618 0.0629688 0.0216528 -0.0650267 0.021861 -0.0547927 0.0530248 -0.0296869 0.0284343 0.0693617 -0.012387 0.0646566 0.0275923 -0.027168 -0.0332645 0.0114481 -0.00488066 -0.00213624 0.0516964 0.0126646 -0.0102584 0.0568773 0.0181465 -4.90203e-05 0.0530248 0.0465933 0.0489257 -0.0676083 -0.0528934 0.00895706 0.063202 -0.0661463 -0.0075164 0.036541 0.0311673 0.0755907 0.0246437 -0.0248889 -0.0357549 -0.00817153 0.00846488 0.0508131 0.0322907 -0.0192785 -0.0639769 0.0719915 -0.0641938 -0.00908464 0.0425691 -0.0314855 -0.0473079 -0.00898528 0.00936298 -0.0236586 0.055066 0.0297159 -0.00636717 -0.0317952 -0.0416001 -0.07042 -0.0496924 -0.0409487 -0.00648063 0.0207281 -0.0724777 -0.0405444 -0.0264408 0.0202424 0.0172407 -0.0130406 -0.0564382 0.0495787 0.0604235 -0.0509484 -0.0197872 -0.00717854 -0.065032 -0.0114272 0.0681684 -0.0309353 0.0426953 0.0363128 -0.0555523 -0.013602 -0.0281123 0.0594392 0.0757372 -0.0738253 0.0101419 0.071778 0.0301763 0.0580936 -0.0722512 -0.0141256 0.0491117 0.055924 0.0568351 0.00656158 -0.00173662 0.0753645 0.0208117 -0.0666071 -0.0406237 0.0553637 0.0386008 0.0238176 -0.0469052 0.0645842 0.0100555 0.00279189 -0.0201506 0.0084373 0.0173628 0.00905821 0.0204786 0.0157438 0.0436134 0.0123108 -0.0451571 0.0492839 0.025922 0.0697391 -0.00119293 -0.000989138 -0.0453066 0.0614463 -0.0352719 -0.0654452 0.00877207 -0.0457325 -0.00946457 0.0252376 -0.06574 0.00362908 0.0203509 -0.0705676 -0.00203055 -0.0726465 0.0709602 0.0524787 0.0733247 -0.00754365 0.0325361 0.0682532 0.0411376 -0.0448025 -0.057712 0.0723274 0.0731997 -0.047246 -0.057988 -0.04683 0.0413532 0.0580056 0.0301778 -0.0452409 0.0452201 -0.0129246 0.0754674 -0.0346139 -0.0190814 -0.0712306 -0.00529891 0.072624 0.0171826 0.018119 -0.0278317 0.0651229 -0.053256 -0.0665883 0.0468406 -0.0448188 -0.00375394 -0.0375046 0.0141537 -0.0619814 -0.0755756 -0.00882392 -0.0151461 -0.0587282 0.072004 0.00715113 -0.0396394 0.00415132 -0.0559762 -0.0729542 -0.0206598 -0.0457325 0.00904747 0.0117253 -0.00253666 -0.0267243 -0.0224835 0.037181 -0.00641182 0.0125055 0.00806529 0.0412412 0.0233418 0.0728398 -0.0360394 -0.0105735 -0.0232645 -0.0100864 -0.0603751 0.016966 -0.0638138 -0.0320519 0.0324605 -0.0308958 0.00588051 -0.0688747 -0.0642329 0.0593758 0.0360812 0.0138573 0.0480174 -0.00252649 0.0117204 -0.043244 -0.0692697 -0.0759216 -0.0185332 0.0392159 -0.0651681 0.0557097 0.0754343 -0.00799804 -0.0469363 -0.0682404 0.0130877 -0.0369887 -0.0503356 -0.0303287 -0.0671146 0.0665836 0.0637383 0.0281894 0.0719881 -0.0701853 0.00632478 -0.00810097 -0.0143948 -0.0287378 0.0399683 -0.0148273 0.0339972 -0.00917529 -0.0131145 0.0509286 -0.0567304 0.0436879 
-0.0543833 0.00740433 -0.0200232 0.0378194 -0.0736413 0.0440588 0.0519649 0.0275733 0.0024419 -0.0144836 -0.025956 -0.0160843 0.0334361 -0.0370569 0.0591479 -0.0194006 0.0197231 0.0258973 0.0602913 -0.0332746 -0.0548985 0.0569351 -0.0182173 0.0127225 0.03577 -0.0207852 -0.0578886 -0.000330471 0.000294588 -0.00562446 -0.0691372 -0.0605411 -0.0570579 -0.00817934 -0.052122 0.0172069 -0.0164644 0.0271629 0.0441203 0.0338433 -0.0699974 0.0628552 0.00242278 0.0156403 0.0506457 -0.0127809 0.0251368 -0.0482456 -0.0456577 -0.0311624 -0.0522899 0.0721243 0.0194405 -0.0251163 -0.00883425 0.0629227 -0.0310188 -0.0660147 -0.0534294 0.0738664 -0.047758 0.0523197 0.00161118 0.0348925 0.0404082 0.0685472 0.0701921 -0.0477846 -0.054223 0.0740822 0.0553302 -0.0484308 -0.0155596 0.0199526 0.070888 -0.0201184 -0.0135403 0.00346022 -0.000750193 -0.0532003 -0.0672602 -0.0431705 0.0130138 -0.0380456 -0.073114 0.0684687 -0.0533454 0.052694 -0.0249947 0.0452365 -0.0608712 0.0182675 0.00904284 0.0259851 0.0325664 -0.0084763 0.0130758 -0.0371783 0.0268352 -0.0508146 -0.035501 -0.0569439 0.0175101 -0.0462147 -0.0653122 -0.0327623 -0.0367736 -0.0219505 0.0131379 0.0326762 0.0366924 -0.044732 -0.0573636 -0.0219197 0.0424109 -0.0541078 0.0464589 0.00492297 -0.00506987 0.0592825 0.0581735 0.0578309 0.0424566 -0.0151563 -0.0167099 -0.057141 -0.0515964 0.0563867 0.0260878 -0.0284933 -0.00413013 0.021443 0.0470126 -0.0375087 0.0583118 -0.0135393 -0.0568736 -0.0554963 0.0292421 0.0731215 -0.0411383 0.0409087 0.00638685 -0.0515545 0.0134003 0.0345503 -0.00475381 -0.0757943 -0.0392165 -0.0229767 -0.0125494 -0.0643412 0.00269373 -0.0560159 -0.018897 -0.0608661 -0.0474819 -0.0643704 0.0439459 -0.00633941 0.048513 0.0205842 0.00138186 -0.0621663 -0.0654453 -0.0291483 0.0388676 0.018972 0.0599305 -0.0596124 0.0116027 0.0600731 -0.0739809 -0.00765448 -0.0667738 -0.0234403 -0.0196839 -0.00919104 -0.056973 -0.0587232 0.00554553 -0.0377526 -0.00946997 -0.0435265 -0.0727215 -0.0341286 0.0112764 0.0190313 -0.0265177 0.0412433 0.0154984 -0.0620226 -0.0153504 0.00374397 -0.0571111 0.0424637 0.0467131 -0.00463541 0.0658861 -0.0633005 0.041206 -0.0352329 -0.00522252 -0.0467628 -0.0226031 0.0666397 0.0264704 0.0187994 -0.0152411 -0.0389331 -0.0139194 -0.0418005 0.0274941 -0.0205915 -0.0593288 -0.0525974 -0.0236198 0.0467936 0.0513751 0.0681085 -0.0469269 0.0131166 0.010045 0.0467322 -0.024197 0.0156228 0.0396478 -0.0423601 0.0284969 0.0113224 -0.00837824 -0.00949766 -0.0399226 0.0205524 -0.0211273 0.023822 0.0134265 -0.0642822 -0.0337966 -0.01911 -0.0169831 -0.0691906 -0.0145866 0.05809 0.0319356 -0.066786 0.0674048 0.0615064 0.0289787 -0.00773594 0.0254104 0.0414178 -0.0472944 -0.0626648 0.0149782 0.00272405 
-0.0171727 -0.0411987 0.0611829 -0.0449809 0.0194724 0.0560482 -0.0116886 -0.0319715 0.0514382 -0.0188551 0.0426139 -0.0162175 -0.0497706 -0.0347237 0.0249872 -0.0650866 0.061152 0.0102373 -0.064511 0.0176763 -0.0640293 0.0388015 -0.0389965 -0.00741205 0.0236104 -0.0242499 -0.0652488 -0.0347549 -0.0067217 0.0156573 0.0277514 -0.0214729 -0.0278329 0.0705908 0.0619344 -0.0357132 -0.0678842 0.0269159 0.0272458 -0.0172013 -0.0200417 0.00705938 0.0107613 -0.0195315 0.0274917 0.0554149 0.0248291 -0.0748645 -0.00481188 0.0263636 0.0378745 0.00208565 -0.0529971 0.0279443 -0.0104494 0.0250076 -0.0697182 -0.00792454 0.0490857 0.0473393 -0.0716096 -0.0544725 -0.0388367 0.00538023 -0.055389 0.059385 -0.0148891 0.0530522 0.057423 0.00869274 0.00511392 -0.0271423 0.0399059 -0.00604794 -0.0723281 0.0235275 -0.0710449 0.0554211 -0.0170425 0.00968806 0.0544671 0.0217067 0.0277842 0.0715472 -0.0736389 -0.00802871 0.0166563 0.0200363 -0.00258948 0.0124578 0.00266747 -0.0504679 0.0246182 0.0643326 0.0245538 0.00156681 0.0596798 0.0156602 0.0276001 0.0349552 -0.0753851 -0.0292997 0.021574 0.0384974 0.0188291 -0.055847 0.0672413 -0.0111141 0.0565322 0.0165717 -0.0515053 0.0581148 -0.0380115 0.063865 0.0690027 -0.0413374 0.0654101 -0.0360287 0.0286861 0.0226414 -0.0486426 -0.017521 -0.029063 -0.0420602 -0.0405265 -0.00847623 0.0280641 -0.0553243 -0.0026083 -0.0301548 -0.0342102 -0.0153233 -0.0406465 0.0193911 -0.0389228 0.00790981 0.0738458 0.0183177 -0.021577 0.0369137 -0.062392 -0.0423624 0.0579164 -0.0433811 0.0729608 -0.0322201 -0.0211736 0.00926051 0.0364595 -0.00405421 0.0486598 0.0151591 0.026509 -0.0340355 0.0109116 0.051016 -0.0610989 0.00531113 0.0625172 -0.0670552 0.0364472 0.00857094 0.016347 0.0661769 -0.0236121 -0.0497768 -0.0432232 -0.0658079 -0.0308591 -0.0470429 0.0251835 0.0661459 0.0594966 -0.035588 -0.0667311 0.0634203 0.0109928 -0.0146646 -0.0231972 0.00133572 0.0415474 -0.0603149 0.0218341 0.0464156 -0.00195331 0.0439087 -0.0725216 -0.0733774 -0.0464581 0.00269373 0.0156402 0.062165 0.0327016 0.0310996 0.0379682 0.0113176 -0.0143856 -0.0582246 -0.0507166 0.0347697 -0.0230127 0.0165746 -0.0504985 -0.0285138 0.0225121 0.0179681 0.0159358 0.0060619 0.0372935 -0.0279245 0.036278 -0.0264216 0.0613362 0.0244927 0.0101499 0.0726203 0.0374085 -0.0475726 0.00911275 0.0377757 -0.05686 0.0067761 0.0558609 0.0187973 -0.0629725 -0.064941 0.0661916 0.0431779 0.0661 0.039383 0.0304265 -0.0707059 0.0107962 0.017726 -0.0532884 -0.0331997 0.0424441 -0.0283184 0.00961059 -0.0430194 0.00757215 0.0747349 0.0526227 0.0178616 0.0720516 -0.0270237 0.0154716 0.0214908 -0.0333663 -0.0073812 -0.0325771 -0.00316793 0.0668903 -0.0499111 0.0753684 0.0467347 
0.074576 -0.0407883 0.0634867 -0.0024005 -0.0576458 -0.020527 -0.0735123 0.0750689 -0.0438867 0.0230203 -0.0742858 0.0623698 0.0365479 -0.0116334 -0.0605269 -0.0718046 0.0657741 -0.020831 0.0497314 0.0406994 0.0293168 0.0513397 -0.0438067 -0.0242522 -0.0641846 0.0492773 -0.0575748 -0.0535314 0.0145838 0.0536216 -0.0636802 -0.0482301 -0.0483333 -0.0113233 -0.0647442 0.0648541 0.0180896 -0.0518613 0.0751 -0.000834402 -0.00126301 -0.0363519 0.0334911 -0.00696156 -0.0365427 0.0283855 0.0389894 0.0543952 0.0265329 -0.0680145 -0.0103641 0.0286532 0.0646944 0.0670266 -0.0641554 -0.00352632 0.017265 0.0700554 0.0135299 -0.0269932 -0.0692636 0.0193675 0.0212515 -0.00728575 -0.0204887 -0.0235139 -0.0127747 0.0145555 -0.0719129 0.0397208 -0.0652198 -0.0358074 -0.0211235 0.0455978 -0.0417806 0.0396253 -0.0271839 -0.0639651 0.056461 -0.0506606 -0.0580394 -0.0203453 0.0568742 0.0544908 0.0532179 0.0260377 -0.0219393 0.0475288 -0.0388708 -0.0344391 -0.0671249 -0.00499408 -0.0193465 -0.0355405 -0.046473 -0.0498906 0.0621298 0.0754512 0.0274228 -0.0307142 -0.0567723 -0.0713324 0.00420462 0.0253862 -0.059025 -0.0397043 0.036359 -0.00224682 0.021621 0.0190024 0.0171363 0.0461946 0.0309789 -0.071236 -0.0708766 -0.0378197 -0.0217009 -0.016198 0.0548264 0.0684246 -0.0047471 -0.0506912 0.0460238 -0.00899771 0.0484001 -0.0750255 -0.0180417 0.0676388 0.0655331 -0.0187401 0.0730758 -0.0697767 -0.0236864 -0.011564 0.0254814 0.013641 -0.0200909 0.0130668 -0.0103696 0.0589821 0.0156879 -0.0443782 0.0390974 -0.0158223 -0.0157233 -0.0298299 -0.0390466 0.0324848 0.0264389 0.0419622 -0.0229139 0.0260475 -0.0311669 -0.0491602 0.0441165 0.00616054 0.00667286 -0.0232732 -0.0602342 -0.00948813 0.0607836 -0.0161421 0.00189725 0.0376147 0.0400382 -0.030465 -0.0190997 -0.0636849 -0.0623107 -0.0393005 0.0455059 0.0334672 0.0629581 -0.0101637 0.0608264 -0.0277354 0.0588965 0.00472601 0.0336173 0.0717038 0.0701301 -0.0193177 -0.0567954 0.0259284 -0.00952969 -0.0301396 0.00301098 -0.00153928 0.0592641 -0.0632387 0.0462978 -0.0514137 -0.0441087 0.0626159 -0.0716827 0.0372399 -0.0507238 0.0546361 0.067695 -0.0644796 -0.0644584 -0.0736413 0.0580176 -0.0751148 -0.0391509 -0.0363365 -0.00801711 -0.0035485 -0.0473128 -0.0723405 -0.0614107 -0.0446209 0.0714311 0.0665203 0.0382635 -0.0194949 0.0262417 0.0643262 -0.0112148 0.0107245 0.0173222 -0.00247719 -0.00115205 0.0453881 0.0319173 0.0429047 -0.0641038 -0.0309937 -0.0754005 0.0489922 -0.0599153 0.0710157 -0.0188941 0.0256389 -0.0547419 0.000305027 0.0533529 -0.0597187 0.0405679 0.0618637 0.0648361 0.020934 0.00511521 0.0482099 0.0343862 0.0154353 -7.09622e-05 -0.0584882 -0.0287991 0.00281866 -0.0499745 0.0465336 -0.071529 -0.0121853 0.0655245 -0.00480131 
0.010582 0.0697015 -0.0218634 -0.0321405 -0.0322142 -0.00563611 0.0347949 0.00491416 -0.0419662 0.0333903 0.0275471 -0.0687627 0.0491713 -0.0382961 -0.0347835 0.000146998 0.0433834 -0.00136339 0.058763 -0.0584881 0.0295467 0.0400765 0.0292795 -0.029108 0.0129005 0.0331232 -0.0405662 -0.0121551 0.0737786 -0.0396244 0.0685087 0.0521019 -0.031057 -0.0631198 -0.0629846 -0.0493908 -0.0317023 -0.0569067 0.0163486 -0.0214417 0.00581338 0.0696221 0.0598606 -0.0133826 -0.0492427 0.0586546 -0.0626939 0.00254693 0.0338274 -0.0638706 0.0692903 -0.0728919 -0.00339455 0.0243523 -0.0174194 -0.0137563 -0.0264708 0.039674 -0.00424744 -0.0713915 -0.0307453 -0.0239562 0.0542157 0.0334566 0.0755573 -0.057878 0.0178806 0.0167091 -0.0118984 -0.0713414 -0.071265 0.0491421 -0.020234 -0.0428411 -0.0649354 -0.0673129 -0.0217502 -0.0622441 0.07444 -0.0442698 0.0582527 0.0651281 -0.0337714 -0.0407507 0.0417643 0.0215716 -0.0494199 -0.0752946 -0.044113 -0.00622093 -0.0316372 0.0577649 0.0539066 -0.0279664 0.0322495 -0.0349099 -0.0100383 -0.0534252 -0.0362436 -0.0433057 -0.0689884 0.00437404 -0.0354164 0.0434225 -0.00919931 -0.0651094 0.0721814 -0.0451795 -0.0513046 -0.0392313 0.00162473 -0.00325055 0.0702185 -0.0605153 -0.0553799 0.0198674 0.0681 -0.0632447 -0.0196948 -0.043443 0.0270449 0.0732156 -0.0238686 -0.0180424 0.0112564 -0.0032113 0.0571818 0.0513683 0.00498789 -0.0690198 -0.0556421 0.0144116 0.0162373 -0.019927 0.0403959 -0.0674883 -0.0585622 0.060748 0.06912 0.0643468 0.0139566 0.0477899 -0.0206053 -0.0710765 -0.0715834 -0.0311427 0.00452566 0.0411778 0.0413798 0.0602886 0.0359838 0.0186486 0.0708985 0.0674999 0.0445708 0.0560237 0.0736048 0.0284902 0.0400413 -0.0386443 0.0567433 0.0575428 0.054525 0.067597 0.023785 0.0457578 0.061369 0.0143639 -0.00429065 0.0395385 -0.0272982 -0.0439451 0.0506883 -0.0194231 -0.0207161 0.0238511 -0.0433213 0.0608032 0.0331532 -0.0157551 -0.0602225 -0.0314649 -0.0142239 -0.0392768 -0.00288274 -0.0257795 -0.0634158 -0.00401194 0.0413962 -0.0541372 -0.0603684 -0.000148882 0.0321477 0.0488619 0.0532437 -0.0351048 -0.059036 -0.0198551 0.0679681 0.062336 0.0616266 -0.0583567 -0.0543728 0.0260464 -0.0692573 -0.0623223 -0.063353 -0.0429234 -0.0408305 -0.0508525 0.0333942 0.0392664 -0.0478808 0.0675308 0.0157643 0.0442058 0.0408084 -0.0606757 -0.00371462 -0.0754264 0.0636917 -0.003252 0.0735735 0.0616142 -0.0468338 -0.055176 -0.01796 -0.0706548 -0.0465167 -0.00139606 0.0644425 0.038025 -0.0669202 0.0661537 -0.00376682 0.0142621 0.0462972 -0.0470275 0.0513541 0.0353693 -0.0389313 0.0194889 0.0298878 -0.0206806 -0.0118726 -0.0234918 -0.0742596 -0.0632773 0.0113718 -0.0322613 0.0653251 0.00377056 -0.0253097 -0.010939 0.0115374 -0.0385338 
-0.0146231 -0.0155307 -0.0310877 0.0211195 -0.0612051 -0.0128571 -0.0289775 -0.0657996 -0.0458745 0.00197787 -0.0670258 0.00758293 0.0109101 0.0693093 -0.00254652 0.0345615 0.0415581 -0.0549721 0.0604821 -0.0594805 0.0614087 0.0429831 -0.0558721 -0.0652554 -0.0501359 0.0711009 0.0289527 0.0317496 -0.0118396 -0.0564897 0.0576949 -0.0382628 -0.0130804 -0.0189245 0.0148894 0.0327047 0.0745864 -0.0188718 0.0562253 0.0704716 -0.0388016 -0.0176324 0.0319733 0.0060065 -0.0496863 -0.0562639 -0.0326312 0.0238271 0.0420484 0.00478185 -0.0251573 -0.0706549 -0.0381433 0.00676938 0.00383603 0.0438296 0.0442673 -0.0237321 0.0674653 -0.0208496 0.0189541 -0.0515243 0.0375371 0.0163131 0.0292344 0.0472886 -0.0033392 -0.0352849 -0.0568586 0.0550649 0.0140335 -0.0634555 0.0133974 -0.0454453 -0.0586143 0.031015 -0.0529883 -0.0176443 -0.0549864 0.0477298 0.0681718 -0.0245479 0.0128345 0.0147716 -0.0473467 -0.0456108 -0.00519194 -0.014161 -0.0400194 -0.0648604 -0.0392993 0.0540579 0.0430649 0.0529482 -0.0406134 -0.023765 0.0741267 0.0491861 0.0485541 -0.0313318 0.0147291 0.0624409 -0.0649293 0.000766203 0.052228 -0.0715658 -0.0192361 0.0744879 0.0441708 0.035716 0.0488198 -0.0486281 0.00446437 0.0222651 0.0524608 0.0272776 -0.0262072 -0.0366876 -0.0233327 0.0526207 -0.0541688 -0.00349174 0.0300997 0.00116264 -0.0259359 -0.000908257 -0.0607829 0.0435171 -0.045203 -0.0221025 -0.0333386 -0.0118471 0.0599822 0.0363218 0.027965 0.074863 -0.0020804 -0.0586374 -0.0542011 -0.0631255 0.0220371 0.0141028 -0.0590992 0.0298763 0.0269506 0.0114766 0.00453662 0.0166047 0.043825 0.0493369 -0.055487 -0.0185508 0.0184459 0.00918201 -0.0425377 -0.0583823 0.00202708 -0.045507 0.0693746 -0.00768186 -0.00810017 -0.0395057 -0.00226505 0.0137976 0.00556831 -0.0576999 -0.00983969 -0.0225793 -0.0187371 -0.00317422 -0.0279955 -0.00104572 -0.0614211 -0.0381437 -0.00994538 0.0546495 0.0681537 0.0137174 0.00374526 -0.0370787 -0.00437269 -0.050474 0.0596625 0.00836747 0.0305916 -0.0486922 0.0459381 -0.0419662 -0.0358398 0.064723 0.0109124 0.0500099 0.0721528 0.0519717 0.0060118 0.0235682 0.0550518 0.0183245 0.0644868 -0.0210991 -0.0454712 0.0184116 0.00936079 0.06172 0.0251033 -0.0342275 0.0558046 -0.067847 0.06911 -0.0188726 -0.0589001 -0.0318757 0.0227496 -0.0447238 -0.06456 0.0151416 0.0583856 -0.0182282 -0.0658374 0.0170995 -0.0500363 -0.0474756 -0.0373604 -0.0758476 0.0709532 0.0248859 0.0356053 0.00636961 0.0299995 -0.0370143 -0.0413266 -0.0284347 0.00572989 0.0554006 0.0625721 0.0318642 0.0710957 -0.0656581 0.010522 0.014917 -0.0436231 0.030903 0.0283415 0.0459256 0.0126013 -0.0340627 -0.073576 0.0641011 -0.0403041 0.0265574 0.012164 0.0570487 0.0405257 -0.0453911 -0.0527048 0.0105008 
3.92224e-05 -0.0491913 -0.0192721 -0.0170092 -0.0391803 0.0478775 0.0514728 0.0643462 -0.0641589 -0.0520714 0.0582019 -0.030232 0.0215346 -0.039923 -0.0142465 -0.0470424 -0.0750527 -0.0486187 0.0384891 -0.0227435 -0.0188131 0.0034768 -0.0637013 0.0610045 -0.00379048 0.073518 0.0585798 -0.0131938 -0.0223221 -0.0569111 0.0197473 -0.00711579 -0.0546809 0.0607973 0.0207053 -0.0580286 0.0408208 0.0495628 0.0717435 -0.0244899 -0.0748907 -0.00808362 -0.0391079 0.0436641 -0.0103929 -0.0652511 -0.0271782 0.0434856 0.0308013 -0.0583881 0.0419769 0.0698189 0.0386772 -0.0585066 0.00263851 0.0463594 -0.054264 0.00905638 0.0470187 -0.0721395 0.00600462 0.0695586 -0.0537009 -0.0542031 -0.0560938 -0.0633175 -0.0376508 0.0235836 0.0299428 0.0588634 0.0673974 -0.0593716 -0.0541083 0.0206653 -0.0221376 0.0680986 0.0195501 0.0469942 -0.0242712 -0.0661381 -0.0315404 -0.0224283 -0.0373829 0.0129065 0.0437597 -0.0323521 -0.0126575 0.0755045 -0.0455698 0.0315079 -0.0212426 -0.0680074 -0.0748855 0.0194649 -0.0487434 -0.0749487 -0.003023 0.0555814 -0.0369751 0.0517551 -0.069945 -0.00036318 0.052663 -0.0662514 0.0228406 -0.000705572 -0.0669155 -0.0261927 0.0594075 -0.0380237 0.0303152 0.0315942 0.0333492 -0.00188192 0.0566521 0.0249464 0.0240681 0.0646784 -0.0185433 -0.0698434 0.0226986 0.0733753 -0.0721265 -0.0532645 0.045648 0.0388961 -0.0565496 -0.0720679 0.0127276 -0.0208259 0.00450744 0.0242922 0.00444362 0.0329863 -0.0104497 0.0718727 -0.0699883 -0.045646 -0.0440853 0.0464392 0.0327218 -0.0719661 0.0156227 0.0724242 0.0589683 -0.0270354 -0.0601448 -0.0716893 -0.028234 -0.00357253 0.0654224 0.0343163 0.0184429 0.053138 -0.0466654 -0.000542302 -0.0133508 -0.0374435 0.05679 -0.0391834 0.0428156 0.0612459 0.00372368 0.0290076 0.0174518 -0.0381525 -0.000717385 0.0293385 -0.0627008 -0.0131296 0.0743369 0.0427751 0.075534 0.066416 -0.0490235 0.0432515 0.0359157 0.0455336 -0.00755467 0.026806 -0.0356408 -0.0253692 0.0753368 0.0242494 -0.030656 0.00216372 0.0434071 0.00404513 -0.0405101 0.0486365 -0.0162581 -0.0162673 -0.0716461 -0.0625276 -0.00540368 0.0219692 0.0725542 0.0472424 -0.0187931 0.018437 -0.0122013 -0.0734579 0.0501317 -0.000390618 -0.052647 0.00621614 0.0655779 -0.0608663 0.0507874 0.0648206 -0.0282999 -0.0382961 -0.0688184 -0.0389558 -0.0280839 0.0460532 -0.0396931 0.0380325 -0.0204584 0.0246642 -0.0695262 -0.0202 0.0539436 -0.0119818 0.0011882 0.0563389 -0.0109276 0.00726603 -0.00451358 0.0147283 0.0509498 0.0686833 -0.0516415 0.0253596 0.044366 0.0550598 -0.00738784 0.00952881 0.048412 -0.0360248 0.0611743 0.0755554 0.0716224 0.0441539 0.0131624 -0.0219638 -0.0742696 0.0131936 0.04997 -0.0462879 0.0619368 0.0242717 0.00975918 0.00291089 -0.0612817 -0.0152594 
-0.0342117 -0.0483457 -0.0404141 -0.00439692 -0.0606005 -0.0372541 -0.0296446 0.0144786 0.0696667 0.0285768 0.00844515 -0.0440716 -0.0403665 0.040878 -0.0482528 -0.0248456 -0.0533636 0.0727829 -0.0685839 -0.0145857 -0.0475073 -0.0708571 -0.0159853 -0.0559749 0.070842 -0.0423033 0.00911866 -0.0507018 0.0238524 -0.00992014 -0.0364615 -0.0682037 -0.0145687 0.0506821 0.0518571 -0.0496415 -0.0212671 -0.061093 -0.0198907 -0.022916 0.0147367 0.071435 -0.0663586 -0.0347415 0.0646807 0.0648985 -0.032302 0.00929768 -0.0223414 0.0720614 -0.0106081 -0.0173375 0.0101021 0.000838956 -0.0137519 -0.0749004 -0.0597212 -0.0114154 -0.0434459 -0.0661885 -0.00511472 -0.0447722 0.0531301 -0.0549394 -0.0458891 0.0260706 -0.0693661 0.019082 0.021461 0.0600799 0.048394 0.0328941 0.0659383 0.00699115 0.0115383 0.0417718 -0.000351535 -0.0529828 -0.0575194 -0.0529324 0.0641211 -0.0252415 0.0231031 0.0422776 -0.0541026 -0.0302229 0.062466 0.0183274 0.0668873 -0.0517812 0.0692772 0.019574 -0.00901187 -0.0712695 0.0665804 0.0291881 0.0454459 -0.0171447 -0.0216752 0.0102536 0.0443203 0.0406994 0.0344005 0.0237102 -0.0546325 -0.0559465 0.0587586 -0.04574 -0.035482 -0.0242395 0.00104095 0.0154457 -0.00881914 -0.0756085 -0.052174 0.00191091 0.0497393 -0.0670612 0.031811 -0.0505791 0.0700078 -0.0737372 -0.0618109 0.0271717 0.0610485 -0.046125 0.065435 0.0671787 -0.0617077 -0.0448078 -0.0197068 -0.063413 -0.0744833 -0.0625697 0.0364367 0.0341601 -0.0230799 0.0134286 0.0531961 0.0440164 0.0168843 -0.0660259 0.0711245 0.0518634 -0.0335342 -0.068086 -0.0275528 0.00899779 0.0406466 0.04539 -0.0101454 0.0391103 0.00800144 -0.0612278 -0.0522236 -0.0326169 -0.0120772 0.00235351 0.0317623 -0.0667871 0.0546592 0.0756048 0.0120866 -0.0466544 -0.0512671 -0.0538197 0.0192152 -0.0671684 0.0238082 -0.0483645 0.072777 -0.0253311 -0.0262649 -0.00499837 -0.0585375 -0.0465522 -0.00552453 -0.0463287 -0.0465081 -0.0636635 -0.0340712 -0.075241 -0.0742894 0.0277687 -0.0339092 0.0438056 0.0640746 -0.0605004 -0.00981831 -0.0310733 0.0348531 -0.00154644 0.0116002 0.0191329 0.0622246 0.0387803 -0.0659582 0.0709544 -0.00455162 -0.0167367 -0.0689287 -0.0575799 -0.0706631 0.061834 -0.00592323 0.0621481 0.0358887 0.0758121 -0.0477813 0.0609226 0.0244624 -0.0483022 0.0551133 -0.0325917 0.0110807 -0.00323254 0.0123625 0.0508502 -0.0509686 0.0457699 0.0703541 -0.0602715 0.034109 -0.0157211 0.0737698 -0.0629739 -0.0693907 -0.019875 -0.0441927 -0.0115856 -0.0674323 0.0514578 -0.0746199 0.057119 0.0362797 -0.0114515 0.0753051 -0.0692223 0.0546395 0.0362976 -0.0271923 0.0581525 0.0343513 0.0552933 -0.00854886 0.00416238 -0.00557256 0.0390867 -0.067436 0.0185681 -0.0416355 -0.0230164 -0.0587917 0.075069 -0.0266458 0.0537795 
0.0317199 0.0609748 -0.0186982 0.0207 -0.0267729 -0.0268955 0.0621103 0.0650918 -0.053698 0.0173198 0.0247263 0.0322229 -0.00748422 0.00120292 0.0339044 -0.0751078 0.0706621 -0.0627223 0.0113131 0.0338603 0.0711601 0.014803 0.0589812 -0.0232858 -0.0247947 -0.0292383 -0.0247196 0.0595937 -0.0647013 -0.0521109 0.00544168 -0.0716224 0.000630362 0.0181161 0.0706087 -0.0684594 -0.0494108 -0.0346711 0.0632575 0.00549812 0.00549369 0.0348711 -0.0681377 -0.00832769 0.0608827 -0.060415 0.0593675 -0.0475872 -0.0300011 -0.0162652 0.0444923 0.0401746 0.067978 0.0531897 -0.0543508 -0.0384743 0.0738988 0.0365119 0.0721924 -0.0111156 0.00170243 0.0668011 -0.0715542 -0.0295541 0.0375641 -0.065451 0.0184466 0.0223613 -0.0741516 0.0710617 0.0537967 0.0491256 0.0518002 -0.0721412 -0.0385695 0.0186883 -0.047661 0.0495059 -0.0221306 0.0236632 -0.0393738 0.031386 0.0558976 0.00399322 0.0147072 -0.0758955 -0.0676349 -0.0548414 0.0472959 -0.0484224 0.0232597 0.0579715 -0.0123053 0.0607509 -0.0269251 -0.0582485 -0.0671941 -0.0713608 -0.0589263 0.00991843 0.00751057 0.0445707 0.0404135 -0.0151028 -0.0715762 -0.0183715 -0.0275375 0.0350945 0.0178426 0.0482591 -0.0674675 0.000954247 -0.00265153 -0.0721059 -0.021182 -0.0355492 0.0732421 -0.042909 -0.0286192 -0.00512079 0.0571637 -0.0651572 -0.0206408 0.00329222 0.0048375 0.0220971 0.0318705 0.012596 -0.0505568 -0.0561029 -0.0527579 -0.0440812 -0.0353171 -0.00593384 -0.0242683 -0.00628494 0.075053 0.00929822 -0.0180924 -0.0186206 0.0721545 0.0255377 0.00179895 0.0376239 -0.0628494 -0.0443964 0.0550468 0.0559269 0.0248625 -0.0429138 -0.051271 -0.00319929 0.0573057 0.0710722 -0.0704589 -0.0093984 0.0176521 0.0512441 0.059938 0.017832 0.0580508 0.00834554 -0.0130869 -0.0476273 -0.0249329 0.0602889 0.0446304 -0.0120519 -0.0415123 -0.0336645 -0.030711 0.0426748 0.0253359 -0.049469 0.0561405 -0.0654773 0.0316501 0.00922916 -0.0266765 -0.047945 0.0159918 -0.00903634 0.0418122 -0.0510633 -0.0755494 -0.0636213 0.0163648 -0.0206814 -0.0389733 -0.056841 -0.0028381 -0.036523 -0.053894 0.0330695 -0.0288987 0.00986821 -0.0365448 0.0130809 0.0737695 -0.027288 0.0321041 -0.075334 -0.0117332 -0.0192465 -0.0303403 -0.0346785 -0.0540278 0.0545298 -0.00495039 0.0440922 0.00606352 -0.0539309 -0.0116329 -0.0568221 0.0527981 0.0750524 -0.0368035 0.00727144 -0.0492312 0.0323073 0.0542759 0.0758957 -0.0347794 0.0228098 -0.0229767 0.00818958 0.0422346 0.0585542 0.0137271 0.0607541 -0.0720561 -0.059008 0.00946896 -0.047249 -0.031335 0.00988938 -0.0333957 0.0132323 0.0139872 -0.0401758 0.0563248 -0.0662426 0.0245453 -0.00943184 0.0444502 0.00198021 0.0238288 -0.034849 -0.0221031 0.0579352 -0.0307573 -0.00230793 0.0616215 -0.0594971 -0.00930459 -0.0467055 
-0.0756578 -0.020258 0.0281737 0.00239974 -0.0630275 -0.0474237 -0.0525971 0.0269219 -0.0384354 0.024806 0.0714354 0.0701434 0.0283921 0.0655772 -0.0339998 0.0149147 -0.0674421 0.0673131 0.0345075 -0.0269272 -0.0748371 -0.00272079 0.0275344 -0.0376729 0.00717816 -0.0719692 -0.0542245 0.032659 -0.009143 -0.0213839 -0.0273041 -0.0321935 0.0407961 0.0739895 0.0519391 0.00864322 0.0118411 0.0464481 0.0739615 -0.0292088 0.0174529 -0.0563003 -0.00315404 0.00560816 0.0212674 0.0722167 0.0695566 0.0381576 0.0553716 0.0197696 -0.0382249 0.0407674 -0.0274501 -0.0488857 -0.0162912 0.029736 0.0487807 0.0414599 -0.070354 0.029539 -0.0190947 -0.0707208 0.0542662 0.0231509 -0.00689765 -0.0219815 -0.0615982 0.0327913 -0.0477451 -0.066149 -0.0523921 -0.00925715 -0.0228947 0.00269287 0.0363964 -0.040691 0.0457818 -0.00575126 -0.046267 0.0308513 -0.0478666 -0.0400863 -0.0332737 0.0301828 0.00981379 -0.0475318 0.0259703 -0.0739863 0.0696418 0.072657 -0.07004 0.0394744 -0.0496484 0.0413235 0.0522637 0.0693934 -0.0259127 -0.0179139 0.0191652 0.0218785 -0.0442016 -0.0701258 0.0113772 0.00975959 0.0577301 0.0309925 0.00528445 -0.067371 0.0428484 -0.0366213 0.0377378 -0.024859 -0.0555888 0.0300568 -0.0624079 0.0698479 0.0273501 0.015927 -0.0228496 -0.0694558 -0.013138 0.0144409 -0.0704738 -0.0216708 -0.0370994 -0.0473199 0.0428306 0.0103519 0.0396997 -0.0423832 -0.0265336 -0.0300971 -0.0430992 -0.0232074 0.0548122 0.00372867 0.0476897 0.0308875 -0.0542583 0.00869226 -0.0156904 -0.047378 0.0189628 -0.0473818 0.0733205 0.0615478 -0.0382032 0.0274785 0.0241899 -8.00982e-06 -0.0415366 0.0569068 -0.00217598 0.0507415 0.0619513 -0.0354925 0.0388003 -0.0551357 0.0736235 0.0383142 0.0389965 0.0473244 0.0151632 -0.0477998 0.0377336 0.0595006 -0.0122278 -0.00590569 0.00434714 -0.0377091 0.007153 0.0224105 0.0602314 -0.0168082 0.046356 0.0506571 -0.0217784 -0.0205087 0.0677091 -0.0320443 0.0322953 -0.0643397 -0.0219465 0.0197712 -0.0515964 -0.0624062 0.0604746 -0.02347 -0.0172672 -0.0726696 0.0524802 0.00663215 -0.0132367 -0.0707531 -0.0558559 -0.0538368 0.0489086 -0.0295692 -0.0659078 -0.057979 -0.0411897 0.0254385 -0.0275503 0.0162377 -0.00834249 -0.025527 0.0728248 0.0719061 0.0443905 -0.0119887 0.000607292 -0.0229342 -0.0569379 0.0295742 -0.00667393 -0.0614057 0.066798 -0.0705824 -0.0200526 -0.00220954 0.0422752 -0.0209402 0.00796401 -0.0725156 -0.0639651 0.0484062 -0.0202632 0.0359948 -0.00552719 0.0250932 0.0588137 -0.037679 0.0557394 0.0224507 0.0191462 0.00299166 0.049383 -0.0345863 0.0107152 -0.0231194 -0.0245622 -0.0234941 0.0657111 -0.0349367 0.0198477 -0.0155936 -0.0705675 -0.0253936 -0.0548 0.0583034 0.0230038 0.0385907 0.0370121 0.0285272 0.0731121 -0.0679444 
-0.0758333 -0.0671245 -0.0264902 0.0266855 -0.0106945 0.0252628 -0.0643908 0.0587151 0.0724264 0.0231219 0.0610488 0.0298545 -0.0379355 -0.022996 0.0717039 -0.0478927 -0.0668094 -0.0013374 -0.0472586 0.00721781 -0.0268133 -0.025992 -0.0574362 0.00325319 -0.0408929 -0.029848 -0.0374589 0.0265157 0.0485648 -0.0245681 0.01232 -0.0288975 0.0672968 0.0459916 0.0648103 -0.0178206 -0.0332453 -0.0195527 -0.0666087 -0.0104095 -0.036655 0.0612303 0.043612 0.0154853 -0.0189715 -0.0572291 0.0629227 -0.060383 -0.0153409 -0.00404134 -0.0282046 -0.03821 0.0751733 0.0391198 0.0518985 0.00810587 -0.0471458 -0.0336209 0.0529246 0.0140675 0.0612478 0.0552729 -0.0110806 0.071726 0.0613232 0.0577239 0.067368 -0.0351918 0.070983 -0.0449541 0.0714101 0.00544886 0.0383469 0.0413708 0.0310772 -0.0378433 -0.0469403 -0.0468026 0.0420481 -0.0713333 -0.0692565 0.0218071 -0.0256898 0.057843 0.0716611 -0.0737092 0.00627959 -0.02242 -0.063388 -0.00469623 0.0463649 -0.0603983 -0.0213507 -0.000424204 0.038867 -0.00385093 -0.016425 -0.0189263 -0.0752723 0.0156383 -0.0454377 -0.0474677 0.0574954 0.0411646 -0.0376643 -0.0208087 0.0617406 0.0643696 0.0739713 -0.0120797 0.00662864 0.0478968 0.0141808 -0.0499294 -0.0482652 -0.0755237 0.0586102 -0.0532632 -0.0700927 0.00218539 0.056514 -0.0367898 -0.0353395 -0.0543193 -0.0379647 -0.000661996 -0.0703659 0.0309218 0.0413346 0.0557674 -0.0546784 0.0320066 -0.0704858 0.0263583 -0.0617602 0.0586113 0.0634951 -0.058761 0.00960763 0.0447545 0.0341211 -0.0118269 0.0412135 -0.0377174 0.067258 0.0148924 0.0400407 0.0312608 -0.0159906 0.00752685 0.0436934 0.0309175 0.0327661 -0.0550559 -0.0479603 0.0430561 -0.0732084 0.0325351 0.0590239 0.0255412 0.012967 0.0212916 0.0343878 0.0188746 -0.0125288 0.0525452 -0.0429114 -0.0132988 0.0173881 -0.0348107 -0.0635295 -0.0533656 -0.0517938 -0.0234452 0.0611365 -0.0323903 0.0680034 -0.0664894 -0.0101077 -0.0709553 0.0381509 0.0394552 -0.0264522 0.0189456 0.0389207 0.0468294 0.0177025 -0.0036299 0.0256179 -0.00756593 0.0194238 -0.0341123 -0.0758823 -0.00623026 0.0172818 0.0606383 0.0413728 -0.0748371 0.0530425 0.050303 0.00852933 0.019433 -0.0259873 -0.0067987 -0.0182823 0.0585714 -0.0137293 0.0436828 0.0197855 0.0346556 -0.0175728 0.00211858 0.00411896 -0.0603343 -0.000970333 0.0251286 -0.0114216 -0.0169589 0.0118241 -0.0656598 -0.0139591 -0.0323933 -0.0704521 -0.0330174 -0.0189913 -0.00988806 -0.00745224 0.0508039 0.0270384 -0.0363263 0.0313636 0.000122812 -0.0225795 -0.0056726 -0.0638653 -0.0282662 -0.0510089 -0.00918871 -0.0628268 -0.0450581 0.0492323 0.00847516 0.0551169 0.0514383 0.0269221 0.0624189 -0.0718484 0.0608238 0.0215904 0.00692796 -0.0256764 0.0236153 -0.0642448 0.00658017 0.0062833 0.0312167 
-0.0548864 -0.0487743 -0.0439023 0.0655021 0.00128252 -0.0342381 0.0355006 -0.0028693 -0.0482978 0.0743346 -0.0736535 -0.0442983 0.0648343 0.0181041 -0.0411539 -0.049099 0.0611674 -0.008111 0.0186269 0.0403372 -0.0212204 0.0316657 -0.016148 -0.0470905 -0.00429897 0.00413979 -0.0390017 -0.0142711 0.0688229 0.0290417 0.0703282 0.0288767 -0.0594715 0.0322673 -0.0145464 0.00904057 0.0621584 0.0223215 -0.0534182 0.0731932 0.0316779 0.0425792 -0.0574639 0.0425084 0.0709717 0.0547953 0.0505266 -0.0621252 -0.00410954 0.0483275 -0.0688887 -0.0525493 0.0366739 -0.0367846 -0.0710726 -0.0758487 -0.00445914 0.0338708 -0.0681684 -0.0536009 -0.0438903 -0.0162945 -0.0221116 -0.0710085 0.0210633 -0.0536263 -0.0604483 0.0203444 0.038244 -0.0405079 -0.00967923 -0.0227793 0.00668386 0.0144294 0.0147143 0.00236729 0.0223902 0.0175086 -0.0758465 0.0471218 -0.0365016 0.0364863 -0.0347112 -0.00733885 -0.00314688 0.0680565 -0.0296953 -0.0369005 -0.0559248 -0.0522318 -0.019492 0.0639769 -0.0476012 0.0596724 0.0656575 -0.0601707 0.0644558 0.0561311 0.00985697 -0.0355305 0.00342362 0.06281 0.0726613 0.0231181 -0.0394632 -0.0486501 0.0291264 -0.0585434 0.0334589 0.00960019 -0.0535575 -0.0661958 0.00629241 -0.021859 0.0667384 -0.0515524 0.0313806 0.0403668 -0.017942 -0.0609637 0.0289985 -0.0610891 -0.00538798 -0.064159 0.0612916 -0.0693845 -0.00133148 -0.0463661 0.0465046 -0.0389958 0.0645993 -0.0655077 -0.0203653 -0.0149838 -0.0080366 0.0250581 0.0419673 0.00998186 0.0209217 0.0714073 -0.0606917 0.0482757 -0.0169902 -0.0475607 0.0548604 0.0194702 -0.039649 -0.0730027 0.018809 0.0445695 -0.0586151 -0.00423049 -0.017576 0.00593992 0.0331444 -0.0109981 -0.000232925 0.0491338 0.0216928 -0.0241217 0.0488706 0.0366776 0.014648 -0.0479239 -0.0468485 0.0332607 -0.0750413 0.02997 -0.0595511 0.0220466 -0.0364626 -0.0411557 -0.0192699 0.0287549 -0.0700071 0.0227743 0.0694513 -0.0605308 -0.0537776 0.0303946 0.0330989 -0.031922 0.0301128 0.0551118 -0.0197933 -0.0661309 -0.0581991 0.0109411 -0.00390229 0.0588441 -0.0520869 0.0230964 0.0155205 -0.0606262 -0.0407738 -0.0417547 -0.0611671 0.0571484 0.0511469 0.0556694 -0.0259027 -0.00709361 -0.0759081 0.0469024 0.0510064 0.0478368 -0.00871766 -0.0656756 -0.0545482 0.0683279 0.0295797 -0.0719135 -0.0726502 -0.0560288 -0.0402072 -0.0377159 0.00611572 -0.0133091 -0.0114396 -0.0344531 -0.0267448 -0.0399043 -0.0635497 0.00261258 -0.0352913 0.0514248 -0.0653066 -0.0307678 -0.0150158 -0.0504179 -0.0557375 -0.0479584 -0.0491922 0.0396989 0.071638 -0.00260108 0.0320817 -0.0330663 -0.0183105 -0.0111457 0.0304933 0.0317105 0.0310395 0.0381829 -0.0326991 -0.0266497 0.0351886 -0.0255998 -0.0494956 -0.0641076 0.0438294 0.014651 -0.00578771 0.0189886 -0.0545121 -0.0662881 
0.0696812 0.0325419 -0.0542615 0.0707773 -0.0430577 -0.0183911 0.026511 0.0726713 0.0657778 0.0104649 0.0686559 0.0117441 -0.0485248 -0.0357496 0.019196 0.0392165 0.0346347 -0.00872749 -0.0576289 -0.0480168 0.0668264 0.0658089 -0.0112705 0.053026 -0.0209971 -0.0635672 0.0251956 0.00615483 -0.0135213 -0.0233122 -0.0239757 0.0485039 -0.0696463 -0.0676434 -0.0626837 -0.000363486 -0.0649102 0.0365043 0.00354902 0.0181794 0.0509469 -0.0498729 0.0244825 0.0475181 -0.0471722 -0.0583783 -0.0433707 0.0476879 -0.0232842 0.060518 0.0212802 0.00237504 -0.0691369 0.0690403 0.0377545 -0.074776 0.0408739 -0.0589532 0.0684652 -0.0593432 0.0246898 0.0249697 -0.00185218 -0.0510082 -0.0552694 -0.0540894 0.0285998 -0.0448023 0.0606192 -0.0409313 -0.055779 -0.0519747 0.0206659 0.0383738 -0.00529525 -0.0660977 -0.0341231 -0.0431313 -0.028845 -0.0217211 -0.056066 -0.0293872 -0.055416 0.0398472 0.0215849 -0.0154718 0.0537772 0.00416696 0.0619425 0.0720756 0.0576242 0.0135332 -0.0620849 0.0464876 0.0319233 0.0619898 0.0344553 -0.0462408 -0.0656167 -0.0538202 0.0250534 0.0503445 -0.00630377 -0.00216924 -0.00356165 -0.0389093 0.000613914 -0.0227396 0.0641779 0.0435921 -0.0634362 0.0732978 -0.00665318 -0.0450883 0.00746035 0.0552017 0.0379662 0.0675428 -0.0738254 0.0162884 -0.0324145 -0.0305087 -0.0645917 0.0626665 -0.0603399 -0.0591064 0.0278132 0.00645912 0.0347303 0.00703469 0.0290154 -0.0658591 -0.0522597 -0.010338 -0.0740396 0.0250596 -0.0630295 -0.0710746 -0.0293227 0.0276197 0.052576 -0.0401194 -0.0170698 -0.0405309 0.0529834 -0.0138689 0.0699885 -0.0624095 0.0227193 -0.0541917 -0.0400411 0.03598 0.0278122 0.045669 0.0438345 -0.0135403 -0.0210546 -0.0387053 -0.060116 -0.00767435 -0.041278 -0.0395546 -0.0563378 0.0578997 -0.0333745 0.0448046 -0.0292705 0.0171129 -0.0108752 0.0684589 -0.0509166 -0.0366043 0.0462873 0.0473707 -0.0576954 -0.0618003 0.0154893 -0.00678792 -0.0202953 0.0670312 -0.0436529 -0.0525837 -0.0469491 -0.00744122 0.00442091 0.014063 0.0053211 -0.0207948 0.00880063 0.0664212 0.00373068 -0.0512833 0.0520147 0.0389716 -0.0615331 -0.0281824 -0.00420899 0.0234207 0.0390077 -0.0274325 -0.0148426 0.0324148 -0.0571469 -0.000658597 0.0165316 -0.00953234 -0.0198243 0.0238348 0.0562474 -0.0646239 0.0161621 0.028173 0.0639844 0.0412762 0.00880855 0.00329921 -0.0622275 0.0756043 0.0266111 -0.0503995 0.0586202 0.0747747 -0.0673126 0.0756751 -0.00268635 0.0344951 0.0465527 -0.0421994 -0.0159454 0.0592595 0.0733119 0.0269473 0.0371656 -0.00699559 -0.0250956 0.0409644 0.0042772 0.0160415 0.0731584 0.0229129 0.0130687 0.024475 0.00225204 -0.0685027 -0.0492747 0.00215277 -0.0365623 0.0734113 0.0484374 -0.00456057 0.0276624 -0.0516883 0.0555543 -0.0293786 -0.0376478 -0.0628395 
0.0572379 0.0378075 0.0203064 0.0686656 0.0750444 -0.00172538 0.0474265 0.0581714 0.0652133 -0.0111326 -0.050868 0.0251676 0.044295 0.0609106 -0.015797 0.0339583 0.0132515 -0.0156571 -0.0740983 -0.0138113 0.0241504 -0.0658116 0.056146 -0.0696875 -0.0669508 0.0724409 -0.0645296 0.0111437 0.00502221 0.0700793 -0.017699 -0.0698899 0.0120869 0.00082657 0.0325241 -0.0471865 -0.0612291 -0.0152452 0.0476737 0.0506183 0.0371895 -0.0052038 -0.0668906 0.0671003 -0.0293474 -0.0204289 0.00717406 -0.0424471 -0.0326688 -0.0195067 -0.063133 0.0486499 -0.0369844 0.0122722 0.0736468 0.0687176 0.0511689 -0.0330273 0.0711651 0.0625615 0.00311499 0.0301521 0.0134658 -0.0560164 0.0538723 -0.039242 -0.0752331 -0.0667696 -0.0345892 0.0167213 0.0716164 0.0274613 -0.00638004 0.0037437 -0.0733513 -0.0145506 0.0720845 -0.000351841 -0.0634935 -0.00907619 -0.0517675 -0.0574443 -0.0596563 -0.0441503 0.0318622 0.050409 0.0187077 0.00359809 0.0705465 0.0070532 0.00974255 -0.0462113 0.0132781 0.0595144 0.056346 -0.0289117 -0.0271631 0.0234427 0.022814 -0.0518332 -0.0438471 0.0420689 -0.0314034 0.0475822 0.0114387 -0.0547241 0.0513886 -0.0183702 0.00235298 0.043498 0.0717316 -0.0750042 -0.00862638 0.0266413 0.0219405 0.0286525 0.0754212 0.0424935 0.0684221 0.0695793 0.0115564 -0.0500013 -0.0347299 -0.0156512 0.00212804 0.0565975 -0.0210046 -0.0726233 0.045874 -0.0716289 -0.0718201 0.0168725 -0.0291733 -0.0250001 -0.000982355 -0.00190724 -0.0187672 -0.0323401 0.00417633 -0.0715956 -0.0745277 -0.0433724 0.0648342 0.041725 0.0722432 -0.0256611 0.0583627 -0.0152416 -0.0142181 -0.0349168 -0.0192165 0.00226607 0.0279052 0.0562289 -0.0571215 0.0669191 -0.0277436 -0.0743949 0.0752582 0.00471274 -0.0207471 -0.0734906 -0.0288584 -0.0505556 -0.0157682 -0.0499511 -0.0198963 0.0596643 0.0112657 0.025443 -0.0505931 0.023323 0.0677677 0.0506003 -0.0550198 -0.0534596 -0.00737956 0.00915107 0.0717824 -0.0366449 0.00953021 -0.00344527 -0.0196645 0.0680425 0.0563988 -0.0576798 0.0546898 -0.056022 -0.0487515 -0.0590307 0.0530396 -0.01041 -0.0616192 -0.0352358 -0.0156334 0.0376384 -0.0247205 -0.0200834 0.0108647 0.0338011 -0.0171223 -0.051033 0.0601446 -0.0397347 0.0215481 -0.0120346 -0.0301428 -0.060344 0.0264491 0.00196528 -0.0179133 0.0228908 0.00750184 0.0545861 -0.0507129 -0.0301976 0.060759 -0.0526793 -0.0205376 0.0577587 0.0134285 -0.0553855 0.0107238 0.00648778 -0.0274669 0.0739132 -0.0564712 0.0450717 0.0431007 0.0302524 0.0110749 0.0253619 0.035102 0.0473485 -0.0621726 -0.06142 -0.0730991 0.00620896 0.067309 0.0418403 -0.0174218 0.0132668 0.00585848 -0.0218986 -0.0380415 -0.0547564 0.0289863 -0.0066351 0.0081901 0.00238397 0.0733666 0.0398528 0.00724554 -0.0714481 0.0608258 0.0111838 
-0.0542328 0.000857021 -0.0660715 0.0122306 -0.0461381 -0.044347 0.0581677 0.0478896 0.0196938 -0.00439437 0.000364752 0.070358 -0.055825 0.0642102 -0.0257054 -0.0640408 -0.072586 0.0538108 -0.055217 0.0531717 0.0456635 -0.0327226 0.0115606 0.0155566 -0.0206258 0.04041 0.05643 0.0711186 0.029928 0.0750232 -0.0488804 0.0710671 0.00569448 -0.0632394 0.0740236 -0.000865382 0.0628254 -0.0556714 0.0230228 -0.0614166 0.0689677 -0.00950015 -0.0134061 -0.0414044 0.0425045 -0.0359741 0.0725826 0.0656675 0.00676676 0.0205689 0.0546311 0.0231159 -0.0226093 0.0687056 -0.0405176 -0.0634132 0.0725922 0.0285122 -0.0237862 -0.0445554 -0.0671079 0.0119927 0.0479795 -0.0605257 0.012037 0.0381577 -0.0558764 0.019891 0.0388096 0.0394051 -0.0208991 -0.00640192 0.0184523 0.000203665 -0.0159933 0.0449208 -0.024799 0.0305014 -0.0597108 -0.0430029 0.0580431 0.0676903 0.00601796 -0.0664036 -0.0246778 -0.00689394 0.0706152 0.0480297 0.0191376 0.0441263 0.0162135 0.00320979 0.0654858 0.0350551 -0.0615756 0.0633815 0.0261247 0.040429 -0.0555191 -0.0183434 -0.0193552 0.0177031 -0.0210635 0.0606952 0.000196148 -0.0160864 0.0209554 0.0197173 0.0206008 -0.056898 -0.0556488 0.0687419 -0.0316669 0.000344565 0.0644144 -0.021681 0.0166197 -0.0200833 0.00127024 -0.0542495 0.0370596 -0.0575062 -0.045739 -0.0441153 0.0282836 -0.0391572 0.0440138 0.0533821 -0.00208382 0.0114729 0.0196999 0.0675576 -0.0679373 -0.0654983 0.0546181 0.0247576 -0.0441569 0.072483 -0.0475066 -0.000791289 0.0226688 -0.0526679 -0.0220575 -0.0617548 -0.0291155 0.0513999 -0.00927002 -0.0523099 0.0254723 -0.00635255 -0.00453769 0.0613379 -0.0220514 -0.0682124 -0.0667078 -0.0728918 0.0357322 0.050537 -0.0178346 -0.00634813 0.0430134 -0.0693178 0.0435356 0.0438649 -0.0440206 -0.0429698 -0.0536463 -0.00164521 -0.0291841 -0.0400548 0.0313813 0.0581219 -0.0359477 -0.0165406 -0.00684705 -0.0426968 0.0084442 -0.0552316 -0.0146993 -0.0118299 -0.0176126 0.00187005 -0.0482015 0.00835766 -0.0118661 -0.00720622 0.0690521 -0.0624799 0.0312365 0.0204856 -0.0685557 -0.0640147 0.0391545 -0.0438741 0.0543468 0.0124717 -0.067784 0.0351949 0.00826218 0.067372 0.00457401 0.0584214 0.0608622 -0.051114 0.0325252 -0.0256882 0.0230629 -0.00231592 -0.0725372 0.00831965 -0.0443695 -0.053933 -0.0717907 0.0145277 -0.00798871 -0.0533711 -0.0321998 -0.0178258 -0.0226216 -0.0311426 0.0476923 -0.0289544 -0.0507495 0.0756763 0.0625923 -0.0611333 -0.00465855 0.0523875 -0.051933 -0.00548076 -0.00493059 0.0716204 -0.068128 -0.00306952 -0.0511751 -0.0194991 0.0551967 -0.0491461 -0.0413827 -0.0147494 -0.0697188 -0.0420534 0.0641454 -0.065615 0.0107525 0.0507506 0.019498 0.00915243 0.0425492 0.0415981 0.033013 -0.00725691 0.0745906 -0.0512608 0.0425356 -0.0390035 
-0.0457788 -0.0424802 -0.0484279 -0.0479118 0.0610852 -0.0126802 -0.0629612 -0.0169453 -0.0610209 0.0281923 -0.0590208 -0.0571968 -0.0538597 -0.0601454 0.0277872 0.0522681 -0.0335333 -0.0718709 0.0335421 0.0607508 0.00752768 0.0564021 -0.070626 0.0531666 -0.0207643 0.0632463 0.0400184 0.0559807 0.0745019 0.0221681 0.0746701 -0.0248625 0.0251417 0.038044 -0.00232171 0.0513621 0.0304164 0.0285514 -0.016062 -0.0405653 -0.0611098 0.0293869 -0.0539099 0.052239 0.0203143 0.0305577 0.0398044 -0.0351573 -0.0408261 0.0695073 0.0496308 -0.0630687 -0.0428242 -0.0137964 0.00489221 0.00443343 0.000399848 -0.0363996 0.0468994 -0.0103553 0.0586374 -0.0726571 -0.0283031 -0.0343154 0.0327996 -0.0129192 -0.0717523 0.0241739 -0.0388379 0.0389349 -0.0467089 0.0733 0.0373222 -0.0618002 -0.00851033 -0.0549876 -0.0454585 0.0717929 0.0342181 0.0681947 0.0159727 0.0459263 0.014945 0.0197259 0.0221064 -0.0591695 -0.0235837 0.0317775 0.0740383 -0.0351686 0.00646691 -0.045392 -0.0333311 0.0532044 -0.00486572 -0.0529221 0.0346605 0.0690411 0.000330069 0.0685596 -0.0618953 -0.0498209 0.0457893 0.0258283 -0.024894 0.0686053 -0.0554129 0.0448977 0.035324 -0.0465679 0.0166171 -0.0576587 0.0537308 -0.0212457 0.068968 -0.0354224 0.0715279 -0.0178746 -0.0111412 0.0527868 0.0179133 -0.0756851 -0.0117254 0.0472674 -0.00894816 0.0283712 -0.0100126 -0.0576377 -0.012873 -0.0678808 -0.00354306 -0.0483911 0.0266714 0.0346188 0.0395927 -0.00747739 -0.000832661 0.0156088 -0.0199715 0.0158513 -0.0311306 -0.0312945 -0.0176561 -0.0356439 -0.0468822 -0.0726933 -0.0628616 0.0137277 0.0755606 -0.0135596 -0.0546889 0.0363983 -0.0549901 -0.031607 -0.0167387 0.0723467 0.0478548 -0.00575758 0.0371823 0.0427425 0.0568895 -0.0402128 0.0726624 0.0382418 0.0278797 -0.0327389 -0.035342 -0.00320664 -0.0729723 0.0518213 0.0303983 -0.0241592 0.0399032 -0.0638434 -0.0546809 0.0587311 -0.0609158 -0.00155629 0.05527 -0.0462828 0.00264581 -0.0339666 0.0723923 -0.0286605 -0.0493606 -0.0728436 -0.036492 -0.0325122 0.0137178 -0.0395573 -0.0458628 0.0682536 -0.0575445 -0.0725531 -0.0287314 -0.0462043 0.0278751 -0.0676436 0.0720329 0.018264 0.0030861 0.0204186 0.0176748 0.0260123 -0.0522075 0.0724631 -0.0393974 0.0670416 0.0220159 -0.0731652 0.0184435 -0.0576858 0.0296899 0.0160323 0.0678943 -0.005285 0.0315076 0.0128922 -0.0378083 -0.0679844 -0.0474354 0.050252 0.0355817 0.0437296 -0.0622931 0.0315062 0.0242381 0.0310378 0.0377148 -0.0125183 0.0240295 0.0400961 -0.0543903 -0.0115718 -0.0245569 0.0688658 0.0302443 -0.0278166 -0.0366205 0.0551526 0.0444035 -0.055165 0.0374845 0.0554063 0.0361494 -0.0151057 -8.001e-05 -0.0748949 -0.00209688 0.0548681 0.0560543 0.000758436 -0.0297535 -0.0141876 -0.0728514 0.0408437 
-0.0285716 0.054941 -0.0130342 -0.0483648 -0.0199056 -0.0472174 -0.0201553 0.0315946 -0.00442872 0.0557082 0.0151299 0.0487596 0.0572719 -0.0740065 -0.00730991 -0.0388098 0.0112976 -0.0375125 -0.063912 0.0522054 0.0658193 0.0158659 0.0502884 0.00807941 -0.0713722 0.0145182 0.0635267 0.0498868 0.0175825 -0.0537811 -0.0122849 -0.064518 -0.0725321 0.00987591 -0.046891 0.0175288 0.0749941 -0.0289099 -0.0337517 0.0587009 -0.0695778 -0.0560488 -0.0357621 -0.0673782 -0.0423732 0.0362012 0.0220218 -0.0752304 0.00243459 -0.0415408 -0.0548145 -0.00528863 0.024005 -0.00164178 -0.0302183 -0.0184806 0.0669176 0.0105122 0.0612459 -0.0630131 0.0586313 -0.0118723 0.0448771 -0.00287513 -0.0299209 0.0285073 0.0316643 0.0535458 0.042819 0.00169588 0.0091909 -0.0476851 0.0647237 0.0287533 0.0383654 -0.0497099 -0.0241225 -0.0439967 0.0708198 0.0315651 -0.019958 -0.0621138 0.0230264 -0.00125059 0.0426364 -0.0546152 -0.0752815 -0.0422191 0.0546859 -0.0647155 -0.0638642 -0.00893051 -0.0370826 0.0626157 0.0642599 0.0672087 -0.0170296 -0.0361238 0.00355334 -0.0572487 0.00385721 -0.0581195 -0.0286652 -0.0179704 0.0545083 -0.00734937 0.0629708 -0.0591891 -0.0749978 -0.0307005 -0.00713466 0.033969 -0.0710252 0.0488791 0.0743875 -0.0712102 0.0101018 0.0105654 -0.0484019 -0.0567014 0.0416922 -0.0245855 0.0639763 -0.00340742 0.0177664 0.0603343 0.00094835 -0.0296559 -0.0217555 0.0758776 -0.0198689 0.00484415 0.000178901 0.0389718 -0.0269664 -0.057581 0.0510996 -0.0304662 -0.017674 -0.00859615 0.00268039 -0.0158605 -0.0428432 -0.0635466 0.0172415 -0.0224604 0.0125681 0.0444181 -0.0696983 0.0574025 -0.0120982 0.0533009 -0.0395729 0.0452124 0.0527364 -0.0222161 -0.0117531 0.0674136 0.000763221 -0.0111528 0.0666711 -0.0222698 -0.0376683 -0.0623295 0.033351 -0.0550032 -0.0593515 0.0279484 -0.0739215 -0.0379125 0.0431017 -0.0375575 -0.0557542 0.00684496 -0.0630317 -0.0487189 0.00041521 -0.0155713 -0.0260035 -0.00431954 0.0178 -0.0666807 -0.0611206 0.074364 -0.00169963 0.0135776 0.00392537 -0.0576211 -0.0632618 0.0514032 -0.028295 0.045269 -0.0591566 -0.0482296 0.015336 -0.0579152 0.0074692 -0.0464621 0.0195649 -0.0687109 -0.0465548 0.0301715 -0.00529748 -0.049032 0.0606637 -0.0509299 -0.0522814 0.047884 0.00630705 -0.0229694 -0.0544225 0.0279731 0.0534284 -0.0652542 0.0701823 0.0560851 0.0585247 0.0290673 0.0581787 -0.0516166 0.0302764 -0.0503812 0.0285574 -0.0667872 -0.0153673 -0.00804566 -0.00443554 0.0157913 -0.0142656 0.0209775 0.0659406 0.0107161 0.0603173 -0.0438589 -0.0524839 0.0229566 0.0241106 0.0221187 -0.0462436 0.0542198 0.0259367 -0.00840935 -0.00471512 0.00393168 -0.0125032 0.0473687 -0.0336237 0.00559154 -0.0626846 0.0525869 -0.0190272 0.0732599 0.0138303 0.070258 -0.0231169 -0.047479 
0.0617654 0.0202437 0.0695662 -0.00603089 -0.00536747 -0.0376986 0.0325684 -0.0446671 0.0125808 -0.0203029 -0.0223582 -0.019937 -0.0199594 0.0272111 0.0405741 0.0420031 0.00805514 0.0701688 0.0169894 -0.00229142 0.0421111 -0.052783 -0.0724861 -0.0143786 -0.0489489 -0.0511822 0.071614 -0.0159096 -0.0266513 -0.0260283 0.0590919 0.0695157 0.0679302 0.0535006 -0.0264487 -0.00897768 0.058165 -0.0467259 -0.000424256 -0.06789 0.00672229 -0.0749987 -0.0271904 -0.0708292 0.0582231 -0.0706573 -0.000409439 0.0360493 -0.0295066 -0.0505851 -0.0582727 0.0145991 -0.0212627 0.0515199 -0.0718325 0.0297424 -0.0648766 0.0443953 0.012693 0.0711773 -0.0714607 0.00614826 0.0155177 -0.0515178 -0.0073505 -0.0126628 0.0254785 -0.00778377 0.0133464 0.0190159 0.036925 -0.0554129 -0.0254025 0.0448788 0.0636105 -0.0454986 -0.0103691 -0.0750685 0.0538137 0.0719717 0.0288442 -0.0684736 0.0128539 -0.0682035 -0.00115842 0.0402676 -0.036688 -0.0557068 0.00979048 0.0360212 0.0443031 0.0434201 -0.0145101 -0.0282781 -0.0221323 -0.0198417 0.0223266 -0.0227153 0.0611905 0.0254907 0.0335604 0.0729499 -0.0160863 -0.0479408 -0.0571952 -0.0334064 0.0280157 0.0385986 -0.072637 0.0120421 -0.0589342 0.0550779 -0.0022376 -0.0743602 0.0196377 0.0550415 0.0162122 -0.0256175 -0.0113588 0.0521741 -0.0488315 -0.042567 -0.0702041 0.064865 -0.0656961 0.0305553 0.0422363 0.0307893 0.0522547 -0.0151237 -0.0525584 -0.0713563 -0.0537832 0.000205055 -0.0214428 0.00140145 0.0654316 -0.021044 0.0168692 -0.0201403 0.0582495 -0.0297096 0.0275693 -0.0439541 0.0691829 0.0604772 0.0331193 -0.0541975 -0.0311355 0.00802257 -0.0695034 -0.0132579 0.0510142 -0.0668111 0.0741465 0.0132649 0.0656199 -0.0589797 0.0222557 -0.0468699 0.0481573 0.0616609 0.042904 0.015983 -0.0378127 0.00841858 -0.058161 -0.0754266 -0.042927 -0.0557598 -0.0283245 -0.0181708 0.00865507 -0.000825062 -0.0175563 -0.0425805 -0.0520415 -0.0530455 0.0281527 -0.0160341 0.0718398 -0.0183066 0.0622933 -0.00639372 -0.0552506 -0.0452082 -0.0734135 -0.0644144 -0.0575219 -0.0667778 -0.0104583 0.0449262 -0.0105169 -0.0272821 -0.0518335 -0.0426275 -0.0645801 0.0358334 -0.0148382 0.0730965 -0.0130755 -0.00957804 0.0428292 0.0228802 -0.0520305 -0.00874123 0.0670735 0.027971 -0.0654042 -0.0449895 0.0535939 0.0269158 0.00345355 0.002416 -0.024204 0.0446219 0.0272049 -0.0421715 -0.00403642 -0.0356941 -0.027339 -0.0211542 0.0668846 -0.0505617 -0.0550604 0.0579053 0.017543 -0.0722757 -0.0606534 -0.00175409 0.062876 -0.0726934 0.00248378 0.0574246 -0.0519523 0.0141178 -0.041869 0.0637225 0.0493906 -0.0523061 0.0663886 0.0332561 -0.0715877 -0.0414838 -0.0233103 -0.059678 -0.0474289 -0.00986726 -0.0372823 0.0720674 0.0572453 -0.0244245 0.0357841 0.0415584 -0.00982351 -0.0402629 
0.0685699 0.00237371 -0.0625957 0.0369108 -0.0663941 -0.0339816 -0.0423028 0.012751 0.0524202 0.00118151 0.0188322 -0.0341799 0.065721 -0.0717194 -0.0396056 -0.0678891 0.00687417 -0.00344554 0.0491635 -0.0713138 0.0495821 0.0561417 -0.0327917 0.0137089 -0.0560309 -0.0448375 0.0366647 -0.0301232 0.015348 -0.0247743 -0.0755524 0.029254 0.0271423 0.0254032 0.00607118 0.0156951 0.0101371 0.000325129 -0.0274884 -0.0681422 0.0632469 -0.0240603 -0.0259001 -0.0157822 0.00337275 -0.0127617 0.042654 -0.0536427 -0.028649 -0.0165844 0.0266334 -0.059682 0.00984497 0.036761 0.0167796 -0.0417383 0.0234419 0.0269598 0.0224424 -0.0170663 0.0566597 0.0309936 0.049513 -0.0406808 -0.0673279 0.0729577 0.0413934 0.0447208 0.020342 -0.0252151 0.0197316 -0.060997 0.00421619 -0.053322 0.01863 -0.0221427 -0.0122536 0.0141919 0.0449803 0.0119299 0.060616 -0.0239869 -0.0637557 0.0646984 0.0134282 -0.0617495 -0.0699538 -0.0512341 -0.0333367 -0.052911 0.0655567 0.0598536 0.0182077 0.0374758 -0.0514235 -0.00936375 -0.0734983 -0.0397679 -0.0319953 0.0145304 -0.0602164 0.065127 0.0529267 0.00572637 -0.0592977 -0.0541403 -0.069709 0.00456656 -0.0372834 0.0596546 -0.00327783 -0.00734348 -0.0618401 0.0678594 -0.00218792 0.0107088 0.00313789 -0.0756774 0.0395987 -0.0310463 -0.02096 0.0374959 0.0323275 -0.0296172 -0.0195012 0.0667461 -0.0536462 -0.0403228 -0.0119268 -0.0721513 0.051937 0.0144047 -0.0449332 -0.0142175 0.0494924 0.0189852 0.0450784 -0.000392406 -0.0659239 -0.026729 0.0646899 0.0311556 0.00821471 0.0532301 -0.0595046 -0.0298842 -0.0378462 0.0358474 0.00516929 0.0381642 -0.00338768 0.0556739 0.067868 0.044675 -0.0677061 -0.0632324 0.0430602 -0.0372347 0.0295238 -0.0441419 -0.00641172 0.0235504 0.0338427 -0.062579 0.0609415 -0.0292611 0.0348299 -0.00395579 -0.0222787 -0.047569 -0.022245 0.0584288 0.0283016 -0.023152 0.0749776 0.00104167 0.0247245 0.000501368 -0.0318111 -0.00234519 -0.0457602 0.0193547 -0.0429262 -0.0176034 0.0492724 0.0376866 0.0473676 0.0123131 0.0457658 0.0133552 -0.0504629 0.0373026 -0.0254881 -0.00608156 0.0536041 0.0524663 -0.0176498 -0.00932055 -0.0495102 0.0133303 -0.0264712 -0.0705616 -0.013183 -0.0625145 -0.00163995 0.0450014 0.0312956 0.0645942 -0.013599 0.0640482 0.0499626 -0.074443 -0.0714873 -0.0169351 0.0314905 -0.0732285 -0.0585617 0.0741685 -0.0226134 -0.0475376 0.0428152 -0.0235493 0.0152089 0.0431234 0.0724433 0.0477834 0.0751166 0.0401439 -0.0448013 -0.00339015 -0.0135904 -0.018744 -0.07305 0.0124537 0.0578489 0.0548362 0.0701281 -0.0653786 0.0750839 -0.0515312 -0.0307067 -0.073105 -0.0142259 0.0288747 0.00156496 0.0505118 0.0654072 0.0754241 0.0616712 0.0469497 0.0396882 -0.0438978 -0.0462872 -0.0570262 0.0551089 -0.0681019 
-0.0519515 0.0493566 0.00426116 0.0639952 -0.0228376 -0.00690598 -0.0435965 -0.0265848 0.0723921 0.0310572 -0.0572319 0.0511824 0.0540886 -0.00512456 -0.0276138 0.0734037 0.0252154 -0.00410875 -0.0639632 -0.00915428 -0.017727 0.0575655 0.0202843 0.0391981 0.0535819 0.0734191 -0.0178625 0.0467883 0.0514932 -0.00195988 -0.0321395 0.0197233 -0.0716864 0.0727063 -0.0373396 0.0261679 -0.0691623 0.0237373 -0.0689497 0.029216 0.0308505 -0.0202067 -0.0584932 0.0705591 0.0432412 0.00844802 -0.037084 -0.071451 0.010613 -0.0367771 0.0527816 0.0409536 0.0720157 -0.0307217 -0.00865497 0.00155842 0.0114155 -0.0385744 0.0121173 0.0369198 -0.0207566 -0.00792136 0.00188452 -0.0202206 0.000810534 -0.0420246 -0.00224794 0.0565336 0.0149557 0.0549172 -0.0579423 -0.0378428 -0.00134545 0.0498159 0.0472805 -0.0566896 -0.0360682 -0.0269036 -0.00162896 0.0282252 -0.0668064 0.0415714 -0.051187 0.0320318 0.019008 -0.0153392 0.056604 0.066936 0.0576494 -0.0423066 0.0410039 0.0116051 -0.00850775 0.00702959 0.0153639 0.0748218 -0.00442042 -0.0557215 -0.0103546 0.0205047 -0.0404395 -0.0510882 0.048327 -0.045588 -0.0106629 -0.0138161 -0.0649226 0.0293328 -0.0618433 0.0238291 -0.0562196 0.00216264 0.0377277 -0.0419847 0.017943 -0.0442485 0.0201965 -0.0209942 0.0645239 0.0242377 0.039832 0.0758521 -0.0613742 -0.0106148 0.0483161 0.00858683 -0.0269462 -0.00703204 0.000593753 -0.0436863 -0.0383906 0.046419 0.0234397 -0.0474711 -0.0541702 0.053394 -0.0548341 -0.0488793 0.052095 0.0272461 0.0615402 -0.0751419 -0.0254341 0.0522047 -0.0459037 0.075799 -0.0614156 0.063784 0.0582216 0.0081367 0.0431295 0.00966076 0.0499694 0.00856975 0.0007888 0.0354922 0.000785347 0.0240826 -0.0200692 0.0681882 -0.0446465 -0.0196043 0.0675094 0.0235134 0.0152248 -0.0464995 -0.00508835 0.0686135 -0.00760136 -0.060293 -0.0390561 0.0584443 0.0171046 -0.00760165 -0.00180776 0.0288211 -0.0655686 -0.006423 0.0434718 0.0354902 0.0363222 -0.0422747 0.0311671 0.0444748 0.0751829 -0.0516822 0.0104062 0.0388173 -0.0124118 0.0346244 0.0488294 0.0450455 0.0129744 0.00161264 0.0751094 0.0543038 0.044055 0.0715675 0.0177704 -0.0153178 -0.0698543 0.0758875 -0.0304437 0.0248311 0.0235682 -0.0334394 -0.0527556 -0.00735218 0.00303793 -0.00238087 0.0192272 -0.0713334 0.0158116 0.0752134 -0.072682 -0.0391448 0.018702 0.0155892 -0.0272392 0.0467804 0.0511523 -0.0486289 -0.0521906 0.0570688 -0.0296845 -0.0390819 -0.0393919 0.0233857 0.00989451 0.0469455 -0.0746295 -0.00343339 -0.0720517 -0.0736906 0.0323726 0.0369727 0.0717361 -0.0640326 0.0362187 -0.0120919 0.0430719 -0.00790936 0.0293694 0.0714119 -0.0622379 -0.0681114 -0.0135532 -0.0397759 0.0705198 0.00640639 0.0758658 -0.0358802 -0.0710064 0.0370746 -0.0498315 -0.00656482 
-0.0260344 -0.0634105 0.0200412 -0.0540715 -0.0394721 0.0509582 0.00184894 -0.0627069 -0.00975288 0.0435446 -0.0391903 -0.00962479 -0.0711513 0.00921058 0.013984 0.0415361 0.0481924 -0.0509897 -0.0618739 -0.00747498 0.0556724 0.0732429 0.0747687 0.0385205 0.0546178 -0.0405118 0.0508564 0.0456182 -0.00770882 0.0350065 -0.0633689 -0.00955168 0.0318024 0.0309273 -0.0186719 0.0470642 0.0568115 -0.0675463 0.0131545 0.0377915 -0.0305726 -0.0503574 -0.0647044 0.0750164 0.0106728 0.036549 0.0269211 0.00238451 0.0441924 -0.0526275 -0.0151135 0.0600621 -0.0195274 -0.0637243 -0.00540822 0.0708613 -0.0403628 0.0743457 -0.0719362 -0.0138861 0.0177654 0.0556204 -0.027159 0.024076 0.0158016 -0.01593 -0.0584091 -0.070564 0.0499555 0.0741366 0.0312245 -0.0421553 0.0444819 0.00409818 -0.0143156 -0.00469016 0.0129876 0.0686131 0.0365189 -0.050272 0.062644 0.0347584 -0.0730793 -0.0688568 0.0233503 0.0359095 -0.050659 -0.0528633 -0.0511727 -0.036077 -0.056612 0.0487286 -0.0738452 0.0631733 0.00883868 0.0241889 0.0730509 0.0581519 -0.040834 -0.00933404 0.0734074 0.0142834 0.0704091 0.0340748 -0.0251117 -0.0355289 0.0712871 0.0414182 0.0131185 0.0708619 -0.0661656 0.00851459 0.0455473 -0.0473046 -0.0596972 -0.0328478 0.0395556 -0.0472609 -0.0560817 0.00806938 0.024286 -0.0332501 0.0745848 -0.0316577 0.045263 -0.0556574 -0.00162648 -0.0726948 -0.0660493 0.0453893 0.0609063 -0.0444479 -0.0109341 0.056202 -0.0671215 0.0388795 -0.0564586 0.0543768 -0.0333817 0.046742 -0.0594342 0.0717194 -0.0320931 -0.0446783 -0.0405651 0.035211 -0.0564588 -0.0207281 0.000546573 -0.0132513 -0.00585965 0.0150089 0.0448187 0.0370749 -0.0680331 0.00243856 -0.0622258 -0.032488 -0.0268006 -0.0596647 -0.0550483 -0.0544838 -0.0140463 -0.0724659 0.0708218 -0.00160548 -0.0593131 -0.0283468 0.0730808 0.0699569 0.0214116 -0.024062 -0.0144003 -0.0420109 -0.009317 0.0440983 -0.0527861 -0.0385083 -0.0533082 -0.00739988 -0.0579695 0.0245459 -0.0488815 -0.0322567 -0.00985195 -0.0347466 -0.0190733 -0.0487311 0.0672025 -0.0166774 0.0732132 -0.0275985 -0.0185826 0.00752696 0.0312573 -0.0390124 0.0681273 0.00522067 -0.00594069 0.0162513 -0.0426323 0.00669414 0.0567634 -0.052189 -0.00459323 0.0154635 -0.0542711 0.0251248 -0.0285374 0.0193042 -0.00700674 0.047242 -0.0479074 0.0176594 -0.0606685 0.0483183 0.0161091 0.00534554 -0.0131704 0.0553141 0.011314 0.0682835 -0.0433496 -0.00706635 -0.0389831 -0.0421415 0.0152287 -0.0209614 -0.0135913 -0.0339214 0.0741892 0.0653815 -0.0121907 0.00531691 0.0331039 0.00379498 0.0372233 0.0748546 -0.0640629 0.010084 0.0273914 0.0396331 0.0635503 0.0157962 0.00701626 -0.00497965 0.0610131 -0.0359686 -0.05762 -0.00620282 -0.0163145 0.0475854 -0.000481467 0.0708188 -0.01524 0.0307894 
-0.0758024 -0.0315162 -0.0531878 0.0550503 0.0209975 -0.0318061 -0.019507 -0.0384389 -0.0467291 0.0616684 -0.0492632 -0.0222895 -0.0420842 0.0205445 -0.00479531 -0.0255671 -0.00336691 -0.0486257 0.0352174 -0.0646036 -0.0018899 -0.0238103 0.0525441 0.0514653 -0.011644 0.0683749 0.0171064 -0.0275147 0.0311034 0.0389629 0.0396109 0.0603188 0.000226724 0.0511226 -0.0532387 0.0472824 0.050618 -0.02915 -0.00141429 0.0068265 0.0324757 0.0235326 0.0377152 0.0121043 0.0188696 0.0107004 0.0735562 -0.0306579 -0.0633121 -0.0748948 0.056459 0.0525727 -0.0733522 -0.0666859 -0.0232842 0.0171523 -0.0660703 0.0555297 -0.0150325 -0.0652475 0.00301913 0.0132605 0.0701793 0.0202515 0.054466 -0.0506212 -0.0391958 -0.0598782 -0.00262119 0.0189248 0.0489652 -0.0529022 0.00231959 0.0728961 -0.0360098 -0.0145925 0.0647021 0.0332558 -0.00453176 2.71749e-05 0.0360362 -0.0430033 -0.00281861 0.00828672 -0.0258872 -0.00455581 0.0254017 -0.067024 0.0421565 0.0391011 0.0665335 -0.0237003 0.0635015 0.0644701 0.0741577 0.0123954 0.0219429 -0.0589334 0.0603234 0.0754628 0.0585254 0.0390399 -0.0623157 -0.0246278 -0.0520776 -0.0526115 -0.0382036 0.0150722 0.0369879 -0.0233191 0.000592927 -0.0586614 -0.075324 -0.0292949 0.0630674 -0.0615795 -0.0521806 0.00443799 -0.0325692 -0.0162627 -0.0501639 -0.0728668 0.0122798 0.0697748 -0.00793775 -0.00352589 -0.0315338 -0.0706993 0.0702141 0.0238566 -0.0462781 0.0640968 0.0443831 0.023722 0.0152432 0.0213778 0.0264318 -0.0216064 0.00775064 0.0380404 -0.0438379 0.0118226 0.0570454 -0.0431124 0.035627 -0.0735252 -0.0540576 0.0525554 0.00175283 0.0647828 0.0343398 -0.0542926 0.0589404 -0.0559511 0.0518843 0.0357867 0.0132736 0.0214563 0.0487938 0.0554342 -0.0680657 0.0511304 0.0487646 0.0154414 0.0394491 0.0143549 -0.0317992 -0.0395619 -0.0352477 0.0720306 0.0610583 -0.0361351 -0.00108649 0.0357163 0.0413725 0.0280715 -0.0721302 0.0678078 0.0518901 -0.0218436 -0.0706749 0.0340805 0.00726677 0.066094 -0.059498 -0.0404509 -0.0208734 -0.0447802 0.0011053 -0.05753 0.0588411 -0.0386502 -0.00971961 -0.00700769 -0.0530376 0.0278211 0.0646793 0.0607237 0.0586348 -0.0564146 -0.0115727 -0.028555 -0.00182713 0.0411971 0.0269295 0.0593471 0.0319158 -0.0756454 0.0406243 -0.00332165 -0.0413547 -0.0267294 0.0181722 -0.029365 0.066632 -0.0498782 -0.056606 -0.0754964 -0.035582 -0.0105627 -0.0313924 -0.0663457 -0.0582081 -8.52146e-05 0.066501 -0.068545 -0.00443902 -0.0292651 0.0117234 -0.0104496 -0.0193694 0.0244356 0.075862 0.0693793 0.0207086 -0.00516978 -0.0580319 -0.0160173 -0.0169142 -0.000326892 0.0593697 -0.0452943 0.0552576 -0.00423413 0.0614697 -0.0366855 -0.0296779 -0.0620075 0.0123643 -0.0296515 0.0168934 -0.0485797 0.016545 -0.0196263 -0.043962 0.0231383 
-0.0752176 0.0427725 0.0301885 0.0274619 0.0659978 -0.0198149 0.0407798 -0.0466302 0.0497986 -0.0718595 0.0210803 0.0211847 -0.0509244 0.0173962 -0.0186459 0.0603331 0.0102465 -0.0296098 -0.0758616 0.0208262 -0.0746571 0.0131274 -0.0582774 0.0580978 0.00968528 -0.0693827 -0.0182458 -0.0187081 -0.0519449 0.0396151 0.0420836 -0.0608122 -0.00461641 0.0431123 0.013748 -0.0460297 -0.0324924 0.0292724 -0.0514776 0.0717249 -0.025783 0.027609 0.0541759 0.0740496 -0.0656764 0.0310016 0.0264031 0.049773 -0.0321516 0.00451085 0.0682773 -0.0115697 0.00482574 0.0437475 -0.0196105 -0.0468041 -0.0510408 -0.0620312 0.0447791 0.00919869 -0.0119006 0.0712663 0.0331125 0.0579992 -0.0437527 0.00319249 0.0156477 -0.0255122 -0.00832109 0.0662618 0.0411709 -0.00250151 -0.0113113 -0.0265499 -0.0373571 -0.0624677 0.0718029 -0.0193472 0.0503795 0.0704105 0.0651071 0.0417464 -0.0276398 -0.0519615 0.0109948 0.0111254 -0.0689795 -0.00956851 -0.0445311 0.0649743 -0.0147114 -0.0350382 -0.0228521 -0.0728047 0.0159729 0.0231013 0.0516261 -0.0184545 0.0364898 -0.000600286 -0.065275 -0.022975 0.0247452 -0.0428702 -0.0306875 -0.0435523 -0.0337236 -0.017261 -0.025605 0.0270377 -0.0236871 -0.0721293 -0.0251103 0.0702919 0.00456437 -0.0411966 0.0195465 -0.0135512 0.031416 0.0582974 -0.0597487 -0.0744765 -0.0530315 -0.0753749 -0.0591501 0.0290106 -0.0413456 0.0180702 0.0468294 -0.0168032 -0.0448292 -0.0404127 0.00692451 -0.0313114 0.0187262 -0.034967 -0.0744698 -0.0756564 -0.0176386 0.0552317 -0.00250832 -0.0661532 0.0404392 0.0711022 -0.0111813 -0.0114182 0.0659453 0.0297992 0.0348628 -0.0654983 -0.0140164 -0.0132003 0.0252747 0.0300145 -0.0125054 -0.0725226 0.0185969 0.000943028 -0.0465552 -0.0243795 -0.0264137 0.0654518 0.0271847 -0.0567065 -0.0346244 0.03868 -0.0525425 -0.00855631 -0.0311694 -0.0591454 0.0392666 0.0226106 0.0683681 -0.0670126 -0.0134205 0.0675085 0.0406905 -0.00952748 0.000246799 -0.034248 0.071597 0.00481107 0.0660159 0.0295778 -0.0748541 0.0438283 -0.0055059 -0.061895 -0.0617246 0.0639568 -0.0509255 -0.0624032 0.0375583 -0.0173471 0.0629114 -0.00403545 0.0377844 -0.0631412 -0.0619338 -0.0617328 0.0174851 0.0403151 -0.0532115 -0.0040267 0.0389854 0.0367331 -0.0669307 0.0139262 -0.0677823 -0.0200667 -0.00921696 0.0218537 -0.0646508 0.018808 0.00057206 0.00938889 0.0738751 0.0739545 0.0745104 0.0656096 -0.0667628 -0.0095494 -0.0461879 -0.0427996 -0.0731997 0.0432742 0.00880168 0.0302545 -0.0558692 -0.0518907 -0.035763 -0.063841 0.0433568 -0.0689437 -0.0301111 -0.0283769 -0.0354188 -0.0324729 -0.0723363 -0.0139983 0.0708156 0.0715061 0.0623106 0.00378277 0.0256919 -0.029422 0.0608912 0.0514201 0.0740718 -0.0260009 -0.0748842 -0.0585402 0.0715238 -0.0342975 -0.0596253 0.0171924 
-0.0121499 0.0589032 -0.0307218 -0.0416798 -0.0451713 0.0559818 0.0219025 0.0753081 -0.010328 0.008118 -0.0381478 -0.0314297 0.00935258 2.52771e-05 0.0642624 -0.030347 0.0235076 -0.0715284 0.0218185 0.0363011 0.0680234 -0.0298595 -0.0352538 -0.0507529 -0.00455239 0.000809536 -0.0628926 0.0377406 -0.0354357 -0.010756 -0.0611456 -0.0155411 -0.0199465 0.0126291 0.0339535 0.0182043 -0.017686 0.0552763 0.0539846 0.0392848 -0.0400112 -0.0188543 0.00268832 0.0727931 -0.0191794 0.0353657 -0.0166245 0.0225617 0.0379056 0.0404142 -0.0694392 -0.0564854 -0.0198864 0.0267219 -0.0124664 0.0108233 -0.0240697 0.0228965 -0.0242546 0.0636286 0.0698009 0.0391879 0.0430428 0.0613722 -0.0185925 0.0385655 -0.0373513 -0.0616663 -0.0232396 0.0446328 -0.0393438 -0.0583807 -0.0516037 -0.0456195 -0.0418238 -0.00413775 0.0715342 0.00309117 0.0370931 -0.0448816 -0.0129746 -0.0600617 -0.0442778 0.0309245 0.0502795 0.0605372 0.0644024 0.0522417 0.0483146 -0.0358412 0.0494441 -0.0102597 0.0148256 -0.066761 -0.0283369 0.00872533 -0.0138948 -0.0714234 -0.00184377 0.0158308 -0.0112432 0.0452766 -0.0225104 -0.0631311 0.0748581 0.0197539 -0.0321251 -0.0136612 -0.0400616 -0.0458876 -0.0520787 -0.0319413 0.0334051 -0.0480762 -0.0701047 -0.0310182 -0.0201802 -0.0516911 -0.0608734 -0.0181131 -0.0602286 0.0600514 -0.0219482 0.0750226 -0.0429242 -0.0281757 0.0124623 0.0352204 0.0267019 -0.0702918 0.0604712 -0.0482577 0.00434579 -0.0509285 -0.0263641 0.0687116 -0.0733016 -0.0400314 -0.0213001 -0.0739787 -0.0171856 0.0443447 0.059726 0.0591021 -0.00472003 -0.0681262 -0.0542346 -0.0143095 -0.0538835 -0.0451204 0.0506986 -0.0685696 -0.0413674 0.05621 -0.0586418 0.0472034 0.00159129 -0.0402721 0.044056 -0.0143392 -0.0297635 -0.0101368 -0.0344222 0.0630409 -0.0211272 0.0052235 0.00402913 -0.0390712 -0.027939 -0.0608069 0.0581532 0.00342229 -0.015416 0.0120412 -0.0685641 0.0653834 -0.0449932 -0.00325521 0.0399522 -0.00862618 0.00559978 -0.0283301 -0.0679359 0.0646327 0.0253078 -0.0491143 -0.0126596 -0.0644304 -0.0212806 -0.0071922 0.0420083 -0.0350557 -0.0221742 0.0295571 -0.0401487 0.0170712 -0.0351245 0.0738971 -0.00853957 -0.0281101 -0.0552748 0.0139001 0.0406454 0.0745477 0.0584176 -0.0717456 0.0150722 0.0252387 0.0355613 -0.0368699 0.0180415 -0.0191441 -0.0451887 -0.0619791 -0.019217 -0.0749516 -0.0300233 0.032639 -0.00411354 0.00594479 0.0745669 0.0341972 0.057708 0.0714311 -0.00172814 -0.0487726 -0.00200437 0.013137 -0.0596351 0.0559309 0.0453234 0.0720255 -0.0616797 0.0690673 -0.0555266 -0.0626889 -0.022237 0.068903 0.0386478 -0.0511729 -0.0703276 0.0682709 0.0221534 -0.0207921 -0.00681871 0.00256321 0.0054862 0.00287111 0.0352435 0.0339488 -0.0344451 -0.0659031 0.0172742 0.0209622 -0.0499884 -0.0624757 
0.0208472 -0.0253638 -0.0213849 0.0434227 0.0259149 -0.0538958 0.0405923 -0.0673155 -0.00211796 -0.000302623 -0.00504066 -0.0417437 0.0592109 -0.00391207 -0.0638889 0.0104503 -0.0662213 0.0418165 0.0601562 0.0429912 -0.0341642 0.0488349 0.00533051 -0.0324494 -0.0544956 0.00992546 0.0434151 0.00452643 0.00871395 0.0218311 -0.0732346 -0.0576818 0.0607252 0.069058 -0.00324961 0.0455549 0.0448083 -0.0336994 0.0262565 -0.0567558 0.012601 -0.0480004 -0.0425529 0.0379887 -0.0259228 0.0736422 0.00939364 0.0308652 -0.0337411 -0.0194105 0.00611976 0.0611735 -0.0394655 -0.0306736 0.027722 0.036513 -0.0387143 -0.0358972 0.0438606 0.0479458 -0.0321925 0.00888553 -0.0151365 0.0146282 0.0136456 -0.0549633 0.053696 0.0152665 -0.0606943 0.0562456 -0.0642157 0.00853508 -0.00969883 -0.010428 0.00798663 0.0732042 -0.00605419 -0.0598559 -0.0617106 -0.0149174 -0.0661364 0.00678367 -0.0498117 -0.036228 -0.0604816 0.0566689 0.065252 0.0110781 -0.00479587 0.0419246 0.0285978 0.00491249 -0.0318686 -0.0216928 -0.0561902 -0.047865 -0.00194766 0.00855574 0.0256792 0.0477278 -0.0094687 -0.020518 -0.0501288 0.062339 -0.00846253 -0.0415127 0.01438 0.0666366 -0.0345558 0.0661167 0.0152031 0.053783 -0.00925985 -0.0716501 -0.023094 0.0596521 0.037816 0.0743684 0.0669351 0.0147991 -0.00699039 -0.0744757 -0.0557998 0.0381955 -0.00440705 0.0450488 -0.0516073 0.0331452 -0.0520769 0.0570774 0.0733032 -0.0696604 -0.0167183 -0.0127861 0.0245029 0.000728344 -0.0185715 -0.0275573 0.0077714 0.0413362 -0.0642346 0.0100029 0.0616321 0.0530049 0.00986572 -0.0737266 -0.050602 0.0246616 0.0188964 -0.011038 -0.0677332 0.0350347 0.0475385 0.0715179 0.0581551 -0.0185489 0.0128881 0.0583037 0.014474 0.040327 -0.0511305 -0.0119524 -0.0240003 -0.0375007 -0.067888 0.0535203 -0.0570304 0.0529723 -0.0514573 0.068466 -0.0273199 0.0572734 -0.0662105 -0.0755755 -0.0604527 -0.010168 -0.0604812 0.0239875 -0.0415419 0.0444166 0.039628 0.0375429 -0.0291415 -0.0577462 -0.021327 0.0217523 -0.0518111 0.0485034 0.075443 0.0735863 -0.0523715 -0.074432 -0.030839 0.0477503 -0.0597538 0.017859 -0.0697852 0.070362 0.0569788 0.000500654 -0.0651009 0.069815 -0.00243054 0.038783 -0.030574 -0.0499423 -0.0718044 -0.00228996 -0.0718096 0.0266358 0.0318613 -0.0646231 0.0426334 0.0484891 -0.0416655 -0.0281177 -0.0402243 0.0423885 0.0180474 -0.0338707 0.0253588 -0.0507986 0.00321132 -0.0295451 -0.0711357 0.0671261 0.0647186 0.0121471 0.0325027 0.0664519 0.0178523 -0.056763 -0.0356353 -0.013833 0.0446365 0.00067811 -0.0404833 0.0622426 0.0370904 0.0396261 0.0709865 -0.0091213 -0.0706195 0.0627284 0.0710899 0.00740779 0.0532524 -0.029398 0.0428319 0.012448 -0.0565554 -0.0451124 -0.0326651 -0.0049172 -0.0294069 -0.0296106 
0.00610778 0.00137597 -0.00302739 0.00806233 -0.0692902 -0.0412164 -0.0324341 0.0196597 -0.0250897 0.0281287 -0.0457252 0.0457151 -0.0198507 0.0411703 0.00200545 -0.0121884 0.0482754 0.0517406 -0.0515133 -0.0279976 -0.00229651 -0.0521952 -0.0720524 0.00994111 -0.0236042 0.0687859 -0.071612 0.00352507 0.0255882 0.00721097 -0.050213 0.0678075 -0.0206743 -0.00190541 -0.0664516 -0.0721508 -0.0670224 -0.0330793 0.0362565 -0.0351437 -0.0507413 0.0139241 0.0163281 -0.00207708 0.00719725 0.00247752 0.0121233 -0.0400741 0.0730726 -0.0414899 0.0630182 0.0368387 0.0711824 0.0136673 0.0505508 0.0146943 0.0133726 0.0609183 -0.0214762 0.0274728 0.0264456 0.0136208 -0.0745398 -0.044562 0.0677394 -0.0642341 -0.0630946 -0.0315999 -0.0161638 0.0405965 0.0330696 0.0541722 -0.0300909 0.0361137 0.0735248 0.015897 0.0520311 -0.00942169 0.060986 -0.0356727 -0.0308726 0.0324635 -0.00929267 -0.0245272 -0.0283909 0.0747842 -0.0623559 -0.0579665 -0.0646171 -0.0527615 0.0239062 -0.0132238 -0.0440094 0.0679291 0.000906212 0.0627033 0.024507 0.0542299 0.0232824 0.0688765 -0.0306119 0.0696479 0.0520153 0.0257593 0.0298534 0.01389 -0.0399087 0.0731224 -0.0164004 -0.0465409 0.0644089 -0.0442716 -0.02969 -0.0535605 0.00352701 0.03662 0.0644379 -0.0101348 0.0172038 -0.0638392 -0.00749059 -0.0070464 0.00693214 0.070636 0.0293024 -0.0319583 -0.0475263 0.00746812 -0.0651812 0.0535952 0.00210057 0.0350078 0.0641876 0.0238887 -0.0449542 0.0665375 0.0143951 0.0247475 0.0305229 -0.0709696 0.0693904 -0.0406818 0.00286593 0.0420619 -0.0194933 0.0535365 0.005314 -0.0323086 0.021184 0.00907289 -0.0285594 -0.0217529 0.0531106 0.0291868 -0.0394587 0.0720791 -0.0211874 0.039468 -0.0404166 0.0296156 0.0157761 0.0428492 0.0186666 0.0130133 0.068659 -0.0337263 -0.0327538 0.0726681 0.033752 0.0434859 -0.0360844 0.0171113 0.0193605 0.0472231 -0.0611466 -0.0147248 -0.0368189 0.00983022 0.0497305 -0.0514866 0.00347423 0.0503898 -0.0186924 0.0042521 0.00912888 -0.031615 0.0489997 0.0393316 -0.0749819 0.0759349 -0.0631524 -0.0229187 -0.0707548 0.0124151 -0.02002 0.0180282 0.0029651 -0.03003 0.0534541 -0.0495216 -0.0264518 0.0604452 -0.0272255 -0.0544848 -0.0295241 -0.066708 -0.00389402 0.0214358 0.0511942 -0.0476969 -0.0168661 0.000677188 -0.0150851 -0.0495914 0.0331786 -0.0222951 0.0182207 -0.0696289 -0.0368577 0.0689655 0.0439775 0.0439771 0.0423487 0.00211407 0.0219338 -0.0500189 0.0183537 0.0372338 0.0314084 0.00985241 0.0156045 0.00718951 0.0361127 -0.00873897 -0.0193265 0.059399 0.0570009 -0.0348996 -0.0268257 0.0695944 -0.0654607 0.0279608 0.026767 -0.0465253 -0.0240531 0.0477947 -0.0591901 -0.0678049 -0.0229211 0.00115931 0.0125997 0.0163698 -0.0522749 -0.0354299 -0.0300585 -0.00451709 
0.0380769 -0.0740566 0.00876785 -0.0366823 0.0257575 -0.00858142 -0.0434631 0.012501 -0.0694886 0.0731152 -0.0231532 -0.0168873 -0.00703989 -0.0110417 -0.00101439 0.00861492 -0.0140376 0.038882 -0.0647403 0.0115281 0.0129781 -0.0661133 -0.0301601 0.0198297 0.00283049 0.0494148 0.0489922 -0.0565747 -0.0666598 0.00372686 -0.0193624 0.042447 0.0737107 0.0535849 -0.0455262 0.0495284 -0.0563809 -0.0717487 0.0386805 0.005713 -0.0245526 0.0224972 0.0743178 -0.0533761 0.0702118 -0.00374061 -0.0479796 -0.0505144 -0.0160162 0.0130037 -0.0751382 0.03325 0.0113019 0.0696486 0.0574027 0.00948282 -0.0482884 -0.0206319 0.0635276 0.0659972 -0.0345988 -0.0666786 -0.00789221 0.0505455 0.0115987 -0.0563469 0.0676834 -0.0529866 -0.0137653 0.00388516 0.0461378 -0.0361241 0.0711402 0.0484816 -0.0498929 0.0432821 0.0104173 -0.0157455 -0.0742746 -0.016026 0.0735124 0.0717868 0.0326568 -0.0469841 0.053119 0.0120416 0.015309 0.0548412 -0.028631 0.0731637 0.0253298 0.0331709 -0.0604793 -0.0139533 0.0398728 0.0283876 0.0413512 0.0115957 0.0118493 -0.0709775 -0.0557949 -0.0742754 -0.069511 0.0443177 0.037916 -0.0381168 -0.0575179 -0.0503548 -0.0208878 -0.0372034 -0.0037615 0.0647051 0.0665623 -0.00371963 0.0336063 0.00558497 0.00608131 0.0524399 0.00520874 0.0323936 -0.0339285 -0.071828 -0.0132589 0.0186888 -0.0398774 -0.037629 0.0187844 -0.0706291 0.00184104 0.0236635 0.0288851 -0.0133628 -0.0735636 0.0597578 0.0488815 -0.0397426 -0.014126 0.0640989 0.0385898 -0.0103299 -0.0558047 -0.0279854 0.00129152 0.0585525 -0.0147455 0.0589153 -0.0162534 -0.0205221 -0.0346752 0.0527063 0.037695 0.072675 -0.0350834 0.0117734 0.0735508 -0.0458608 -0.00805941 0.0370428 -0.0397479 0.0498362 0.0128359 -0.00871376 0.0692809 -0.073566 -0.0676995 0.062972 -0.0225459 -0.0437308 -0.0508197 0.00365325 0.0539771 -0.0318327 0.037054 -0.031319 0.0423011 0.0560427 -0.0122751 -0.0481819 0.0309995 -0.0648245 0.0478027 0.0145331 -0.059538 -0.0166526 0.0263882 -0.0287341 -0.0471078 0.0606428 0.063346 0.0352018 0.0185756 0.0556651 0.0671096 -0.0233912 -0.0645243 0.0645658 -0.00500633 0.00732484 -0.032965 -0.0568948 0.0639637 -0.0519392 -0.0389653 0.0498583 0.0721533 0.0343587 -0.027547 -0.0438174 0.0465907 0.040503 -0.013856 -0.0437761 -0.0493729 -0.0415062 -0.0243844 0.0168382 0.0424297 0.0340276 0.0604268 0.0638637 0.0573908 -0.0382211 -0.0114776 -0.0368487 -0.0365649 -0.0719813 0.0123556 -0.0403275 -0.0307712 0.0162404 -0.047298 0.046532 -0.06509 -0.0182074 -0.0283416 -0.0679473 0.027161 -0.0248049 0.0421172 0.0439499 -0.0474516 -0.0547986 -0.0489977 0.0106213 0.0634512 0.00685019 0.0678816 0.0448868 0.0453731 -0.0643612 -0.0071816 0.0552924 -0.0244159 0.0290617 -0.0444391 0.0500155 
0.0578614 0.024007 0.00950755 -0.0184715 -0.0638311 0.0631518 -0.0671317 0.0195945 0.00119009 0.0543219 0.0105991 -0.0538968 0.0338453 0.0266435 -0.00600155 -0.00404542 -0.023128 0.0513042 0.0290969 -0.0722678 0.0629498 0.0207255 -0.0654726 0.0545709 -0.0381594 0.0286617 0.054898 0.0173766 0.0356354 -0.0627653 -0.0202612 -0.0616459 0.0568953 -0.0633717 0.0449933 -0.00756781 -0.00877921 -0.0202569 -0.0738425 0.0415899 0.0334725 0.0447618 0.0441948 0.0676603 0.0645919 0.00415712 -0.0329463 0.00576586 0.0152076 0.0741834 -0.0204914 -0.0635081 -0.0186371 -0.0714349 0.0639196 0.0172058 -0.0302593 -0.0382404 -0.0196581 -0.00730954 0.0443607 0.0219888 0.0228288 -0.0345549 0.0377529 -0.000539115 0.0457059 0.031512 -0.0681442 -0.0239352 0.047841 0.0586286 0.0744937 0.05113 0.0612348 0.0250601 0.0467579 0.0493277 0.00326921 0.021528 -0.00724733 0.0712784 -0.0749369 0.0342606 -0.0458366 0.0597177 0.00101116 0.0148146 -0.0690119 -0.0111297 0.0302684 0.0367807 -0.0482468 0.0693366 -0.0671325 -0.0076774 0.0240948 -0.0558822 0.00957358 -0.000985109 -0.0438641 0.0459976 -0.048164 -0.0334228 -0.0617127 -0.0391884 -0.0694057 0.0452966 0.0718974 -0.0409333 0.018149 -0.0522078 -0.0747014 -0.0517494 0.015746 0.0579908 -0.0120259 0.0190144 0.0306495 0.062244 0.0722771 0.0117103 -0.0155143 -0.0652726 -0.0310258 -0.0662494 -0.0313992 0.0487788 0.0500404 0.069328 -0.0750162 0.0687875 0.0321897 -0.0686051 0.0727895 0.0679976 -0.0597497 -0.0114554 -0.0480414 0.0258521 0.0675907 -0.02758 0.0357829 -0.0286502 -0.046114 -0.0216022 0.00744395 0.0167137 0.0605083 -0.0745781 -0.0266659 -0.0609476 -0.0144762 -0.0609075 -0.0198933 0.0334259 -0.0152525 0.056436 0.0519116 0.0422146 -0.0256132 -0.0307182 -0.0581431 -0.0506064 -0.0473073 -0.0360649 -0.0651334 -0.0445351 0.0090905 -0.0292444 0.0376856 0.006407 -0.0538233 0.0220233 0.0345782 -0.0484424 -0.00418987 -0.0746645 0.0348956 -0.0157794 0.0321264 0.00973984 0.030269 0.0594444 -0.0223806 0.0539849 0.00214105 0.0700206 -0.0582902 -0.0731499 0.0614478 0.0347911 -0.0470919 0.0730349 0.00193759 -0.0723312 0.00956618 -0.0121386 0.00288966 -0.0351545 -0.0507408 -0.0310229 0.023065 -0.00465883 -0.0359015 -0.0728019 0.0416702 -0.0155395 -0.0273234 -0.0336519 -0.00194899 -0.0207362 0.0478451 0.0313234 -0.0391086 -0.0381584 0.0574168 0.0107721 -0.0672993 -0.0648121 -0.0465638 -0.0402015 0.0616095 -0.0469888 -0.0601757 -0.042452 0.0662004 0.00831818 0.00287672 0.0116122 0.0633068 -0.0291878 -0.0170606 0.0421616 -0.0228549 0.0432974 0.0298 -0.0718924 0.0517923 0.0142664 0.0289123 -0.0108331 0.0544844 0.0495321 0.0143933 -0.04636 0.0229593 0.0300835 0.0219217 -0.0435587 0.00991153 0.0183767 0.0382833 0.0590881 0.0137557 0.0223764 
0.0381635 0.0421263 -0.0562967 0.071233 -0.00645676 -0.00394139 -0.0205314 -0.0119018 -0.059808 -0.00402597 0.0359238 -0.0733015 -0.0609888 -0.0241006 0.031057 0.0578886 0.0539621 0.0627506 -0.0424232 0.0759244 -0.0520194 -0.0731492 0.0716576 -0.0495233 -0.0224387 -0.0395351 -0.00597473 0.0297521 0.0661802 0.0381041 0.000947793 0.0228964 0.0384748 0.0746326 0.0315132 -0.0420562 -0.0539311 -0.0127853 0.0146061 0.0135893 0.0530758 0.0202179 -0.0107678 0.0093457 -0.0357954 0.0636132 0.0146106 -0.0602643 -0.00284887 -0.0598645 -0.00299834 -0.0089337 0.0504525 0.0465783 0.0692258 -0.0429758 -0.0556512 0.060921 0.0615553 0.0268484 -0.0308839 -0.0151122 -0.0626183 -0.0162788 -0.0319664 -0.0213451 -2.06357e-06 0.0347471 0.00686744 0.0583887 -0.0435224 0.0727509 0.033865 0.0097483 0.0455866 -0.0176873 -0.0595342 -0.00639987 -0.0635159 0.0739471 0.0338417 -0.0656046 0.00601692 0.0495284 0.0229063 0.0687826 0.0234047 0.00563684 -0.0333912 -0.0135195 0.0413388 -0.0573061 -0.000477066 0.0400399 -0.0241716 -0.0137816 0.0384779 0.00190845 0.0556182 0.00556528 0.00572144 -0.0143525 -0.0420928 0.0251439 0.0472314 -0.052298 -0.0500297 0.0127724 0.0539424 -0.0527517 0.0144929 -0.0194836 -0.0162509 0.0274098 0.00673053 -0.00483683 -0.0183985 0.0669521 0.0636171 -0.0545802 0.00168437 0.0426482 0.0415003 0.023725 0.0740206 -0.0280912 0.044117 -0.0245248 -0.0281731 0.0277141 0.0454113 -0.0462848 0.068652 -0.0515791 -0.0129472 0.074484 -0.00619715 0.0308947 0.0184992 -0.0388607 0.0494795 0.0190777 0.00473669 -0.0592533 0.0509709 -0.00697893 0.0663017 -0.0660902 0.014439 -1.93592e-05 0.0244158 -0.00584169 -0.00628773 0.025358 -0.00159127 0.0392516 -0.0618326 -0.0165593 -0.0185924 0.00292523 0.0386741 0.0122148 0.0046048 -0.0671357 -0.0064046 -0.0736817 0.00723984 0.01697 0.0331414 0.0715506 0.00420828 -0.0695581 0.0148263 0.00320846 0.0688398 -0.0553343 -0.0114554 0.0212437 0.0379823 -0.0041121 0.00332433 -0.0661202 -0.0615555 -0.0691619 0.0410238 -0.00953498 0.0202703 -0.0197921 -0.0514449 -0.0657985 -0.0535267 0.0721479 -0.0339976 -0.0159198 0.00252143 -0.0286802 0.0481875 0.0328166 0.0247756 0.033642 -0.0756602 0.00807996 -0.0110545 0.0248642 -0.0197429 -0.00741293 0.00573703 0.0110428 0.0610241 -0.0536888 -0.00758769 0.00246077 0.0624986 0.0296737 0.033955 -0.0476071 0.0222262 -0.0186777 -0.0267224 -0.0264509 -0.067427 -0.0212619 -0.0044061 -0.0742604 -0.0161917 0.00893536 -0.0313198 0.0434931 -0.0374052 -0.0219704 0.00386694 -0.0119957 -0.0203512 0.0542676 -0.00492927 0.00252121 -0.0560292 -0.069548 -0.00852588 0.0681256 0.0536956 0.0491997 -0.0575275 -0.0513513 -0.0712203 0.0386756 -0.0634403 0.0495015 0.000490201 0.0374336 -0.015902 -0.0741697 -0.0234303 0.0277948 0.00141321 -0.058252 
0.0342429 -0.0192044 -0.0472812 0.0374862 0.0735013 0.0603485 0.0369071 -0.0638421 -0.00248373 0.0136105 -0.0700438 0.0434381 -0.0688073 0.0613254 0.0248934 0.0256285 -0.0141974 0.0293045 0.0307125 0.00235298 0.0267763 -0.0485663 0.0177665 -0.0532419 -0.0235886 0.0503553 0.0159894 -0.051549 0.0243325 0.0678324 -0.00829518 -0.0752195 0.0151358 -0.0715226 -0.0495373 0.032291 -0.073527 0.0354668 0.068712 0.00112378 0.068364 -0.0725669 0.0440909 0.0433069 0.0547437 0.0563061 0.00876856 0.0737811 -0.0139609 -0.043255 -0.0177339 0.0438653 0.0133165 0.0750014 0.0659701 -0.0124494 0.0652119 -0.00857485 0.0222541 -0.0571209 -0.0149664 0.0117819 0.000342481 0.0509469 -0.0137207 0.0445495 0.0639502 -0.0595114 0.0365693 -0.0708139 -0.0632927 -0.0426496 -0.0225232 -0.00889065 -0.0681029 0.0193313 0.0581764 -0.0510067 0.0725045 -0.0207664 0.0212669 -0.0308302 -0.0593273 -0.00961558 0.0209099 -0.0175342 0.0733278 0.0589366 0.0463461 0.0337179 -0.0428095 -0.0380098 -0.0374765 -0.0707544 0.0396837 -0.00128008 0.0231698 0.0414546 -0.00519243 -0.0216297 0.0352459 0.0304566 -0.0355108 0.0415738 -0.0493935 0.0705943 -0.043124 0.0277958 0.0243411 0.0698536 0.0503473 -0.0251903 0.0547187 0.0225173 -0.00899856 -0.0356013 0.0704197 -0.0411736 -0.0578883 -0.0092363 -0.0398364 -0.00459938 0.0590883 0.0441395 0.0556551 0.0640284 0.068281 -0.0623165 -0.050449 0.0109847 0.0319883 0.0664635 -0.0302103 -0.00543043 0.0676706 -0.0106634 0.0112248 0.0443729 0.00786338 -0.0182635 0.00752626 0.0298878 -0.00319412 -0.0122757 0.0374797 0.0496085 -0.0413004 -0.0187059 -0.0734534 -0.0637454 0.0385324 0.0564656 0.00796015 -0.0393082 0.0734129 0.0559239 -0.0234016 -0.0234693 -0.0475422 0.042285 -0.0742965 0.042916 -0.0542689 0.034231 0.0474857 -0.0189253 -0.0394172 -0.0695648 0.0709217 -0.0212871 -0.0504467 -0.0362098 0.0739255 -0.0122028 -0.0435062 0.0608599 0.0410846 0.00359264 0.0299379 0.0647139 0.0679354 0.023007 0.0133805 0.0242618 -3.0239e-05 0.00322221 -0.0183327 -0.0511222 -0.0041749 0.0436957 -8.7976e-05 -0.0533383 0.0225498 0.0470961 0.0469741 0.00176034 0.065851 -0.063531 0.0425686 -0.00722369 0.00259669 -0.00738518 0.0358944 0.00140048 0.048005 0.0456292 0.0267979 -0.0640332 -0.0634077 -0.0198141 0.0149572 -0.00519401 0.0730884 0.0665551 0.0243294 0.0446996 0.0756369 0.0191631 0.032454 0.0594503 -0.0203903 0.0626145 -0.054592 -0.0336667 -0.0158978 -0.0170167 -0.0702926 0.0405574 -0.0309937 -0.0649527 0.038091 0.0218751 0.00222402 0.0351635 0.024012 -0.00396933 -0.030929 -0.0676797 0.0405908 -0.0298053 0.0565225 0.0717351 -0.0607693 0.00452821 -0.040469 -0.00456116 0.0422284 -0.0385571 -0.0745139 -0.0684685 0.019966 0.0652981 -0.0182528 0.04753 -0.00350106 0.0281266 
0.0383022 0.0421362 -0.022427 0.0320265 0.0141381 -0.0195389 -0.0441276 0.0010653 0.0503921 0.0641175 0.0284719 -0.0237537 0.0677847 0.0331702 -0.0176114 -0.0598079 0.0269438 0.0717707 0.0418995 -0.0279826 -0.073067 -0.0350501 0.0293897 0.033408 -0.0061532 -0.0141686 0.0245575 0.00404555 0.0395885 -0.0527414 0.0307704 0.0714364 -0.0226809 -0.00771496 -0.0499561 0.058641 0.0524749 -0.0154239 0.0378889 0.0345842 -0.0169321 -0.00631279 0.0035805 -0.000817087 0.0562767 -0.0337483 0.0195002 0.0441936 0.00105688 -0.0122166 0.0252128 -0.0401533 -0.0586495 -0.0713045 0.0661306 0.0574214 -0.000862229 0.00911834 0.0572824 0.0211195 -0.0680994 -0.0568847 -0.00677447 0.063113 -0.0135053 0.0164414 -0.0266149 -0.038674 0.0428891 0.0599074 0.00187048 0.0362403 -0.020699 -0.040958 0.0475247 -0.031826 0.0481005 0.0188874 -0.00663249 -0.0567304 -0.0246453 0.0167288 0.0459155 -0.0171322 0.00867453 -0.0438815 0.00980146 0.0109672 -0.00953887 -0.0122103 0.0105181 -0.043262 -0.0512643 -0.023357 -0.0216135 0.0544373 -0.0133654 0.0487098 0.0286189 0.0345635 0.0383893 0.0624413 -0.0153228 -0.0164492 0.0138809 0.0248616 -0.0695289 -0.0212764 -0.000270389 0.0537995 -0.0313302 -0.00237604 -0.0122219 0.0117883 -0.0287141 0.0578806 0.0603967 0.0735563 -0.0162666 -0.0366613 0.0658165 0.0181757 -0.0470302 0.0710663 -0.0266143 0.0058461 0.0703776 -0.0109207 0.0454755 -0.00761507 -0.0470989 0.0346921 0.0236492 -0.0353151 -0.000166281 -0.0207928 -0.0370411 -0.0613927 -0.0168691 0.00185637 -0.0106078 -0.0302427 0.0653613 -0.0176235 -0.0508324 0.068684 -0.000281991 -0.0323945 0.0440036 -0.0366902 -0.00746446 0.0411719 -0.000954621 0.0673094 -0.0137225 0.021899 0.0216807 -0.0641318 0.0749661 0.0584155 0.0720564 -0.00516199 -0.0275356 0.0746769 -0.0756125 0.0339806 0.0698354 -0.065357 0.0448925 0.00361902 -0.0724072 -0.0519879 -0.038585 0.0607394 -0.0598892 -0.0758415 0.0510669 -0.0323413 -0.0490944 -0.0324904 -0.00945283 -0.0186793 0.0605813 0.0716778 -0.0632273 -0.0736847 -0.0171816 0.0089739 -0.0737559 -0.0439982 -0.0677926 0.00712142 0.0739073 0.0674441 0.0609239 -0.072313 0.0266208 0.0358236 -0.0217136 -0.0694389 0.0442099 -0.0740547 0.0384111 0.0233783 -0.047538 -0.0690817 -0.0334023 0.0108209 -0.0145425 0.00958011 0.00252777 -0.0155608 0.0560546 0.0104781 0.0231512 0.00318937 -0.059976 -0.0516392 0.059426 -0.0748556 -0.0117615 -0.000985974 -0.0743698 0.0291955 -0.0629297 0.0316869 0.00833927 0.0639116 0.0348925 -0.0239233 -0.0582674 0.055175 0.0557577 0.0508396 -0.0148186 0.0151867 0.0115331 0.0323485 0.031441 -0.0578492 0.0274215 0.0747751 -0.0454045 0.0409515 -0.0692072 0.0666803 -0.023258 -0.0658085 0.0729481 0.0345108 0.039313 -0.0747454 0.0641307 -0.0573337 0.00509575 0.0131766 
0.0109344 0.0491419 0.115001 0.0718367 0.0416411 0.0454104 0.00803585 -0.0427157 -0.00384758 -0.0147616 0.0891014 0.0319861 0.0969317 -0.0502474 -0.0006935 -0.0361039 -0.0437358 0.034061 -0.0268106 0.0764293 -0.0605003 0.0192747 -0.090964 0.0553157 -0.0184272 0.07855 0.0239613 -0.0400206 0.0159545 0.0217583 0.0406975 -0.0455079 -0.0164614 -0.0101743 0.0136741 0.0113365 0.00845538 -0.0695121 -0.0535178 0.0211769 0.02326 0.0922259 -0.0145578 -0.0429868 0.0276258 0.0151427 -0.0559512 -0.0532852 -0.0204894 -0.0424082 0.00263486 -0.0472068 0.0668969 0.0786543 0.0321987 -0.0812586 -0.0315755 -0.0210734 -0.114699 0.0463575 -0.100337 -0.0440439 0.0713414 0.0379965 0.0458177 0.0261885 0.0394703 -0.0687494 -0.0696946 0.0484958 -0.00178057 0.017693 -0.0265621 -0.0158717 0.0267434 0.0426437 0.0967964 -0.0923999 0.0356923 -0.0120322 0.0952859 0.0291331 0.0873918 0.030674 -0.00576779 -0.0702814 0.0579865 -0.00184323 0.0870552 0.0904122 0.0121235 0.121746 -0.0510267 -0.00317098 0.0350459 0.0708478 0.0727867 -0.116425 -0.0478679 0.0422124 -0.0585955 -0.10997 -0.0676492 -0.0301023 -0.0633047 -0.0203812 0.0244648 0.00696496 0.0179839 -0.0850629 0.0450272 -0.00570993 0.0483986 0.0352283 -0.0444481 -0.0224833 -0.0663822 -0.0389424 -0.0787115 0.113096 -0.0606009 0.0847625 0.010276 0.0472622 -0.0461276 0.0717977 0.0481257 -0.021819 0.0149852 -0.0750058 -0.0409652 0.105203 -0.0258986 -0.0452808 -0.0688458 -0.0306363 0.000314578 -0.025756 0.0558533 -0.0555708 -0.0137218 -0.0205545 0.107252 0.00156458 -0.0416171 0.0031093 -0.115723 -0.00893469 -0.0952473 -0.0250752 -0.0161756 0.0428127 0.116874 -0.0232466 -0.0667728 0.00243563 -0.0723233 -0.0412656 0.00532113 0.0719066 -0.0501144 0.0103084 -0.027431 0.0016316 -0.0449148 -0.0336507 -0.0446325 0.10857 -0.0492396 -0.0712344 -0.0163284 -0.000886601 -0.0551184 -0.0357882 0.0108158 0.0699335 -0.074795 -0.112342 -0.0569033 1.39635e-05 0.0418871 0.0755637 0.018665 0.0916907 -0.092346 0.0221471 0.0548905 -0.119697 -0.0700914 0.0972863 -0.0298248 0.0140956 -0.072835 -0.029277 -0.00767665 0.041593 -0.0638617 -0.0589885 -0.0390148 0.0509933 -0.0132503 -0.083169 0.0552217 -0.0145123 -0.0360183 -0.039599 -0.0468235 0.0119637 -0.0741447 0.0115017 0.0526236 0.0142945 0.00555703 -0.0668292 -0.0166938 0.0177116 0.00997735 0.0630547 -0.0278913 0.010535 -0.0186266 -0.0227678 0.101778 -0.0549266 0.021698 -0.0128168 0.00578167 0.0326205 -0.00507465 -0.058844 0.0368823 -0.0118725 0.0510432 -0.0199945 0.0725917 -0.00786457 -0.0564261 -0.103135 -0.00740644 -0.0458482 -0.0203366 0.0211226 0.0341078 0.0583131 -0.0286551 -0.079064 0.0594289 -0.00106385 0.0480323 -0.104589 0.105557 0.0245473 -0.0177267 0.0281725 0.0341642 0.01375 
-0.0559549 0.0285254 -0.0388921 -0.00688159 0.0165433 -0.0193532 -0.0384699 -0.060287 -0.0512858 -0.118464 0.0251081 -0.036089 -0.00647854 0.093542 -0.0345602 0.0409194 -0.0526823 -0.0416894 0.0551884 0.0213685 -0.0712613 0.0429611 0.0252616 -0.0254676 -0.0581588 0.0774185 0.0538689 0.0138236 -0.0256645 -0.00761135 0.0388318 0.0453561 0.0594483 -0.0156676 -0.0677842 0.0227803 -0.0198092 -0.0668957 -0.0755056 0.0109178 -0.0677447 -0.0470313 -0.0456817 0.0188859 0.00689525 -0.0414987 -0.0430565 0.0566884 -0.0308896 0.0175628 0.0834038 -0.054944 0.0816201 0.0244198 0.0324175 -0.0769485 0.0252678 -0.0468475 0.0415185 0.032525 -0.0125414 -0.046199 -0.0752034 -0.0434242 -0.0543262 0.0756582 0.0071053 -0.00131604 -0.0159577 -0.0159428 -0.0265808 -0.0735586 -0.0142078 0.0693833 0.0673775 0.0684303 0.0567208 -0.000597581 0.0275017 -0.0185172 0.034405 0.0307474 0.0349883 0.0422352 -0.0229013 0.0392146 0.0697503 0.0224127 -0.04315 -0.0365353 -0.0280379 -0.038284 0.023455 -0.0124839 0.0361971 -0.00384162 0.0174074 -0.0308691 0.049173 0.0850831 0.0513873 -0.0577684 0.0081857 -0.0342997 -0.0258901 0.0332817 -0.0699767 0.0183437 0.0957719 -0.0254473 0.0642003 -0.022454 -0.0130658 0.0469847 -0.0725852 0.0469529 -0.0431744 0.0235286 0.00700897 0.0437913 0.0161475 0.0141503 -0.046505 0.0341168 -0.0475525 0.0760217 -0.00711352 0.0223914 0.0737372 -0.0331551 -0.04404 -0.00763596 -0.0486308 -0.0415076 -0.0606063 0.0702861 0.0266549 0.0240695 -0.00506538 -0.049021 0.0217864 -0.0565589 0.0994105 0.026387 0.0405076 0.0636432 -0.0683252 -0.0373345 -0.0106701 0.0143922 0.0685255 -0.00489599 0.103312 -0.0830201 -0.00442534 -0.0390508 0.0127732 -0.0715548 0.0165616 -0.0738553 -0.0647831 -0.0425384 -0.0316821 0.0590844 -0.038373 -0.0599003 0.0456953 0.00172106 0.0398175 0.0278106 -0.00173178 -0.0252291 0.0681321 -0.0544823 -0.0235604 -0.0150675 -0.0322424 -0.0461438 0.0335001 0.0284713 0.0437078 -0.0443315 -0.0547304 0.0622827 -0.00511234 0.0515753 -0.00409607 -0.0871526 0.0555708 0.0672305 0.051303 -0.0623146 0.0462438 0.0350141 0.0179765 0.0310438 -0.0217472 0.0298771 -0.0204075 0.00627391 0.00778581 0.021244 -0.0633868 0.0682363 0.0191167 -0.0843336 0.0192523 0.0411731 -0.0523113 -0.0537359 -0.0480402 -0.00379351 -0.0581471 -0.00321476 0.0212812 -0.0848213 -0.0453149 -0.0495081 -0.0329641 0.0426247 0.0340693 0.00616359 -0.0489498 -0.0723235 -0.0272072 -0.0333145 -0.0252538 -0.0483325 0.0527448 -0.0526826 -0.0115998 0.000156639 0.0170381 0.0549453 0.0567669 0.080279 0.00245061 -0.124177 -0.0114814 -0.0548378 -0.0641946 -0.015637 -0.0580893 -0.065253 0.00643763 0.0442072 -0.0575437 0.0453202 -0.0430649 -0.00849638 -0.017835 0.0172152 -0.0316229 -0.0107738 0.0301618 0.0444385 
